svm_type c_svc
kernel_type rbf
gamma 0.0666667
nr_class 4
total_sv 53
rho 0.0678065 -0.404929 -0.13765 0.0854143 -0.165722 -0.439273
label 4 0 24 6
probA -3.27591 -3.0078 -3.02731 -2.61148 -2.50243 -2.73702
probB -0.319066 0.027844 -0.339345 -0.0639584 -0.0642938 0.172288
nr_sv 20 13 11 9
SV
0 3 3 1:0.92469287 2:-0.33098592 3:-0.11261348 4:0.99820971 5:0.89770269 6:-0.18552465 7:-0.42115768 8:-0.93467521 9:-0.83870968 10:0.16565124 11:0.041217026 12:-0.94736842 13:-0.6519084 14:-0.69942197 15:-0.91596639 
3 0 3 1:0.09167811 2:-0.13028169 3:-0.14655161 4:0.99960813 5:0.84315513 6:-0.21059679 7:-0.57285429 8:-0.99328534 9:-0.96774194 10:0.33545195 11:-0.073753928 12:-1 13:-0.5740458 14:-0.74566474 15:-0.96638655 
3 0 1.044725854395 1:0.060043244 2:0.36267606 3:-0.29775158 4:1 5:0.79363821 6:-0.62904306 7:-0.18163673 8:-0.99955099 9:-0.96774194 10:0.67010926 11:-0.48615927 12:-0.63157895 13:0.18625954 14:0.075144509 15:-0.46218487 
0 0 0.3979383796628878 1:0.9153223 2:-0.67605634 3:-0.2353198 4:0.99781784 5:-0.5809906 6:-0.20690292 7:-0.7005988 8:-0.98404398 9:-1 10:1 11:-1 12:-0.36842105 13:0.59541985 14:-0.49132948 15:-0.54621849 
0 0 0.2963745348912313 1:0.94766057 2:-0.57042254 3:-0.31625512 4:0.99049532 5:-0.46831162 6:-0.55218746 7:0.065868263 8:-0.90797666 9:-0.64516129 10:-0.79315133 11:0.88607337 12:-0.63157895 13:-0.97709924 14:-0.78034682 15:-1 
3 0 0 1:0.047241277 2:0.27112676 3:-0.39570091 4:0.9617738 5:-0.90563411 6:-0.57857555 7:0.12175649 8:-0.88967116 9:-0.38709677 10:-0.93426942 11:0.81761794 12:-0.15789474 13:-0.99541985 14:-0.6300578 15:-0.73109244 
3 0 0 1:-0.012633762 2:0.52816901 3:-0.21246324 4:0.998494 5:-0.59006425 6:-0.42865058 7:-0.1497006 8:-0.9620499 9:-0.48387097 10:-0.87476798 11:0.86875381 12:-0.36842105 13:-0.98931298 14:-0.44508671 15:-0.91596639 
3 0 0 1:-0.006297002 2:0.066901408 3:-0.26462242 4:0.99694959 5:-0.74518324 6:-0.32508369 7:-0.48902196 8:-0.97111663 9:-0.41935484 10:-0.85464501 11:0.7945478 12:-0.42105263 13:-0.97862595 14:-0.79190751 15:-0.83193277 
3 0 2.671070771603495 1:0.070037709 2:0.85211268 3:-0.025720046 4:0.99701106 5:-0.25175973 6:-0.25522336 7:0.58483034 8:-0.94038548 9:-1 10:-0.78806618 11:0.74447885 12:-0.68421053 13:-0.93740458 14:-0.65317919 15:-0.83193277 
0 0.3198159893489307 0 1:0.89486851 2:-0.15140845 3:-0.076235602 4:0.98692241 5:-0.56414474 6:-0.080803417 7:0.89221557 8:-0.9704532 9:-0.70967742 10:-0.62449606 11:0.68874522 12:-0.63157895 13:-0.95267176 14:-0.68786127 15:-0.8487395 
0 1.520194350590655 0 1:0.90467336 2:-0.69014085 3:-0.44074631 4:0.99470596 5:-0.70624354 6:-0.68306591 7:0.52894212 8:-0.90808577 9:0.29032258 10:-0.90843738 11:0.76923077 12:-0.42105263 13:-1 14:-0.31791908 15:-0.6302521 
0 0 0.146152704799433 1:0.5374716 2:0.41197183 3:-0.40671829 4:0.99307702 5:-0.62640506 6:-0.61128939 7:-0.073852295 8:-0.90436745 9:-1 10:-1 11:0.92206876 12:-0.94736842 13:-1 14:-0.86127168 15:-0.88235294 
0 1.13069696046049 0 1:0.64171619 2:-0.71126761 3:-0.22014202 4:0.99994621 5:-0.26831162 6:-0.13688099 7:-0.68063872 8:-0.99789987 9:-0.032258065 10:0.94704481 11:-0.77519383 12:-0.15789474 13:1 14:0.19075145 15:-0.15966387 
0.9188101734659659 2.594776009567688 0 1:0.30549481 2:-0.61971831 3:-0.46672317 4:0.99988475 5:-0.27733571 6:-0.44742006 7:-0.75249501 8:-1 9:0.16129032 10:0.77296756 11:-0.58812812 12:1 13:0.70229008 14:0.97687861 15:1 
0 0 0.8072394141770272 1:0.37409207 2:-0.67605634 3:-0.70177331 4:0.9999539 5:-0.49689673 6:-0.5790142 7:-0.97205589 8:-0.99982656 9:-0.096774194 10:0.55689095 11:-0.5376749 12:-0.10526316 13:-0.33129771 14:-0.50289017 15:-0.46218487 
0 3 0 1:0.55845753 2:0.25352113 3:-0.11697934 4:0.97527399 5:-0.51865762 6:-0.24312594 7:0.65668663 8:-0.83531949 9:0.12903226 10:-0.69578918 11:0.75739958 12:-0.52631579 13:-0.99389313 14:-0.49132948 15:-0.83193277 
0 0.5302337998979512 0 1:0.49027008 2:0.24647887 3:-0.10281598 4:0.98077549 5:-0.56403574 6:-0.048320443 7:0.0099800399 8:-0.88986742 9:-0.29032258 10:-0.96177572 11:1 12:-0.31578947 13:-1 14:-0.78034682 15:-0.71428571 
0 1.316910354729357 0 1:0.6515088 2:-0.35211268 3:-0.28428162 4:0.99019565 5:-0.62106723 6:-0.51891954 7:-0.75648703 8:-0.91154661 9:-0.12903226 10:-0.75261842 11:0.7598047 12:-0.31578947 13:-1 14:-0.42196532 15:-0.61344538 
0 3 3 1:0.56541206 2:-0.052816901 3:-0.07822592 4:0.99499026 5:0.87217625 6:-0.14893224 7:-0.4011976 8:-0.97071053 9:-0.96774194 10:0.079630372 11:0.13555008 12:-1 13:-0.69618321 14:-0.68786127 15:-0.91596639 
0 1.459556532723077 3 1:0.77527135 2:0.18309859 3:-0.053558817 4:0.99771795 5:0.84671919 6:-0.050675286 7:-0.39720559 8:-0.98946125 9:-1 10:0.1664939 11:0.11622324 12:-0.94736842 13:-0.66717557 14:-0.68786127 15:-0.94957983 
-1.443707793637421 0 3 1:-0.76944838 2:-0.098591549 3:-0.10314984 4:0.99825581 5:0.86944458 6:-0.60316288 7:-0.40918164 8:-0.96808875 9:-0.74193548 10:-0.0080356909 11:0.24307511 12:-1 13:-0.75114504 14:-0.67630058 15:-0.88235294 
-0.03740548351003786 2.028081860802766 0 1:-0.76068946 2:0.20070423 3:0.41383207 4:0.99585851 5:-0.39074469 6:0.15294932 7:-0.68063872 8:-0.99761426 9:-0.22580645 10:-0.23775176 11:0.43700807 12:-0.89473684 13:-0.8778626 14:-0.53757225 15:-0.8487395 
-3 0.8201825220598241 0.4800314517346481 1:-0.82691349 2:0.16549296 3:-0.2616562 4:0.99908564 5:0.87991874 6:-0.61209743 7:-0.001996008 8:-0.99332979 9:-1 10:0.68493185 11:-0.46061168 12:-0.42105263 13:0.25648855 14:-0.086705202 15:-0.17647059 
-1.683071317014911 3 0.2676219125426792 1:-0.74860925 2:-0.052816901 3:0.39168175 4:0.9984018 5:0.81515137 6:-0.0019161953 7:0.025948104 8:-0.70669932 9:-0.48387097 10:-0.20959127 11:0.43618979 12:-0.31578947 13:-0.84274809 14:-0.69942197 15:-0.51260504 
-1.709466637471375 2.565087683997231 0 1:-0.79322346 2:1 3:1 4:0.99931615 5:-0.32848106 6:0.66752857 7:-0.77245509 8:-0.99465139 9:-0.16129032 10:-0.40219129 11:0.54799159 12:-0.73684211 13:-0.89312977 14:-0.54913295 15:-0.86554622 
-2.615480139538032 0 0 1:-0.88757145 2:0.59507042 3:-0.31412355 4:0.9980253 5:-0.94476341 6:-0.54496133 7:-0.25349301 8:-0.99791857 9:-0.93548387 10:-0.8634802 11:0.82391555 12:-0.57894737 13:-1 14:-0.41040462 15:-0.4789916 
-3 0 0 1:-0.81808729 2:0.091549296 3:-0.42645454 4:0.99936226 5:-0.73275628 6:-0.63947824 7:-0.38522954 8:-0.99885517 9:-0.16129032 10:-0.85269217 11:0.77232306 12:-0.42105263 13:-0.99694656 14:-0.4566474 15:-0.64705882 
-0.3717385757639202 0 0 1:-0.89113741 2:0.035211268 3:-0.39444252 4:0.99457534 5:-1 6:-0.92392935 7:-0.14171657 8:-0.91849891 9:-0.96774194 10:-0.7187575 11:0.75481363 12:-0.42105263 13:-0.99083969 14:-0.67630058 15:-0.81512605 
-0.7251730249035694 0.5940033098157624 0 1:-0.81396473 2:-0.27464789 3:-0.24795511 4:0.99030322 5:-0.69570761 6:-0.76257647 7:0.30139721 8:-0.98964354 9:-0.64516129 10:-0.90542763 11:0.93666222 12:-0.94736842 13:-0.99847328 14:-0.68786127 15:-0.96638655 
-3 0 0 1:-0.80764632 2:0.063380282 3:-0.46394956 4:0.99787931 5:-0.76805133 6:-0.72042018 7:-0.02994012 8:-0.99415734 9:-0.96774194 10:-0.9170385 11:0.89136282 12:-0.84210526 13:-0.99847328 14:-0.78034682 15:-0.88235294 
-0 0 1.283339204760406 1:-0.93273615 2:-0.41197183 3:-0.58995596 4:0.99950056 5:-0.26530579 6:-0.52833891 7:-0.69660679 8:-0.9942278 9:-1 10:-0.26007927 11:-0.39052872 12:-1 13:-0.82442748 14:-1 15:-1 
-1.332767201626699 1.331592754191404 3 1:-0.85255412 2:0.51056338 3:0.130796 4:0.99991548 5:0.85053758 6:0.13937435 7:0.29341317 8:-0.99582636 9:-1 10:-0.21894568 11:-0.20825064 12:-1 13:-0.60458015 14:-0.98843931 15:-1 
-0 0 1.860215290270445 1:-1 2:-0.6056338 3:-0.72314034 4:0.99870146 5:-0.25248642 6:-1 7:-0.88822355 8:-0.99596427 9:-1 10:-0.56441533 11:-0.41985578 12:-1 13:-0.99083969 14:-1 15:-1 
-3 -3 3 1:0.076148155 2:-0.72535211 3:0.35169562 4:0.99863231 5:0.81408116 6:0.1051137 7:0.38922156 8:-0.99625408 9:-0.58064516 10:-0.22024432 11:0.31202333 12:-0.89473684 13:-0.85954198 14:-0.58381503 15:-0.86554622 
-1.628938509715927 -0.07807193972357702 0.7514887925100576 1:1 2:-1 3:0.37204823 4:-1 5:1 6:0.04827427 7:0.29740519 8:1 9:-1 10:-0.51280622 11:0.50549063 12:-1 13:-0.96030534 14:-0.78034682 15:-0.96638655 
-3 -0 0.3033128801766408 1:0.89855068 2:-0.72183099 3:0.38381037 4:0.99847864 5:0.87866026 6:0.22998961 7:0.15369261 8:-0.86691885 9:-0.12903226 10:-0.13873225 11:0.36606614 12:-0.84210526 13:-0.82748092 14:-0.37572254 15:-0.74789916 
-0 -3 0 1:-0.015184369 2:-0.049295775 3:0.96082284 4:0.99830191 5:-0.28503856 6:0.78058409 7:-0.18163673 8:-0.97569184 9:0.48387097 10:-0.45754313 11:0.5854834 12:-0.73684211 13:-0.90534351 14:-0.51445087 15:-0.81512605 
-0 -0.3007989575739998 0 1:0.43930687 2:-0.78521127 3:0.36217368 4:-0.85028624 5:0.84373317 6:0.16289969 7:0.56886228 8:0.32397053 9:-0.61290323 10:-0.18720418 11:0.43207577 12:-0.94736842 13:-0.84427481 14:-0.58381503 15:-0.73109244 
-0.2183117580928355 -3 2.250047971223646 1:0.33356372 2:0.66197183 3:0.93143033 4:0.99708021 5:0.83338123 6:0.87722498 7:-0.017964072 8:-0.9891111 9:-0.74193548 10:0.080294287 11:0.43421415 12:-0.57894737 13:-0.55419847 14:-0.43352601 15:-0.57983193 
-3 -0 2.040672421426365 1:0.68083161 2:0.67957746 3:0.95838309 4:0.99830191 5:0.88021272 6:0.66865982 7:0.073852295 8:-0.99685058 9:-0.80645161 10:-0.12880391 11:0.44266371 12:-0.57894737 13:-0.60152672 14:-0.29479769 15:-0.57983193 
-3 -0.8548189160935709 0 1:0.52637615 2:-0.74647887 3:-0.01567857 4:0.99983096 5:-0.45354671 6:-0.14641579 7:-0.37724551 8:-0.99773202 9:1 10:-0.0030988815 11:0.23401071 12:0.47368421 13:-0.7648855 14:-0.17919075 15:0.058823529 
-3 -0.1052583174758406 0.06288085083332685 1:0.81422162 2:-0.65140845 3:0.038483763 4:0.99983864 5:-0.46217444 6:0.11522567 7:-0.84830339 8:-0.99657248 9:0.32258065 10:0.32301265 11:0.078487308 12:0.47368421 13:-0.62900763 14:0.052023121 15:-0.025210084 
-1.024933729509385 -0 0 1:0.7729654 2:-0.64788732 3:0.4960001 4:0.99999232 5:-0.32753968 6:0.38280042 7:-0.20558882 8:-0.98447835 9:-0.12903226 10:-0.044367447 11:0.35244015 12:-0.10526316 13:-0.67938931 14:0.028901734 15:-0.54621849 
-0 -0 0.6976101980061407 1:0.51140892 2:-0.95070423 3:0.5299896 4:0.090155045 5:0.85317677 6:0.53939744 7:0.69261477 8:-0.9100537 9:-1 10:-0.029801427 11:0.20818735 12:-1 13:-0.62748092 14:-0.41040462 15:-0.83193277 
-3 -3 -0 1:0.26574327 2:-0.3943662 3:-0.62411238 4:0.99893966 5:0.85158467 6:-0.51390973 7:-0.68862275 8:-0.99940496 9:-1 10:-0.2519846 11:-0.4250729 12:-1 13:-0.8351145 14:-1 15:-1 
-3 -0 -1.297509743232872 1:0.53292087 2:0.51760563 3:0.046663328 4:0.99897807 5:0.89780508 6:0.4107584 7:0.02994012 8:-0.99624902 9:-1 10:-0.24552541 11:-0.38133773 12:-1 13:-0.5129771 14:-1 15:-1 
-0 -0.8239974743525007 -0.5086708193238773 1:0.34661647 2:0.22535211 3:-0.14795126 4:0.99999232 5:0.88683546 6:0.78979568 7:0.005988024 8:-0.99597844 9:-1 10:-0.2402992 11:-0.48078392 12:-1 13:-0.44427481 14:-1 15:-1 
-3 -0 -3 1:0.57086192 2:0.34507042 3:0.093108363 4:0.99982328 5:0.90024608 6:0.377629 7:0.22155689 8:-0.99445972 9:-1 10:-0.25567383 11:-0.4077669 12:-1 13:-0.48549618 14:-1 15:-1 
-1.348602168962245 -0 -1.299832551619428 1:0.47558421 2:-0.60211268 3:-0.82704778 4:0.2003848 5:0.86349238 6:-0.94613875 7:-0.94011976 8:-0.75521638 9:-0.61290323 10:-0.34569279 11:-0.5064581 12:-1 13:-0.91603053 14:-0.98843931 15:-1 
-0 -0.06721038495567654 -0 1:0.17257578 2:-0.46830986 3:-0.61502112 4:0.9996696 5:0.85473583 6:-0.13318712 7:-0.69660679 8:-0.98824895 9:-1 10:-0.3676932 11:-0.49482131 12:-1 13:-0.83358779 14:-1 15:-1 
-3 -3 -3 1:0.32800377 2:0.43309859 3:0.12070316 4:1 5:0.87523824 6:0.3942745 7:0.3493014 8:-0.99449125 9:-1 10:-0.20647962 11:-0.28388526 12:-1 13:-0.56335878 14:-1 15:-1 
-3 -0 -0 1:0.77551601 2:-0.39788732 3:-0.60301501 4:0.99944678 5:0.85245669 6:-0.48694448 7:-0.79241517 8:-0.99485849 9:-1 10:-0.23027115 11:-0.32895861 12:-1 13:-0.84274809 14:-1 15:-1 
-1.014899490566829 -3 -0 1:0.22683581 2:-0.72887324 3:-0.80817186 4:0.99745671 5:0.79822623 6:-0.71801916 7:-0.93612774 8:-0.97570641 9:-0.80645161 10:-0.37570032 11:-0.48449106 12:-1 13:-0.9480916 14:-1 15:-1 
