svm_type c_svc
kernel_type rbf
gamma 0.0666667
nr_class 4
total_sv 38
rho 0.424758 -0.304636 -1.08697 -0.12279 -0.264894 0.0938582
label 5 0 24 6
probA -3.15942 -2.2298 -2.69229 -2.37043 -2.26546 -2.51866
probB 0.330475 -0.361582 -0.456317 0.123798 -0.27754 -0.0532907
nr_sv 11 12 8 7
SV
0 3.781947414670611 5.09028227376249 1:0.11607207 2:-0.74940898 3:0.98838054 4:-0.62745448 5:0.99997629 6:-0.4795894 7:0.02173913 8:-1 9:0.77931503 10:-0.16775244 11:0.14084507 12:-0.31315811 13:0.25117318 14:0.87024636 15:-0.96971532 
1.353942500588105 0 1.030926704945678 1:0.18983991 2:-0.88179669 3:-0.50761841 4:-1 5:0.99993678 6:-1 7:-0.32608696 8:-0.99674797 9:-0.089369289 10:0.90553746 11:0.20187793 12:-1 13:0.54745471 14:0.25999229 15:-1 
0 5.734824234619625 7 1:0.88293098 2:-0.40898345 3:0.86156781 4:-0.36437982 5:0.99613572 6:-0.20816424 7:-0.57608696 8:-0.26504065 9:-0.7207888 10:-0.73615635 11:-0.27699531 12:0.85750133 13:-0.32977849 14:-0.40867868 15:-0.60145366 
0 0 0.9128867916817339 1:0.37853315 2:0.88652482 3:-0.72003015 4:-0.3020325 5:0.99733688 6:-0.24798715 7:-0.48913043 8:-0.25203252 9:-0.9006965 10:-0.47882736 11:-0.54460094 12:0.92625025 13:0.32567546 14:-0.72053152 15:-0.75166566 
1.691846563138634 0 0.7068234691978598 1:0.05177019 2:0.35224586 3:-0.73205411 4:-0.20982838 5:0.90153584 6:-0.24987521 7:-0.95652174 8:-0.29105691 9:-0.85598761 10:-0.97557003 11:-0.37558685 12:0.88693009 13:-0.33369878 14:-0.63002244 15:-0.58207147 
6.045319391153801 0 0 1:0.015219721 2:0.88652482 3:-0.87238058 4:-0.24586331 5:0.99012988 6:-0.17997352 7:-0.86956522 8:-0.4601626 9:-0.97599333 10:-0.81596091 11:-0.1971831 12:0.96744839 13:-0.32298441 14:-0.91501005 15:-0.61235615 
7 0.02221091449806094 0 1:-0.067592167 2:-0.82033097 3:-0.51496154 4:-0.64077067 5:0.99962859 6:-0.47550945 7:0.30434783 8:-0.84715447 9:0.21151917 10:0.26058632 11:-0.11737089 12:0.092609553 13:0.59089361 14:0.4945656 15:-0.96365839 
0 2.225429328179165 0 1:0.66726212 2:-0.79669031 3:-0.50095276 4:-0.60042828 5:0.99995259 6:-0.45231016 7:0.22826087 8:-0.95121951 9:0.17646213 10:0.32247557 11:-0.18309859 12:0.053968739 13:0.63348533 14:0.46880186 15:-0.97334949 
1.455917818764936 1.081806880303528 0.9888174678909746 1:0.074322462 2:0.29550827 3:-0.39513503 4:-0.18276526 5:0.99973922 6:-0.08973719 7:-0.5 8:-0.2195122 9:0.82991559 10:-0.79478827 11:-0.25352113 12:-0.11582463 13:0.19705313 14:0.90066732 15:-0.72259237 
1.67002988444271 7 2.608967122357775 1:0.23678865 2:0.51300236 3:0.83545376 4:-0.035253432 5:0.99832469 6:0.17448295 7:0.26086957 8:-0.4504065 9:0.24582776 10:-0.38110749 11:0.24882629 12:0.36791468 13:-0.54936503 14:0.5194236 15:-0.80012114 
4.139980379464099 0 0 1:0.075676687 2:0.29078014 3:-0.39383627 4:-0.26836052 5:0.98613125 6:-0.23507455 7:-0.7826087 8:-0.23252033 9:-0.72284224 10:-0.76710098 11:-0.1971831 12:0.94638516 13:0.02681916 14:-0.41164131 15:-0.66686856 
-0.9954171179116859 0.05113059440495379 0 1:-0.96383742 2:-0.89125296 3:-0.86000896 4:-0.20344104 5:0.99159973 6:-0.36795503 7:-0.84782609 8:-0.62276423 9:0.87480999 10:-0.97557003 11:-0.36619718 12:-0.3214454 13:0.52733827 14:0.92730758 15:1 
-0 0.1551846095411529 0 1:-0.92293846 2:-0.78723404 3:-0.69845385 4:-0.59998523 5:0.99886995 6:-0.82425834 7:-0.70652174 8:0.91544715 9:0.62494174 10:-0.63517915 11:-0.5399061 12:-0.6899345 13:0.25702041 14:0.77474114 15:-0.82677165 
-5.358876199262392 0.5926803856136758 0 1:-0.98302795 2:-0.75413712 3:-0.48740333 4:-0.63794005 5:0.99997629 6:-0.85917663 7:-0.15217391 8:-0.88617886 9:0.25550008 10:0.67263844 11:-0.023474178 12:0.16511799 13:0.50331813 14:0.5263773 15:-0.97092671 
-1.066128100894279 7 0.3764175533312855 1:-0.76162235 2:0.59338061 3:-0.26723173 4:0.97673975 5:0.99525855 6:0.72944291 7:0.26086957 8:-0.20325203 9:-0.47068769 10:0.39250814 11:-0.28638498 12:0.76479041 13:-0.98513277 14:-0.09972419 15:-0.33737129 
-0 2.622821408720903 0 1:-0.99578081 2:0.24822695 3:0.80351347 4:0.39780566 5:0.9954403 6:0.11334881 7:0.36956522 8:-0.11544715 9:-0.23502854 10:0.20521173 11:-0.53051643 12:0.5980452 13:-0.85450045 14:0.13303181 15:-0.60508783 
-1.734203298176497 7 0.4624590183388345 1:-0.84039878 2:0.11111111 3:0.84336531 4:-0.055523079 5:0.9970603 6:-0.33223377 7:0.56521739 8:-0.49268293 9:0.15305921 10:-0.29967427 11:-0.098591549 12:0.35986925 13:-0.44715488 14:0.45140009 15:-0.79648698 
-0.6115000486675021 0 0 1:-0.96876435 2:0.59810875 3:-0.92198074 4:-0.2676221 5:0.99984985 6:-0.3698431 7:-0.85869565 8:-0.22926829 9:-0.9365918 10:-0.92019544 11:-0.33802817 12:1 13:-0.28821668 14:-0.80427039 15:-0.62083586 
-7 0 0 1:-0.77913881 2:0.33806147 3:-0.80297017 4:-0.33846125 5:0.99948634 6:-0.55016385 7:-0.70652174 8:-0.22601626 9:-0.87210814 10:-0.72964169 11:-0.29577465 12:0.8582447 13:-0.17532538 14:-0.66125564 15:-0.73228346 
-2.912593426070576 0 0 1:-0.73736198 2:0.79669031 3:-1 4:-0.3894492 5:0.99965229 6:-0.47390351 7:-0.086956522 8:-0.043902439 9:-0.81721517 10:-0.23615635 11:0.68075117 12:0.86757412 13:0.17557455 14:-0.56004722 15:-0.66686856 
-1.504725313496999 0 2.106003342619355 1:-0.8539002 2:-0.58865248 3:-0.35975119 4:-0.76555145 5:0.99980244 6:-0.6405521 7:-0.25 8:-0.86341463 9:-0.44918981 10:-0.60260586 11:-0.71361502 12:-0.32999589 13:-0.64994726 14:-0.07670687 15:-0.92368262 
-0 0 7 1:-0.78888379 2:-0.17257683 3:0.85763517 4:-0.39881483 5:0.99932039 6:-0.67668569 7:-0.35869565 8:-0.66178862 9:-0.36857307 10:-0.57980456 11:-0.78403756 12:-0.0013995913 13:-0.098580553 14:0.006100554 15:-0.88491823 
-2.173593033072354 -0 4.38454801587515 1:-0.74340496 2:0.85815603 3:0.84536467 4:0.19115864 5:0.99964439 6:0.43618568 7:-1 8:0.086178862 9:-0.20330435 10:-0.99511401 11:-1 12:0.067221287 13:0.87747407 14:0.1616004 15:-0.47789219 
-3.289445541040206 -0 2.072714496714794 1:0.15116623 2:-0.11111111 3:1 4:0.039683956 5:0.9986882 6:0.039280366 7:0.30434783 8:-0.80162602 9:0.0068997158 10:0.48859935 11:-0.15023474 12:0.54955211 13:-0.37896494 14:0.33862749 15:-0.89339794 
-0 -5.361806919386956 0 1:0.01807108 2:-0.10638298 3:-0.29834585 4:0.95223649 5:0.98805154 6:0.90418629 7:0.19565217 8:-0.082926829 9:-0.45630587 10:0.66775244 11:-0.075117371 12:0.69699115 13:-1 14:-0.084274128 15:-0.3737129 
-0.01326745475822251 -0 0.3865482903540632 1:0.51706562 2:-0.73522459 3:0.91681973 4:0.3743485 5:-1 6:0.21495692 7:-0.032608696 8:0.11219512 9:-0.17504224 10:-0.1465798 11:-0.73239437 12:0.58468239 13:-0.81119445 14:0.18659865 15:-0.7007874 
-0 -5.257348974965199 0 1:-0.04908896 2:-0.16312057 3:0.88185229 4:0.37508692 5:0.99773991 6:0.31467697 7:0.22826087 8:-0.10894309 9:-0.12871618 10:0.46905537 11:-0.65258216 12:0.534009 13:-0.85333765 14:0.22671388 15:-0.59660812 
-7 -0 5.305030066861605 1:0.71845727 2:0.14420804 3:0.85993857 4:-0.04472983 5:0.99864078 6:-0.035959982 7:0.39130435 8:-0.54146341 9:0.33291701 10:-0.31433225 11:0.051643192 12:0.20719465 13:-0.50335136 14:0.58108945 15:-0.75529982 
-3.263860667485686 -6.80266110392853 0 1:0.024923867 2:0.21040189 3:0.79545321 4:-0.069196168 5:0.99240577 6:-0.00069445952 7:1 8:-0.50569106 9:0.18871629 10:-0.1514658 11:0.35680751 12:0.28483906 13:-0.57531209 14:0.47784751 15:-0.80254391 
-1.855369060812401 -0 0.1426595719577439 1:0.44607428 2:-0.57446809 3:-0.49269421 4:0.049061898 5:0.9990122 6:0.27353024 7:0.23913043 8:-0.86341463 9:0.31445517 10:1 11:-0.342723 12:0.38097516 13:-0.40612464 14:0.56818129 15:-0.90308904 
-4.424276048174473 -0 3.122262406157204 1:0.60112285 2:-0.96217494 3:0.93183977 4:0.50728883 5:0.99506099 6:0.51750255 7:-0.70652174 8:0.69756098 9:-0.2754207 10:-0.65472313 11:-0.48356808 12:0.49381032 13:-0.4461748 14:0.095826613 15:-0.92852816 
-0 -3.518430631782614 -0 1:0.15205771 2:-0.6501182 3:0.78878094 4:-0.87686836 5:0.99481601 6:-0.54241629 7:-0.22826087 8:-0.89268293 9:-0.45997649 10:-0.47068404 11:-0.55868545 12:-0.40676179 13:-0.64775455 14:-0.088200921 15:-0.93700787 
-0.2350251339614432 -0 -0 1:0.88596608 2:-0.60283688 3:0.85607864 4:-0.74486336 5:0.99826937 6:-0.65068686 7:0.086956522 8:-0.88292683 9:-0.45724752 10:-0.30456026 11:-0.50704225 12:-0.27669049 13:-0.62818628 14:-0.085285043 15:-0.94548758 
-3.542651083925996 -4.660299228908785 -3.302440525645639 1:0.39385835 2:0.60283688 3:0.87909614 4:0.078537189 5:0.99884625 6:0.72942121 7:-1 8:-0.1804878 9:-0.26465449 10:-1 11:-0.99530516 12:-0.032638754 13:0.82715803 14:0.10583643 15:-0.58933979 
-4.92619559072324 -6.150698069473227 -1.215213493213565 1:0.23406659 2:-0.22458629 3:0.86345812 4:-0.44198783 5:0.99374919 6:-0.31695566 7:-0.25 8:-0.67804878 9:-0.30848827 10:-0.60749186 11:-0.85446009 12:0.043284185 13:-0.19024244 14:0.064634317 15:-0.82192611 
-7 -0 -6.511560813186207 1:0.56069344 2:-0.69267139 3:0.81858638 4:-0.7521245 5:0.99931249 6:-0.62036937 7:0.065217391 8:-0.77886179 9:-0.3056096 10:-0.42019544 11:-0.10328638 12:-0.10831983 13:-0.61185724 14:0.067380735 15:-0.92125984 
-1.978708370395833 -0 -0 1:0.61316116 2:0.1820331 3:0.86787325 4:-0.31569328 5:0.99893317 6:-0.1189913 7:-0.77173913 8:-0.65853659 9:-0.25270483 10:-0.7752443 11:-0.79342723 12:-0.042910723 13:0.088995756 14:0.11686885 15:-0.82071472 
-0.6561236508300023 -0 -0 1:0.68556797 2:-0.68794326 3:0.81307077 4:-0.8265573 5:-0.88474319 6:-0.59248248 7:-0.45652174 8:-0.82439024 9:-0.5573138 10:-0.64495114 11:-0.65258216 12:-0.29069352 13:-0.70290451 14:-0.19719281 15:-0.93216233 
