svm_type c_svc
kernel_type rbf
gamma 0.04
nr_class 4
total_sv 60
rho 0.182575 -0.127294 0.528619 -1.77395 -1.03341 0.151393
label 24 0 6 2
probA -2.37253 -2.48533 -1.95092 -2.56603 -3.49482 -2.91101
probB 0.173479 -0.134313 0.0872795 -0.239728 -0.57849 0.27662
nr_sv 13 15 10 22
SV
1.171299710650097 2.502940516087765 0 1:0.99418534 2:0.27238442 3:-0.28301887 4:0.2459335 5:-0.30520726 6:-0.076923077 7:0.33046923 8:-0.62025316 9:-0.546875 10:-0.6443057 11:0.26194399 12:-0.091836735 13:-0.65625 14:-0.51293103 15:-0.55232558 16:-0.79688335 17:-0.81368821 18:0.76287652 19:-0.46405229 20:-0.86835443 21:0.10307949 22:-0.82142857 23:-0.57837838 24:-0.6440678 25:-0.92857143 
6 1.005131108735938 0 1:-0.46984479 2:0.2559214 3:-0.43396226 4:0.22700713 5:-0.29872911 6:-0.53846154 7:0.31738469 8:-0.43459916 9:-0.74431818 10:0.019195705 11:0.14662273 12:0.12244898 13:-0.9375 14:0.094827586 15:-0.54069767 16:-0.82715065 17:-0.65779468 18:-0.045930616 19:-0.76470588 20:-0.85991561 21:0.10903544 22:-0.96428571 23:-0.56756757 24:-0.88135593 25:-1 
0.925445421592032 0 0 1:0.34110485 2:0.95766651 3:0.13207547 4:1 5:-0.42451119 6:-0.53846154 7:0.51902435 8:-0.64556962 9:-0.51420455 10:0.010488941 11:0.74958814 12:0.091836735 13:-0.71875 14:-0.030172414 15:-0.5 16:-0.93766701 17:-0.85171103 18:0.86012593 19:-0.62091503 20:-0.88860759 21:-0.011902293 22:-0.89285714 23:-0.62162162 24:-0.6440678 25:-0.96428571 
3.543313867739931 0 0 1:-0.67700448 2:0.93659718 3:-0.88679245 4:0.79219864 5:-0.49012742 6:-1 7:0.54234201 8:-0.51054852 9:-0.73721591 10:-0.047020986 11:0.75947282 12:0.1122449 13:-0.84375 14:0.56896552 15:-0.40697674 16:-0.82767659 17:-0.76806084 18:-0.11958568 19:-0.76470588 20:-0.91223629 21:-0.080104559 22:-0.96428571 23:-0.6 24:-0.81355932 25:-0.96428571 
0 3.869667917574692 6 1:-0.86140349 2:-0.18508726 3:-1 4:-0.35482695 5:0.10106269 6:-1 7:0.2060348 8:-0.26582278 9:-0.63210227 10:-1 11:-0.5815486 12:-0.1122449 13:-0.9375 14:-0.068965517 15:0.76162791 16:-0.41896626 17:0.019011407 18:0.010954294 19:-0.94771242 20:-0.68945148 21:0.43547556 22:-1 23:-0.66486486 24:-0.83050847 25:-1 
6 1.953464422398346 6 1:0.99449178 2:-0.20831362 3:-0.73584906 4:-0.20601562 5:0.10699768 6:-1 7:0.062889143 8:0.012658228 9:-0.703125 10:-0.087765761 11:-0.64085667 12:1 13:-1 14:-0.2887931 15:0.99418605 16:-0.49052874 17:0.095057034 18:0.066115986 19:-0.88235294 20:-0.64050633 21:0.43983264 22:-1 23:-0.6972973 24:-0.83050847 25:-1 
0 0 6 1:0.98722154 2:-0.13441788 3:0.54716981 4:-0.078365869 5:0.035853842 6:-0.53846154 7:0.42373223 8:0.2742616 9:-0.03125 10:-0.67010009 11:-0.64085667 12:0.020408163 13:-0.1875 14:-0.40086207 15:0.53488372 16:-0.32746876 17:-0.4904943 18:0.5012971 19:-0.1372549 20:-0.74514768 21:0.38678399 22:-0.39285714 23:-0.027027027 24:-0.45762712 25:-0.75 
0 0 1.717458844094407 1:0.99996936 2:-0.056806479 3:0.81132075 4:0.078438757 5:-0.15904765 6:-0.076923077 7:0.43672921 8:0.51898734 9:0.26278409 10:-0.4196108 11:-0.52553542 12:-0.030612245 13:-0.34375 14:-0.37931034 15:0.35465116 16:-0.37821399 17:-0.39543726 18:-0.0020072987 19:-0.12418301 20:-0.79578059 21:0.23150612 22:-0.57142857 23:-0.016216216 24:-0.42372881 25:-0.85714286 
1.247411860923062 0 4.564039642980101 1:0.99806178 2:0.84096412 3:-0.69811321 4:0.7583304 5:-0.14888567 6:-1 7:0.42794654 8:-0.20675105 9:-0.51136364 10:-0.65725607 11:-0.084019769 12:0.73469388 13:-0.6875 14:0.70689655 15:0.48255814 16:-0.44015677 17:0.33460076 18:0.50629193 19:-0.68627451 20:-0.62700422 21:0.24001148 22:-0.71428571 23:-0.47027027 24:-0.83050847 25:-0.89285714 
0 0 4.245625777065118 1:-1 2:0.2763645 3:-0.9245283 4:0.36058504 5:-0.2503971 6:-1 7:0.4111426 8:-0.49367089 9:-0.74147727 10:-0.56109401 11:0.077429984 12:0.24489796 13:-0.96875 14:0.2112069 15:-0.1627907 16:-0.80657092 17:-0.58174905 18:-0.12921946 19:-0.84313725 20:-0.86666667 21:0.15265566 22:-1 23:-0.57837838 24:-0.88135593 25:-1 
6 0 0 1:0.99497442 2:0.26880793 3:0.58490566 4:0.40798601 5:-0.19769482 6:-0.23076923 7:0.36605673 8:-0.62869198 9:-0.62784091 10:-0.12181065 11:-0.17627677 12:0.43877551 13:-0.6875 14:0.068965517 15:-0.34302326 16:-0.82803288 17:-0.44106464 18:0.3981413 19:-0.50326797 20:-0.84135021 21:0.19868244 22:-0.89285714 23:-0.45945946 24:-0.76271186 25:-0.92857143 
0.09933534593192958 0 3.814137371015679 1:0.9972727 2:-0.1427816 3:-0.24528302 4:-0.018088169 5:-0.10454271 6:0.53846154 7:0.34351189 8:-0.37552743 9:0.21164773 10:-0.56854518 11:-0.29818781 12:-0.030612245 13:-0.28125 14:-0.36637931 15:-0.12790698 16:-0.33581602 17:-0.76045627 18:0.10614333 19:-0.34640523 20:-0.77890295 21:0.27656038 22:-0.53571429 23:-0.16756757 24:-0.47457627 25:-0.75 
0 0.6738972995429348 3.77589999495049 1:-0.8294267 2:-0.14115339 3:-0.62264151 4:-0.066218006 5:0.11029032 6:0.69230769 7:0.26963394 8:-0.55274262 9:0.36647727 10:-0.57714903 11:0.10049423 12:-0.82653061 13:-0.375 14:-0.85344828 15:-0.5755814 16:-0.38866503 17:-0.97338403 18:0.71075544 19:-0.59477124 20:-0.68270042 21:0.44225019 22:-0.71428571 23:-0.44864865 24:-0.50847458 25:-0.75 
-5.583498108197225 0 0 1:0.99291362 2:0.29068441 3:-0.50943396 4:0.08490142 5:-0.38468799 6:-1 7:0.41344962 8:-0.35021097 9:-0.84375 10:0.017480424 11:-0.15650741 12:0.32653061 13:-1 14:0.40948276 15:-0.36046512 16:-0.89725406 17:-0.121673 18:-0.94560002 19:-0.77777778 20:-0.91223629 21:0.027668538 22:-1 23:-0.54594595 24:-0.91525424 25:-1 
-6 1.606400447942791 4.885737248999684 1:0.2803612 2:0.2963066 3:0.018867925 4:0.48417741 5:-0.16409812 6:-1 7:0.35737685 8:-0.65400844 9:-0.89204545 10:0.56705289 11:0.060955519 12:0.13265306 13:-0.8125 14:0.0086206897 15:-0.58139535 16:-0.83714361 17:-0.77186312 18:0.67392478 19:-0.55555556 20:-0.84978903 21:0.22725893 22:-1 23:-0.34054054 24:-0.77966102 25:-0.96428571 
-6 0 0 1:0.98158308 2:0.95990704 3:-0.16981132 4:0.94169025 5:-0.33972337 6:-0.23076923 7:0.45343036 8:-0.59493671 9:-0.890625 10:0.64360929 11:0.21911038 12:0.15306122 13:-0.71875 14:1 15:-0.44767442 16:-0.83997693 17:-0.36882129 18:-0.086950685 19:-0.75163399 20:-0.8649789 21:0.070871182 22:-0.82142857 23:-0.54594595 24:-0.81355932 25:-1 
-3.180669488537897 3.395019573021156 5.210475601794387 1:0.99925689 2:-0.24907456 3:-1 4:0.11245278 5:0.35984626 6:-1 7:-0.089027758 8:-0.53586498 9:-0.90625 10:1 11:-0.91103789 12:-1.110223e-16 13:-0.875 14:-0.21982759 15:0.11627907 16:-0.57184666 17:-0.21292776 18:0.80338462 19:-0.86928105 20:-0.62025316 21:0.61594536 22:-0.85714286 23:-0.76216216 24:-0.94915254 25:-1 
-0 1.176519216673913 1.927015999093572 1:0.97992832 2:-0.41519385 3:-1 4:-0.10628166 5:1 6:-1 7:-1 8:-0.61181435 9:-0.671875 10:0.95340612 11:-0.73311367 12:-0.89795918 13:-0.5 14:0.073275862 15:-0.37790698 16:0.05278963 17:-0.50570342 18:0.97267826 19:-0.55555556 20:1 21:1 22:-0.78571429 23:-0.49189189 24:-0.49152542 25:-0.82142857 
-1.709682045740273 0 6 1:0.9904851 2:-0.48382922 3:-0.8490566 4:-0.73750896 5:-0.8134471 6:-0.84615385 7:0.78979848 8:-0.65400844 9:-0.39204545 10:-0.71956192 11:-0.34102142 12:-0.87755102 13:-0.90625 14:-0.056034483 15:0 16:-0.0046401941 17:0.31939163 18:-0.90803887 19:-0.84313725 20:-1 21:-0.50674646 22:-0.89285714 23:-0.58918919 24:-0.77966102 25:-0.82142857 
-0 0 0.08035029205404359 1:0.99970888 2:-0.43804448 3:-0.62264151 4:-0.4551926 5:-0.86467809 6:-0.84615385 7:0.71388381 8:-0.6371308 9:-0.85653409 10:0.64518735 11:-0.32454695 12:-0.83673469 13:-0.90625 14:0.35775862 15:-0.023255814 16:-0.23517386 17:0.45627376 18:-0.8455098 19:-0.79084967 20:-0.99324895 21:-0.60112965 22:-0.78571429 23:-0.77297297 24:-0.88135593 25:-0.96428571 
-0 5.563060144718379 5.222814588810506 1:0.43882791 2:-0.43907429 3:-1 4:-0.65053025 5:-0.94755735 6:-1 7:1 8:-0.96624473 9:-0.70596591 10:-0.64023705 11:-0.52224053 12:-1 13:-0.96875 14:-0.31896552 15:-0.86627907 16:-0.29533521 17:-0.02661597 18:-0.64838245 19:-1 20:-1 21:-0.79705526 22:-1 23:-0.98918919 24:-1 25:-1 
-0 0 6 1:0.99991573 2:-0.43299285 3:-1 4:-0.22445608 5:-0.97609848 6:-1 7:0.73682457 8:-0.97468354 9:-0.79829545 10:0.76741481 11:-0.19604613 12:-1 13:-0.96875 14:0.038793103 15:-0.48837209 16:-0.15278709 17:0.17110266 18:-0.028511134 19:-0.9869281 20:-1 21:-0.8911489 22:-1 23:-0.97837838 24:-0.98305085 25:-1 
-0 0 6 1:0.99246163 2:-0.25937265 3:-0.9245283 4:-0.53898857 5:-1 6:-0.84615385 7:0.80591716 8:-0.70464135 9:-0.53125 10:-0.69826156 11:-0.24876442 12:-0.86734694 13:-0.9375 14:0.22844828 15:-0.39534884 16:0.025321717 17:0.44106464 18:-0.81343048 19:-0.88235294 20:-1 21:-1 22:-0.85714286 23:-0.92432432 24:-0.94915254 25:-0.92857143 
-0 6 0 1:0.99853676 2:-0.9187286 3:-1 4:-0.051203246 5:-0.35859597 6:-1 7:-0.61869448 8:-0.99156118 9:-0.81392045 10:0.71575399 11:-0.80560132 12:-0.67346939 13:-1 14:-0.67241379 15:-0.90116279 16:-0.19245353 17:-0.4904943 18:0.47584842 19:-1 20:-0.75189873 21:0.052920904 22:-1 23:-1 24:-1 25:-1 
-0 0.3773510984097156 0 1:0.99998468 2:-0.82181525 3:-1 4:-0.30118199 5:-0.2716442 6:-1 7:-0.43464299 8:-1 9:-0.82102273 10:0.77590545 11:-0.77594728 12:-0.59183673 13:-1 14:-0.56896552 15:-0.97674419 16:-0.19228387 17:-0.38403042 18:-0.76716584 19:-1 20:-0.75864979 21:0.13365595 22:-1 23:-1 24:-1 25:-1 
-2.512956564361655 4.46431995365523 0 1:0.99718843 2:-0.99919285 3:-0.73584906 4:-1 5:-0.22583119 6:-1 7:-0.40107699 8:-0.907173 9:-0.875 10:0.010996664 11:-0.94728171 12:0.44897959 13:-1 14:-0.82327586 15:0.30232558 16:-0.58674279 17:-0.54372624 18:-0.93794544 19:-1 20:-0.91054852 21:0.17430368 22:-1 23:-0.94594595 24:-1 25:-0.96428571 
-0 2.666949766231695 0 1:0.99995403 2:-0.11700854 3:-1 4:0.76802439 5:-0.20297576 6:-1 7:-0.33409346 8:-1 9:-0.61931818 10:0.78212849 11:-0.080724876 12:-1 13:-1 14:0.47413793 15:-0.99418605 16:0.87351866 17:1 18:-0.76182137 19:-1 20:-0.44135021 21:0.19413855 22:-1 23:-1 24:-1 25:-1 
-0 6 1.33480883895927 1:0.99934116 2:0.034025439 3:-1 4:0.41544479 5:-0.16105463 6:-1 7:-0.11882106 8:-1 9:-0.49431818 10:-0.5563564 11:0.38714992 12:-1 13:-1 14:0.7887931 15:-0.97674419 16:1 17:0.69961977 18:-0.79446885 19:-1 20:-0.64219409 21:0.22981933 22:-1 23:-1 24:-1 25:-1 
-0 -0 1.967955038328673 1:0.99941777 2:-0.67623647 3:-1 4:-0.49265662 5:-0.26024763 6:-1 7:-0.24864234 8:-1 9:-0.80113636 10:-0.61843584 11:-0.60131796 12:-0.26530612 13:-1 14:-0.49137931 15:-0.91860465 16:-0.09464469 17:-0.44486692 18:0.53981351 19:-1 20:-0.85822785 21:0.14388107 22:-1 23:-1 24:-1 25:-1 
-0 -4.698892811035526 0 1:0.28969223 2:-0.94011801 3:-0.8490566 4:-0.75247513 5:-0.3810216 6:-1 7:-0.508993 8:-0.92405063 9:-0.85511364 10:-0.1188638 11:-0.86490939 12:-0.41836735 13:-1 14:-0.84913793 15:-0.31976744 16:-0.55315016 17:-0.58935361 18:0.53946387 19:-1 20:-0.91729958 21:0.031245407 22:-1 23:-1 24:-1 25:-1 
-1.034556909405974 -0.2164729944608801 2.026221674104198 1:-0.98333514 2:-0.96179966 3:-1 4:-0.94548039 5:-0.46379995 6:-1 7:-0.259496 8:-0.99156118 9:-0.82528409 10:-0.65475176 11:-0.77265239 12:-0.41836735 13:-1 14:-0.74568966 15:-0.5755814 16:-0.56448343 17:-0.67680608 18:-0.0070333499 19:-1 20:-0.9814346 21:-0.052258826 22:-1 23:-1 24:-1 25:-1 
-2.970544354933702 -0.9066890922354776 6 1:0.99973953 2:-0.0074452392 3:-1 4:0.53016922 5:-0.21211993 6:-1 7:-0.23679888 8:-1 9:-0.57528409 10:-0.63249084 11:0.044481054 12:-1 13:-1 14:0.61206897 15:-0.98837209 16:0.97772368 17:0.69581749 18:0.51823582 19:-1 20:-0.47848101 21:0.18623757 22:-1 23:-1 24:-1 25:-1 
-0 -6 0 1:0.99957865 2:-0.049402989 3:-1 4:0.7884328 5:-0.27922115 6:-1 7:-0.31555354 8:-1 9:-0.56392045 10:0.088331804 11:-0.084019769 12:-1 13:-1 14:0.18534483 15:-1 16:0.95504017 17:0.54372624 18:0.17940505 19:-1 20:-0.49367089 21:0.1268099 22:-1 23:-1 24:-1 25:-1 
-0 -1.272146034155559 0 1:0.710194 2:-0.67341145 3:-1 4:-0.35315055 5:-0.20520076 6:-1 7:-0.20518204 8:-0.95780591 9:-0.77840909 10:-0.52517946 11:-0.7660626 12:0.06122449 13:-1 14:-0.66810345 15:-0.8255814 16:-0.12019545 17:-0.27756654 18:0.26785107 19:-1 20:-0.89198312 21:0.192221 22:-1 23:-1 24:-1 25:-1 
-0 -6 0 1:0.99945607 2:-0.74316012 3:-1 4:-0.16437275 5:-0.34456703 6:-1 7:-0.24588991 8:-1 9:-0.77414773 10:-0.14841808 11:-0.64744646 12:-0.52040816 13:-1 14:-0.60344828 15:-0.84302326 16:-0.12733812 17:-0.4904943 18:-0.003924066 19:-1 20:-0.87848101 21:0.066288834 22:-1 23:-1 24:-1 25:-1 
-0 -0.1554192687654383 0 1:0.99872062 2:-0.81132233 3:-1 4:-0.25798418 5:-0.26204033 6:-1 7:-0.36684096 8:-0.99156118 9:-0.83238636 10:-0.16368065 11:-0.75947282 12:0.051020408 13:-1 14:-0.63362069 15:-0.95348837 16:-0.064818506 17:-0.4904943 18:0.60549557 19:-1 20:-0.81772152 21:0.1422767 22:-1 23:-1 24:-1 25:-1 
-0 -6 0.4221318765751673 1:0.99926455 2:-0.035751065 3:-1 4:0.58515045 5:-0.24947521 6:-1 7:-0.28769799 8:-1 9:-0.49573864 10:-0.36847143 11:0.12685338 12:-1 13:-1 14:0.34051724 15:-1 16:0.97512788 17:0.69961977 18:0.23355529 19:-1 20:-0.54767932 21:0.15347433 22:-1 23:-1 24:-1 25:-1 
-6 -6 5.603588701180164 1:0.12758658 2:-1 3:-0.9245283 4:-0.70043368 5:-0.33752952 6:-1 7:-0.33577614 8:-0.92405063 9:-0.85653409 10:-0.28620314 11:-0.91433278 12:-0.020408163 13:-1 14:-0.81896552 15:-0.052325581 16:-0.60270777 17:-0.5513308 18:0.23306829 19:-1 20:-0.95611814 21:0.072942579 22:-1 23:-0.97837838 24:-0.98305085 25:-1 
-0 -1.101539519929533 -0.2992759081217491 1:0.99840652 2:-0.4040747 3:-1 4:-0.20769203 5:0.77911986 6:-1 7:-0.45679191 8:0.071729958 9:-0.59517045 10:-0.029905917 11:-0.28171334 12:-0.81632653 13:-0.15625 14:0.14655172 15:-0.11627907 16:0.19896847 17:0.25855513 18:1 19:-0.12418301 20:0.53080169 21:0.8754854 22:-0.89285714 23:0.091891892 24:-0.3559322 25:-1 
-4.249264280791935 -0.6156681406393139 -0 1:0.82226601 2:-0.33116702 3:-0.62264151 4:-0.22008285 5:-0.89358436 6:0.23076923 7:0.72183275 8:-0.60337553 9:-0.78267045 10:-0.012523263 11:-0.087314662 12:-0.89795918 13:-0.84375 14:0.42672414 15:-0.046511628 16:-0.27434829 17:-0.23954373 18:0.35027831 19:-0.7254902 20:-0.99493671 21:-0.66148039 22:-0.92857143 23:-0.74054054 24:-0.93220339 25:-0.96428571 
-0 -6 -0 1:0.99947139 2:-0.45712377 3:-0.96226415 4:-0.44107679 5:-0.9490249 6:-1 7:0.83111546 8:-0.81434599 9:-0.60653409 10:-0.35795333 11:-0.47611203 12:-0.96938776 13:-0.90625 14:-0.0043103448 15:0.26162791 16:-0.25327655 17:-0.0076045627 18:-0.036908698 19:-0.94771242 20:-1 21:-0.80136729 22:-0.85714286 23:-0.94594595 24:-0.88135593 25:-0.89285714 
-0 -0.242241099524608 -0 1:0.99337328 2:-0.43880988 3:-0.77358491 4:-0.51415834 5:-0.8783308 6:-0.84615385 7:0.79470946 8:-0.75527426 9:-0.50852273 10:-0.70363725 11:-0.05107084 12:-0.74489796 13:-0.78125 14:0.38362069 15:-0.33139535 16:-0.12528524 17:-0.08365019 18:0.010685822 19:-0.81699346 20:-1 21:-0.62885451 22:-0.67857143 23:-0.77297297 24:-0.76271186 25:-0.71428571 
-0 -6 -0 1:0.99908069 2:-0.32120293 3:-0.39622642 4:-0.19921282 5:-0.94567271 6:-0.53846154 7:0.74253121 8:-0.73839662 9:-0.61647727 10:-0.11328228 11:-0.28171334 12:-0.66326531 13:-0.75 14:0.42241379 15:-0.63372093 16:0.045494261 17:-0.072243346 18:0.42641206 19:-0.81699346 20:-1 21:-0.79158337 22:-0.71428571 23:-0.77297297 24:-0.77966102 25:-0.67857143 
-0 -6 -6 1:0.99181811 2:-0.38289404 3:-0.88679245 4:-0.38432197 5:-0.95226174 6:-1 7:0.84439034 8:-0.89029536 9:-0.62357955 10:-0.59758832 11:-0.34102142 12:-0.95918367 13:-0.90625 14:0.25431034 15:-0.53488372 16:-0.13599077 17:-0.11026616 18:0.367011 19:-0.86928105 20:-1 21:-0.81104077 22:-0.92857143 23:-0.89189189 24:-0.89830508 25:-1 
-0 -0 -0.2254281064405868 1:0.99924923 2:-0.51576721 3:-0.43396226 4:-0.42683949 5:0.66344744 6:-0.53846154 7:-0.054155968 8:-0.3164557 9:0.64914773 10:-0.62251134 11:-0.85502471 12:-0.56122449 13:0.75 14:-0.81034483 15:-0.093023256 16:0.67764648 17:-0.36882129 18:0.63263 19:-0.22875817 20:-0.039662447 21:0.8072172 22:1 23:-0.2 24:0.016949153 25:1 
-3.352828127512453 -0 -0 1:0.99983146 2:-0.4879902 3:-0.018867925 4:-0.30118199 5:0.49891478 6:1 7:-0.15259644 8:-0.097046414 9:1 10:-0.18283347 11:-0.3509061 12:-0.23469388 13:1 14:-0.70689655 15:0.26744186 16:0.7726729 17:-0.61977186 18:0.6261055 19:-0.08496732 20:0.10548523 21:0.70593301 22:0.57142857 23:-0.07027027 24:0.22033898 25:0.25 
-0.2414253359613322 -0 -0 1:0.99998468 2:-0.33683097 3:-0.16981132 4:-0.26379086 5:0.67071045 6:-0.53846154 7:-0.27078745 8:0.71308017 9:0.83664773 10:-0.63149255 11:-0.47281713 12:0.19387755 13:0.71875 14:-0.4137931 15:0.36046512 16:0.97677358 17:-0.35361217 18:0.13588132 19:1 20:0.6371308 21:0.81157428 22:0.53571429 23:0.41621622 24:1 25:-0.25 
-0.2364555540909867 -0 -0 1:0.99999234 2:-0.32596231 3:0.24528302 4:-0.13801188 5:0.60896866 6:0.23076923 7:-0.25527027 8:1 9:-0.43892045 10:-0.1903464 11:-0.63756178 12:0.051020408 13:0.75 14:-0.54310345 15:0.87790698 16:0.95534555 17:-0.41825095 18:0.065791322 19:0.52941176 20:0.72827004 21:0.77425616 22:0.39285714 23:1 24:0.74576271 25:-0.64285714 
-0 -0.67895338238333 -0 1:0.99994637 2:-0.6473879 3:0.32075472 4:-0.49095592 5:0.74040043 6:0.69230769 7:-0.60124716 8:-0.0042194093 9:0.52698864 10:-0.36488992 11:-0.71663921 12:-0.2244898 13:0.78125 14:-0.74568966 15:0.38953488 16:0.96425269 17:-0.56653992 18:0.36274666 19:0.18954248 20:0.82953586 21:0.85288684 22:0.64285714 23:0.15675676 24:0.25423729 25:0.17857143 
-1.837091771966278 -0 -0.03164869577342594 1:0.9919177 2:-0.87210888 3:-0.35849057 4:-0.74989978 5:0.13408633 6:-1 7:-0.019055759 8:-0.071729958 9:0.57386364 10:-0.84122334 11:-0.70016474 12:0.06122449 13:0.09375 14:-0.86206897 15:0.36046512 16:0.54497256 17:-0.80988593 18:0.36110461 19:-0.16339869 20:-0.64725738 21:0.45959058 22:-0.60714286 23:0.016216216 24:-0.33898305 25:-0.71428571 
-2.207735098782786 -0 -0.8487725113041897 1:0.94499439 2:-0.87753625 3:-0.20754717 4:-0.67463162 5:-0.075572899 6:0.23076923 7:-0.11072745 8:0.28270042 9:0.54971591 10:-0.45788214 11:-0.86820428 12:-1.110223e-16 13:-0.5 14:-0.91810345 15:0.30232558 16:0.5921719 17:-0.78707224 18:0.37936697 19:-0.33333333 20:-0.71983122 21:0.29996662 22:-0.85714286 23:0.12432432 24:-0.38983051 25:-1 
-6 -0 -0 1:-0.86232281 2:-0.18986056 3:-0.81132075 4:-0.17751673 5:0.14183893 6:-1 7:0.18824105 8:-0.21518987 9:-0.68039773 10:-0.8703488 11:-0.37067545 12:0.1122449 13:-0.96875 14:0.14224138 15:0.62209302 16:-0.40768389 17:-0.11787072 18:0.60231136 19:-0.88235294 20:-0.66075949 21:0.46520039 22:-1 23:-0.55675676 24:-0.96610169 25:-1 
-6 -3.683473246712386 -5.171549603005552 1:-0.74371601 2:-0.22879846 3:-0.81132075 4:-0.1089056 5:0.11318307 6:-1 7:0.13101477 8:0.037974684 9:-0.69318182 10:-0.45750135 11:-0.4398682 12:0.010204082 13:-0.9375 14:0.077586207 15:-0.069767442 16:-0.46750592 17:0.022813688 18:0.60508349 19:-0.92156863 20:-0.64556962 21:0.44436554 22:-1 23:-0.41621622 24:-0.88135593 25:-1 
-0 -2.049863447478786 -1.622998575578786 1:0.99932584 2:-0.35081689 3:-1 4:-0.19104945 5:0.67606738 6:-1 7:-0.32486157 8:-0.12236287 9:-0.67471591 10:-0.34758617 11:-0.24546952 12:-0.7755102 13:-0.375 14:0.26293103 15:0.0058139535 16:0.27864069 17:0.23193916 18:0.056257434 19:-0.17647059 20:0.33333333 21:0.81477752 22:-0.5 23:-0.016216216 24:-0.33898305 25:-0.53571429 
-6 -0 -0 1:0.99993871 2:-0.21965543 3:-0.39622642 4:-0.12545099 5:0.12569587 6:-1 7:0.19199091 8:0.10548523 9:-0.58806818 10:-0.68555133 11:-0.63756178 12:0.091836735 13:-1 14:-0.28017241 15:0.68023256 16:-0.4237337 17:0.46768061 18:0.052367707 19:-0.73856209 20:-0.66751055 21:0.45349727 22:-1 23:-0.32972973 24:-0.96610169 25:-0.92857143 
-5.426711155673199 -2.092797347845627 -0.1840150623360252 1:0.99710416 2:-0.2104289 3:-0.73584906 4:-0.002587495 5:0.082284765 6:-1 7:0.1419674 8:0.17299578 9:-0.73863636 10:-0.26563007 11:-0.63426689 12:0.30612245 13:-0.84375 14:-0.36637931 15:1 16:-0.41961097 17:0.41825095 18:0.067289772 19:-0.80392157 20:-0.64894515 21:0.42160215 22:-0.96428571 23:-0.49189189 24:-0.88135593 25:-1 
-0 -1.345779050728528 -0 1:0.42221131 2:-0.22430349 3:-0.81132075 4:-0.051591978 5:-0.87575947 6:-0.84615385 7:0.83014088 8:-0.67932489 9:-0.56392045 10:-0.28269025 11:-0.17957166 12:-0.69387755 13:-0.65625 14:0.24137931 15:0.23837209 16:0.25012088 17:0.65779468 18:-0.034910764 19:-0.89542484 20:-0.98312236 21:-0.62353041 22:-0.75 23:-0.88108108 24:-0.93220339 25:-0.89285714 
-0 -4.971457859061734 -0 1:0.97336288 2:-0.40079045 3:-1 4:-0.16417838 5:-0.78507154 6:-1 7:0.7434563 8:-0.67932489 9:-0.69744318 10:-0.20036364 11:-0.38385502 12:-0.87755102 13:-0.75 14:-0.090517241 15:0.48255814 16:-0.21050533 17:0.3460076 18:-0.020313363 19:-0.85620915 20:-1 21:-0.45955487 22:-0.92857143 23:-0.75135135 24:-0.72881356 25:-0.71428571 
-0.5656503053268249 -0 -0 1:0.99183343 2:-0.44639428 3:-0.8490566 4:-0.39515786 5:-0.84820115 6:-0.53846154 7:0.80271931 8:-0.72151899 9:-0.62784091 10:-0.72818978 11:-0.34102142 12:-0.75510204 13:-0.65625 14:0.24137931 15:0.15116279 16:-0.18310528 17:-0.50570342 18:0.57887935 19:-0.83006536 20:-1 21:-0.569262 22:-0.75 23:-0.71891892 24:-0.79661017 25:-0.71428571 
-0 -1.879429475407611 -1.636208827627885 1:0.98955047 2:-0.35545103 3:-1 4:-0.30555522 5:-0.69782077 6:-1 7:0.74896498 8:-0.79746835 9:-0.48579545 10:-0.82178921 11:-0.14003295 12:-0.98979592 13:-0.75 14:0.29310345 15:-0.49418605 16:-0.11006676 17:-0.25095057 18:0.1829389 19:-0.83006536 20:-0.94936709 21:-0.33012276 22:-0.89285714 23:-0.67567568 24:-0.72881356 25:-0.96428571 
