svm_type c_svc
kernel_type rbf
gamma 0.0153846
nr_class 4
total_sv 53
rho 0.636843 -0.267998 -1.28303 -0.406251 -1.63845 -0.0631076
label 3 0 24 6
probA -2.20964 -3.6475 -2.13371 -2.76467 -1.81433 -2.70609
probB -0.143514 -0.13393 -0.206316 -0.179479 -0.379146 -0.00712453
nr_sv 18 14 14 7
SV
6.450319749187654 0 0 1:-0.16478884 2:-0.1851133 3:-0.41230279 4:0.33333333 5:0.54470303 6:-0.59477124 7:-0.42465753 8:-0.81500873 9:-0.70724638 10:0.33130681 11:-0.80392157 12:0.5700589 13:-0.59250585 14:-0.37072696 15:-0.019354839 16:0.78485041 17:0.5316092 18:0.027452661 19:0.41032025 20:0.71896375 21:-0.44147844 22:-0.51454933 23:0.098445596 24:-0.8 25:-0.89473684 26:-0.88571429 27:-0.84072035 28:-0.91437309 29:-0.84162772 30:0.65957447 31:0.055497128 32:1 33:0.93780542 34:0.62866499 35:-0.95402299 36:0.28795812 37:-0.51724138 38:0.2710113 39:-0.61261587 40:0.51905388 41:0.68374165 42:-0.46666667 43:0.033107957 44:0.046211714 45:-1 46:-1 47:-0.44562421 48:-0.11409396 49:-0.41176471 50:0.80952381 51:0.31834862 52:0.9999804 53:0.39259259 54:-1 55:-0.46428571 56:-0.057179161 57:-0.6621881 58:1 59:0.37071651 60:-1 61:-0.34453782 62:-0.60606061 63:-1 64:-0.76388284 65:-0.91366906 
0.8772846439063324 0.09758422187169638 0 1:-0.40645404 2:-0.21576119 3:-0.92921476 4:0.26315789 5:0.79384826 6:0.32352941 7:0.21917808 8:-0.86212914 9:-0.94492754 10:-0.077822788 11:0.35294118 12:0.25319504 13:0.47306792 14:-0.61180584 15:-0.096774194 16:-0.60661999 17:1 18:0.49122659 19:0.379692 20:0.87708537 21:-0.49897331 22:-0.93754436 23:0.34715026 24:0.075 25:-0.47368421 26:0.028571429 27:-0.81559881 28:-0.59021407 29:-0.74429475 30:-0.0030395137 31:0.60209898 32:0.059405941 33:0.51577077 34:0.76888569 35:-0.84236453 36:-0.36125654 37:-0.3588709 38:0.33801876 39:-0.50886094 40:-0.032851511 41:0.39365256 42:-0.46666667 43:0.61750754 44:-0.041375605 45:-0.037037037 46:-1 47:-0.3808722 48:-0.13422819 49:-0.64705882 50:-0.91428571 51:0.3293578 52:0.99983339 53:-0.61481481 54:-1 55:-0.62723214 56:-0.085133418 57:1 58:-0.68421053 59:-0.61163032 60:-1 61:-0.50140056 62:0.95454545 63:0.42857143 64:-0.60785782 65:-0.99280576 
0 0.7082985849798736 0 1:-0.42293839 2:-0.32022965 3:-0.56988458 4:0.40350877 5:0.73699624 6:-0.27777778 7:0.65753425 8:-0.86038394 9:-0.85217391 10:0.35759626 11:0.82352941 12:0.58871148 13:0.34894614 14:0.78349534 15:0.44516129 16:0.10502864 17:0.86494253 18:0.11426448 19:0.67030137 20:0.84198946 21:-0.57289528 22:-0.87934705 23:0.57512953 24:1 25:1 26:0.88571429 27:-0.82498156 28:-0.25586137 29:-0.78223811 30:0.10030395 31:0.55707099 32:0.36138614 33:0.99911151 34:1 35:-0.87192118 36:0.02617801 37:-0.41652424 38:0.43973349 39:-0.4478327 40:-0.14586071 41:0.69710468 42:-1 43:-0.023679028 44:0.07898979 45:-0.55555556 46:-1 47:-0.46144971 48:-0.16778523 49:-0.058823529 50:1 51:0.2706422 52:0.9999118 53:-0.56049383 54:-1 55:-0.46875 56:-0.057179161 57:-0.60076775 58:0.45510836 59:0.87746625 60:-1 61:-0.38095238 62:0.053030303 63:-1 64:-0.66896393 65:-0.92086331 
11.47440882148064 2.6836897484133 5.483825995769763 1:-0.96613237 2:-0.71101077 3:-0.82216398 4:-0.33333333 5:0.0022625524 6:-1 7:-0.67123288 8:-0.90401396 9:-0.88695652 10:-0.37260606 11:-0.68627451 12:-0.019043318 13:-0.97423888 14:-0.26345454 15:-0.52258065 16:-0.91088479 17:-0.82614943 18:-0.46932089 19:-0.88722808 20:0.32491082 21:-0.9137577 22:-0.77714691 23:-0.70984456 24:-0.575 25:-0.47368421 26:-0.54285714 27:-0.10440194 28:-0.9775739 29:-0.20538906 30:-0.74468085 31:0.11854366 32:-0.67326733 33:-0.84095957 34:-0.80380837 35:-0.97044335 36:-0.7460733 37:0.21671101 38:-0.0017857516 39:0.41697673 40:-0.96583443 41:-0.91926503 42:-0.33333333 43:0.7451279 44:-0.97367007 45:-0.62962963 46:-0.8 47:-0.41740337 48:-1 49:-0.76470588 50:-1 51:-0.37889908 52:0.99726568 53:-0.91111111 54:-1 55:-0.84375 56:-0.89834816 57:-1 58:-1 59:-0.9709242 60:-1 61:-0.78711485 62:-1 63:-1 64:-0.31770624 65:-1 
2.921808257268095 1.578226515769224 0 1:-0.95932969 2:-0.77639295 3:-0.63279436 4:0.26315789 5:-0.055030864 6:-1 7:-0.56164384 8:-0.96509599 9:-0.92463768 10:-0.31872803 11:-0.47058824 12:0.034541505 13:-0.96487119 14:0.79787472 15:-0.16129032 16:-0.89178867 17:-0.86781609 18:-0.38429928 19:-0.87808019 20:0.27784733 21:-0.89322382 22:-0.82398864 23:-0.55440415 24:-0.7 25:-0.15789474 26:-0.14285714 27:0.86152886 28:-0.99184506 29:1 30:-0.74468085 31:0.22533114 32:-0.74257426 33:-0.91648156 34:-0.91711306 35:-0.97044335 36:-0.78272251 37:1 38:0.43111803 39:0.75580779 40:-0.75558476 41:-0.9532294 42:-0.6 43:0.31112555 44:-0.97796883 45:1 46:1 47:0.02620952 48:-1 49:-0.058823529 50:-0.97142857 51:0.3793578 52:0.99966679 53:-0.89135802 54:1 55:-0.82589286 56:-0.82337992 57:-1 58:-1 59:-0.94807892 60:-1 61:-0.77591036 62:-1 63:0.42857143 64:-0.41449434 65:-0.99280576 
0.02447591873297827 4.233282137727254 0 1:-0.58202392 2:-0.43505711 3:-0.14460115 4:-0.50877193 5:0.18714318 6:-0.91176471 7:-0.01369863 8:-0.93019197 9:-0.91304348 10:-0.50846345 11:-0.058823529 12:-0.16432432 13:-0.74238876 14:0.98003165 15:0.032258065 16:-0.07829408 17:-0.56321839 18:-0.23421696 19:0.40168752 20:0.46865031 21:-0.86447639 22:0.051809794 23:-0.16062176 24:0.175 25:0.68421053 26:0.14285714 27:-0.75858351 28:-0.88990826 29:-0.79818532 30:-0.56231003 31:0.12471409 32:-0.17821782 33:0.053753887 34:-0.96348735 35:-0.95073892 36:-0.20942408 37:-0.4418621 38:0.29779235 39:-0.13154414 40:0.28515112 41:-0.22327394 42:1 43:0.7932426 44:-0.58194519 45:-0.92592593 46:-1 47:-0.62452251 48:-0.79194631 49:-0.058823529 50:-0.9047619 51:-0.14724771 52:0.99970599 53:-0.76296296 54:-1 55:-0.58705357 56:-0.63532402 57:-0.95777351 58:-0.95665635 59:-0.88785047 60:-1 61:-0.42296919 62:-0.93939394 63:1 64:-0.71626837 65:-1 
0 3.283745685383622 0 1:-0.49955357 2:-0.24563267 3:-0.81681123 4:-0.68421053 5:0.84183525 6:-0.10784314 7:-0.39726027 8:-1 9:-1 10:-0.16301033 11:-0.098039216 12:0.17931103 13:0.39344262 14:0.99882858 15:-0.52258065 16:-0.8905156 17:0.33908046 18:0.93026303 19:0.061045763 20:0.90628812 21:-1 22:-0.9020582 23:-0.13989637 24:-0.35 25:0.052631579 26:-0.54285714 27:-0.90556722 28:-0.25586137 29:-0.91696453 30:-0.46504559 31:0.67202933 32:-0.38613861 33:0.26876944 34:-0.30642994 35:-0.84893268 36:-0.40575916 37:-0.67726816 38:0.31764448 39:-0.48663552 40:0.014454665 41:-0.0016703786 42:-0.86666667 43:1 44:-0.28962923 45:-1 46:-1 47:-0.56078395 48:-0.30201342 49:-0.64705882 50:-0.019047619 51:-0.08853211 52:0.99013098 53:-0.69382716 54:-1 55:-0.69419643 56:-0.52731893 57:-0.70825336 58:-0.3622291 59:-0.94807892 60:-1 61:-0.53781513 62:-0.03030303 63:-0.71428571 64:-0.7630795 65:-0.75539568 
12 1.135413039243433 0 1:-0.57316829 2:-0.62341908 3:-0.43695363 4:0.19298246 5:0.52814431 6:-0.94444444 7:0.57534247 8:-0.90575916 9:-0.86086957 10:0.0010225523 11:0.7254902 12:0.3187757 13:-0.78454333 14:0.9577843 15:0.70322581 16:0.19032463 17:0.050287356 18:-0.079905932 19:0.23747824 20:0.70803099 21:-0.70020534 22:-0.81263307 23:0.33678756 24:0.6 25:0.26315789 26:0.31428571 27:-0.69074778 28:-0.92252803 29:-0.66895793 30:0.05775076 31:-0.3676556 32:0.4009901 33:0.45357619 34:0.10202343 35:-0.84236453 36:-0.31675393 37:-0.25498212 38:0.4987364 39:-0.22118896 40:1 41:0.086302895 42:-0.46666667 43:-0.013499924 44:-0.39871037 45:-0.62962963 46:-0.6 47:-0.55169403 48:-0.48993289 49:-0.17647059 50:-0.2 51:0.08440367 52:0.99973539 53:-0.56049383 54:-1 55:-0.48214286 56:-0.50571792 57:-0.73512476 58:-0.55417957 59:-0.14641745 60:-1 61:-0.51820728 62:-0.49242424 63:-1 64:-0.59313063 65:-0.84172662 
8.035657689527753 0 4.392124768690458 1:-0.11776532 2:0.93296283 3:-0.39787939 4:-1 5:-0.31877317 6:-0.55882353 7:-1 8:-0.42582897 9:-0.15362319 10:0.44405992 11:-1 12:0.64885228 13:-0.43559719 14:0.86085674 15:-1 16:-0.25525143 17:-0.57471264 18:0.2061757 19:0.64418461 20:0.041337234 21:0.24024641 22:-0.59971611 23:-1 24:-1 25:-1 26:-1 27:-0.67440365 28:-0.82466871 29:-0.99230135 30:-1 31:0.68274117 32:-1 33:-0.69791204 34:0.52079272 35:-0.66502463 36:-0.9973822 37:-0.94417916 38:0.65981955 39:-0.99815697 40:-0.17739816 41:0.83964365 42:-1 43:0.73282761 44:0.85921548 45:-1 46:-1 47:1 48:0.62416107 49:-1 50:-0.6952381 51:0.60504587 52:0.99944138 53:0.15061728 54:-1 55:0.79017857 56:0.56797967 57:-0.70825336 58:-0.67801858 59:-0.41225337 60:-1 61:1 62:0.068181818 63:-1 64:-0.99822359 65:0.0071942446 
12 0.396228935043159 10.16264773863371 1:0.060136904 2:0.75050569 3:-0.32607823 4:-1 5:-0.31785954 6:-0.6503268 7:-1 8:-0.39616056 9:-0.2115942 10:0.27812693 11:-1 12:0.53180304 13:-0.56908665 14:0.87892592 15:-1 16:0.098663272 17:-0.51724138 18:0.09721676 19:0.7480428 20:0.04222004 21:0.38398357 22:-0.52732434 23:-1 24:-1 25:-1 26:-1 27:-0.69479598 28:-0.78389399 29:-0.99065164 30:-1 31:0.19950945 32:-0.9950495 33:-0.53976011 34:0.47633018 35:-0.59277504 36:-0.98167539 37:-0.9344528 38:0.3351156 39:-0.99190452 40:-0.22207622 41:0.93930958 42:-1 43:0.89645639 44:0.9516389 45:-1 46:-1 47:0.8475451 48:0.90604027 49:-1 50:-0.81904762 51:0.70779817 52:0.99873575 53:-0.27407407 54:-1 55:0.88616071 56:0.71537484 57:-0.55854127 58:-0.71517028 59:-0.31464174 60:-1 61:0.78431373 62:0.11363636 63:-1 64:-1 65:0.057553957 
0 9.479239025216868 0 1:-0.19913023 2:0.048362381 3:0.84793317 4:-0.57894737 5:-0.94035113 6:-0.8496732 7:-0.68493151 8:-0.64397906 9:-0.42028986 10:0.18008109 11:-0.43137255 12:0.45919676 13:-0.70023419 14:-0.74153819 15:-0.63870968 16:0.82431572 17:-1 18:0.23900985 19:-0.053427726 20:-0.82535822 21:-0.56468172 22:-0.69623847 23:-0.66839378 24:-0.625 25:-0.26315789 26:-0.25714286 27:-0.80727541 28:-0.65545362 29:-0.87572175 30:-0.76899696 31:0.58199543 32:-0.42079208 33:0.185251 34:-0.19812231 35:-0.21182266 36:0.19109948 37:-0.58448012 38:0.6449905 39:-0.22287345 40:-0.68199737 41:-0.20267261 42:-0.86666667 43:0.62836568 44:-0.54056959 45:-1 46:-1 47:-0.77923819 48:-0.95973154 49:-0.29411765 50:-1 51:-0.45045872 52:0.99635425 53:-0.91111111 54:-1 55:-0.90848214 56:-0.80050826 57:-1 58:-1 59:-0.85669782 60:-1 61:-0.93557423 62:-1 63:-0.14285714 64:-0.73203652 65:-0.90647482 
2.353062952071598 0 0.7354998051895081 1:-0.21228613 2:-0.010072942 3:0.98981526 4:-1 5:-1 6:-0.9379085 7:-0.89041096 8:-0.51832461 9:-0.63768116 10:0.15588226 11:-0.80392157 12:0.44083889 13:-0.079625293 14:-0.70928337 15:-0.84516129 16:0.4665818 17:-1 18:-0.22074967 19:-0.36561112 20:-1 21:0.19096509 22:-0.81121363 23:-0.94818653 24:-0.875 25:-0.47368421 26:-0.65714286 27:-0.94680589 28:-0.57594292 29:-0.97855375 30:-0.89665653 31:0.33849497 32:-0.33663366 33:0.21368281 34:-0.22770722 35:-0.61247947 36:0.53926702 37:-0.874826 38:0.54834061 39:-0.42256529 40:-0.67148489 41:-0.24777283 42:-0.86666667 43:0.16944587 44:-0.61257389 45:-1 46:-1 47:-0.94611535 48:-0.95302013 49:-1 50:-1 51:-0.91834862 52:0.9976871 53:-0.88641975 54:-1 55:-1 56:-0.93265565 57:-1 58:-1 59:-0.73624091 60:-1 61:-1 62:-0.9469697 63:-0.42857143 64:-0.84283673 65:-0.94244604 
0 0.3332561806690469 0 1:-0.033472829 2:0.20164273 3:0.98249898 4:-1 5:-0.77305665 6:-0.078431373 7:-0.80821918 8:-0.44328098 9:-0.37971014 10:0.57509801 11:-0.82352941 12:0.73679132 13:0.73770492 14:-0.55416383 15:-0.97419355 16:0.30872056 17:-1 18:0.51571998 19:-0.29770444 20:-0.50393857 21:0.14168378 22:-0.95315827 23:-0.75129534 24:-0.675 25:-0.26315789 26:-0.54285714 27:-0.96394454 28:-0.30071356 29:-0.99395106 30:-0.83586626 31:0.76600157 32:-0.16336634 33:0.59484673 34:0.13605648 35:-0.34975369 36:0.68324607 37:-0.95506845 38:0.22657115 39:-0.070377178 40:-1 41:-0.0077951002 42:0.066666667 43:0.79535732 44:-0.48790973 45:-1 46:-1 47:-0.95888489 48:-1 49:0.52941176 50:-0.93333333 51:-0.90275229 52:0.99882395 53:-0.67407407 54:-1 55:-0.90625 56:-0.95806861 57:-1 58:-1 59:-0.91900312 60:-1 61:-0.80392157 62:-1 63:-0.71428571 64:-0.90719014 65:-0.96402878 
0 1.15996838810781 0 1:-0.17398461 2:0.033569663 3:-0.49557352 4:-1 5:0.9209053 6:-0.0065359477 7:-0.068493151 8:-0.48167539 9:-0.6057971 10:0.7713099 11:-0.058823529 12:0.8621306 13:0.4824356 14:-0.5461267 15:-0.81935484 16:-0.32527053 17:0.37931034 18:0.53436804 19:-0.019724158 20:0.953603 21:0.32238193 22:-0.88928318 23:0.015544041 24:-0.775 25:-0.89473684 26:-0.82857143 27:-0.84806008 28:-0.35168196 29:-0.94281001 30:-0.33738602 31:0.64520008 32:-0.3019802 33:0.66503776 34:0.21356779 35:-0.36945813 36:-0.30366492 37:-0.74707945 38:0.63350321 39:-0.63885435 40:-0.69250986 41:0.26057906 42:-1 43:0.86412771 44:-0.091348737 45:-1 46:-1 47:-0.63606031 48:-0.61073826 49:-0.88235294 50:-0.85714286 51:-0.1706422 52:0.99954918 53:-0.56049383 54:-1 55:-0.765625 56:-0.56289708 57:-1 58:-0.9628483 59:-0.60747664 60:-1 61:-0.66666667 62:-0.99242424 63:-1 64:-0.92465776 65:-0.35251799 
0 1.689071969648664 0 1:-0.19660352 2:0.07512821 3:-0.5377083 4:-0.89473684 5:1 6:-0.48039216 7:-0.36986301 8:-0.56369983 9:-0.62608696 10:0.69579165 11:-0.23529412 12:0.81472908 13:0.44496487 14:-0.6632652 15:-0.88387097 16:-0.25779758 17:0.50431034 18:0.29595764 19:-0.024001499 20:1 21:0.24024641 22:-0.841022 23:-0.23316062 24:-0.35 25:0.052631579 26:-0.2 27:-0.86024251 28:-0.3088685 29:-0.93291174 30:-0.36170213 31:0.843018 32:-0.4009901 33:0.54331408 34:0.28657417 35:-0.38259442 36:-0.28534031 37:-0.720191 38:0.73662775 39:-0.64430418 40:-0.6478318 41:0.33407572 42:-0.73333333 43:0.24697909 44:-0.0053734551 45:-0.92592593 46:-1 47:-0.4972169 48:-0.73154362 49:-0.64705882 50:-0.78095238 51:0.21926606 52:0.99690307 53:-0.47160494 54:-1 55:-0.71205357 56:-0.31639136 57:-0.85412668 58:-0.76470588 59:-0.18587747 60:-1 61:-0.66106443 62:-0.93939394 63:-0.71428571 64:-0.66974464 65:-0.54676259 
7.133880996713286 4.140886237476037 3.621310969518532 1:-0.044952351 2:0.20801749 3:0.24944082 4:-0.89473684 5:0.22825024 6:-0.93464052 7:-0.84931507 8:-0.69458988 9:-0.66666667 10:0.39385934 11:-0.94117647 12:0.61415201 13:-0.039812646 14:0.76622093 15:1 16:-0.38765118 17:-0.68965517 18:-0.13681304 19:-0.56132285 20:0.49911588 21:0.1211499 22:-0.88502484 23:-0.41968912 24:-1 25:-1 26:-0.82857143 27:-0.50593042 28:-0.54536188 29:-0.72339841 30:-0.29483283 31:0.73373734 32:0.054455446 33:-0.2154598 34:-0.5393235 35:-0.83579639 36:0.023560209 37:-0.32835269 38:0.42077946 39:-0.45146923 40:-0.78975033 41:-0.39977728 42:-1 43:0.15038107 44:-0.67759269 45:-1 46:-1 47:-0.47272245 48:-0.4966443 49:-1 50:-0.99047619 51:0.28944954 52:0.99866714 53:-0.68888889 54:-1 55:-0.72321429 56:-0.61880559 57:-0.98464491 58:-1 59:-0.64070613 60:-1 61:-0.74229692 62:-0.99242424 63:-1 64:-0.81058082 65:-0.86330935 
0 12 2.781966270256035 1:0.013817943 2:0.16122837 3:0.1736998 4:-0.89473684 5:0.2674092 6:-0.59150327 7:-0.84931507 8:-0.55846422 9:-0.48985507 10:0.12963372 11:-0.92156863 12:0.42072224 13:-0.14051522 14:0.84373873 15:0.76774194 16:-0.3418205 17:-0.64224138 18:-0.1474187 19:-0.58517605 20:0.52769306 21:-0.19917864 22:-0.80979418 23:-0.68911917 24:-0.95 25:-1 26:-0.48571429 27:-0.54187239 28:-0.71253823 29:-0.75639263 30:-0.20972644 31:0.32730141 32:-0.054455446 33:-0.18702799 34:-0.56288921 35:-0.92775041 36:0.013089005 37:-0.37624443 38:0.24915934 39:-0.45830629 40:-0.59001314 41:-0.3830735 42:-0.86666667 43:0.83587973 44:-0.65717356 45:-1 46:-1 47:-0.46926111 48:-0.6442953 49:-0.88235294 50:-0.99047619 51:0.14770642 52:0.99815752 53:-0.80246914 54:-1 55:-0.76116071 56:-0.62134689 57:-1 58:-1 59:-0.86500519 60:-1 61:-0.7535014 62:-0.99242424 63:-1 64:-0.80214006 65:-1 
1.99184427835736 0 0 1:-0.40483841 2:-0.13717998 3:-0.31782714 4:-0.78947368 5:0.67925649 6:-0.91830065 7:-0.31506849 8:-0.76614311 9:-0.73043478 10:0.10643993 11:-0.45098039 12:0.40275986 13:-0.45667447 14:-0.25258302 15:0.58709677 16:-0.49204328 17:-0.43821839 18:-0.05809787 19:-0.51689471 20:0.80577688 21:-0.2238193 22:-0.88360539 23:-0.33678756 24:-0.75 25:-0.89473684 26:-0.71428571 27:-0.53056013 28:-0.70642202 29:-0.72614792 30:-0.46504559 31:0.49822021 32:-0.26237624 33:-0.3034207 34:-0.39690712 35:-0.9047619 36:-0.23560209 37:-0.33219389 38:0.27420685 39:-0.36868129 40:-0.76346912 41:-0.4532294 42:-0.86666667 43:0.39022379 44:-0.68887695 45:-1 46:-1 47:-0.43201272 48:-0.70469799 49:-1 50:-0.39047619 51:0.16972477 52:0.99984319 53:-0.80740741 54:-1 55:-0.78348214 56:-0.63659466 57:-0.79654511 58:-0.66563467 59:-0.74247144 60:-1 61:-0.73109244 62:-0.8030303 63:-1 64:-0.80452746 65:-1 
-6.160397267881143 0 0 1:-0.20307821 2:-0.31489692 3:-0.21664561 4:-0.087719298 5:0.52376728 6:-0.86928105 7:-0.04109589 8:-0.80628272 9:-0.69565217 10:0.41679868 11:-0.7254902 12:0.63008561 13:-0.33957845 14:-0.32322872 15:0.67741935 16:0.93634628 17:0.30316092 18:-0.19932135 19:0.57349922 20:0.70513118 21:-0.38809035 22:-0.32150461 23:0.38860104 24:-0.8 25:-1 26:-0.94285714 27:-0.82441405 28:-0.90214067 29:-0.82843002 30:1 31:-0.061454281 32:0.91584158 33:1 34:0.6170241 35:-0.81937603 36:0.028795812 37:-0.49317217 38:0.25058481 39:-0.59663299 40:0.37187911 41:0.69265033 42:-1 43:-0.74696454 44:0.084363246 45:-0.92592593 46:-1 47:-0.47197406 48:-0.44966443 49:-1 50:-0.24761905 51:0.27614679 52:0.9999412 53:0.086419753 54:-1 55:-0.42857143 56:-0.082592122 57:-0.87715931 58:-0.374613 59:1 60:-1 61:-0.40896359 62:-0.74242424 63:-1 64:-0.71955868 65:-0.53956835 
-3.856531936766593 1.733191311118783 4.105126367578436 1:-1 2:-0.87070674 3:-1 4:-1 5:-0.34822747 6:-1 7:-0.93150685 8:-0.94589878 9:-0.93913043 10:-0.99132359 11:-0.94117647 12:-0.97134233 13:-1 14:0.90373315 15:-0.76774194 16:-0.96817314 17:-0.86206897 18:-0.57528257 19:-0.942974 20:0.012444346 21:-0.97125257 22:-0.80837473 23:-0.70984456 24:-1 25:-1 26:-1 27:-0.42734994 28:-1 29:-0.85207589 30:-0.65349544 31:-0.7664171 32:-0.49009901 33:-0.88271879 34:-0.90038046 35:-1 36:-0.78010471 37:-0.53672934 38:-0.3312778 39:-0.094207817 40:-0.85282523 41:-0.92260579 42:-1 43:0.75243564 44:-0.98173025 45:-1 46:-1 47:-0.3475373 48:-0.83892617 49:-1 50:-1 51:-0.32752294 52:-1 53:-1 54:-1 55:-0.84151786 56:-0.90978399 57:-1 58:-1 59:-1 60:-1 61:-0.79831933 62:-0.98484848 63:-1 64:-0.85100593 65:-1 
-5.135101055139153 0.04671435465445128 0 1:-0.97357888 2:-1 3:-0.61179313 4:0.89473684 5:-0.14331362 6:-0.99019608 7:-0.53424658 8:-0.95462478 9:-0.94782609 10:0.50938716 11:-0.50980392 12:0.69315454 13:-0.96252927 14:-0.2706554 15:0.83225806 16:-0.91343094 17:-0.87212644 18:-0.21988168 19:-0.85346207 20:0.20260422 21:-0.80698152 22:-0.94889993 23:-0.39896373 24:-0.65 25:-0.052631579 26:-0.65714286 27:1 28:-0.98776758 29:0.17844377 30:-0.41641337 31:0.11267108 32:-0.62376238 33:-0.93158596 34:-0.85500937 35:-0.92446634 36:-0.89528796 37:0.50726834 38:0.35287913 39:0.68763532 40:-0.90538765 41:-1 42:-0.73333333 43:-0.88061217 44:-1 45:-0.48148148 46:0 47:0.21528915 48:-0.89932886 49:-0.64705882 50:-1 51:0.68486239 52:0.99883375 53:-0.80740741 54:-1 55:-0.80357143 56:-0.85133418 57:-1 58:-0.99380805 59:-0.84839045 60:-1 61:-0.84313725 62:-0.99242424 63:-0.71428571 64:-0.51474247 65:-0.94964029 
-0.4574373978442657 10.39837078200202 0 1:0.044478593 2:-0.15160493 3:0.47780785 4:1 5:-0.19509568 6:-1 7:0.38356164 8:-0.80453752 9:-0.66956522 10:-0.54468561 11:0.43137255 12:-0.20600647 13:-0.64637002 14:0.91091805 15:0.58709677 16:0.47549332 17:-0.7658046 18:-0.61605605 19:-0.38966726 20:0.15676263 21:-0.27720739 22:0.13413769 23:0.11917098 24:-0.225 25:-0.36842105 26:-0.42857143 27:-0.59082912 28:-0.99184506 29:-0.58152323 30:-0.13069909 31:0.041582396 32:0.044554455 33:0.092847623 34:-0.68145596 35:-0.96715928 36:-0.14136126 37:-0.1482741 38:0.40856116 39:-0.20476018 40:-0.73193167 41:-0.21993318 42:-1 43:-0.80829785 44:-0.60988716 45:-0.92592593 46:-1 47:-0.53870621 48:-0.8590604 49:-0.76470588 50:-0.91428571 51:0.12477064 52:0.99673646 53:-0.76296296 54:-1 55:-0.73660714 56:-0.62770013 57:-0.97696737 58:-0.9380805 59:-0.44755971 60:-1 61:-0.75070028 62:-0.91666667 63:-1 64:-0.72040502 65:-0.95683453 
-1.871931733799931 0 0 1:-0.57666681 2:-0.66595836 3:-0.55652831 4:0.15789474 5:0.49457067 6:-0.73856209 7:0.4109589 8:-0.91972077 9:-0.87536232 10:0.37008887 11:-0.47058824 12:0.59751489 13:-0.13583138 14:0.98014975 15:0.47096774 16:-0.33545512 17:0.050287356 18:0.42945065 19:0.89459635 20:0.68569776 21:-0.71252567 22:-0.097232079 23:0.77202073 24:-0.6 25:-1 26:-0.94285714 27:-0.7491251 28:-0.092762487 29:-0.7514435 30:0.49544073 31:0.48812982 32:0.7970297 33:0.4375833 34:-0.64214192 35:-0.83908046 36:-0.17277487 37:-0.36884394 38:0.42589653 39:-0.34619825 40:-0.1826544 41:0.11469933 42:-1 43:-0.85167868 44:-0.42826437 45:-0.92592593 46:-1 47:-0.54720364 48:-0.7852349 49:-1 50:-0.86666667 51:0.12706422 52:0.999902 53:-0.29876543 54:-1 55:-0.42857143 56:-0.44472681 57:-0.88483685 58:-0.77089783 59:-0.62616822 60:-1 61:-0.30812325 62:-0.83333333 63:-1 64:-0.69653556 65:-0.85611511 
-0 0.7444032802309225 0 1:-0.62760187 2:-0.67713463 3:-0.33518304 4:-0.89473684 5:0.3678342 6:-0.99673203 7:-0.15068493 8:-0.92844677 9:-0.72753623 10:-1 11:-0.66666667 12:-1 13:-0.18266979 14:0.97412988 15:-0.53548387 16:-0.34691279 17:-0.24425287 18:-0.47033398 19:1 20:0.59909509 21:-0.8973306 22:0.81831086 23:0.2642487 24:-0.8 25:-1 26:-1 27:-0.89523864 28:-1 29:-0.93456145 30:-0.0030395137 31:-1 32:0.35148515 33:0.38693914 34:-0.68764551 35:-1 36:-0.062827225 37:-0.72424365 38:0.42699304 39:-0.4573055 40:-0.13534823 41:0.028953229 42:-1 43:0.77848484 44:-0.44223536 45:-1 46:-1 47:-0.67287213 48:-0.16778523 49:-0.76470588 50:-1 51:-0.14449541 52:0.98387832 53:-0.99012346 54:-1 55:-0.39732143 56:-0.62897078 57:-1 58:-1 59:-0.94600208 60:-1 61:-0.40056022 62:-0.97727273 63:-1 64:-0.7671822 65:-1 
-7.225526160332045 3.203178894672296 0 1:-0.51387564 2:-0.53347772 3:-0.32324819 4:0.22807018 5:0.47712422 6:-0.99019608 7:0.87671233 8:-0.87609075 9:-0.75942029 10:-0.21380805 11:0.7254902 12:0.13357322 13:-0.75175644 14:0.93388357 15:0.04516129 16:0.13303628 17:-0.14655172 18:-0.262996 19:0.23106223 20:0.67398743 21:-0.6386037 22:0.11284599 23:0.48186528 24:-0.5 25:-0.15789474 26:-0.028571429 27:-0.73796417 28:-0.98980632 29:-0.74319494 30:-0.11246201 31:-0.87977216 32:-0.089108911 33:0.1266104 34:-0.13811966 35:-0.99343186 36:-0.30104712 37:-0.35665075 38:0.22438334 39:-0.22183303 40:-0.14323259 41:-0.0077951002 42:-0.46666667 43:0.7641345 44:-0.44922085 45:-0.7037037 46:-1 47:-0.4002214 48:-0.61073826 49:-0.29411765 50:-0.39047619 51:0.33073394 52:0.99941198 53:-0.45185185 54:-1 55:-0.54464286 56:-0.35324015 57:-0.88099808 58:-0.74613003 59:-0.49948079 60:-1 61:-0.58543417 62:-0.67424242 63:-0.14285714 64:-0.68947972 65:-0.81294964 
-8.939037916243173 0 0 1:-0.59298109 2:-0.69916025 3:-0.3710516 4:0.33333333 5:0.54845124 6:-0.99346405 7:0.69863014 8:-0.91797557 9:-0.88115942 10:-0.29563525 11:0.68627451 12:0.056911296 13:-0.62295082 14:0.91701453 15:0.019354839 16:0.064290261 17:-0.099137931 18:-0.25606571 19:0.32197913 20:0.72143093 21:-0.74537988 22:-0.67068843 23:0.83419689 24:0.125 25:-0.26315789 26:0.37142857 27:-0.71284263 28:-0.99592253 29:-0.64311246 30:0.039513678 31:-0.8791029 32:0.1039604 33:0.26965793 34:0.08510155 35:-0.81609195 36:-0.39790576 37:-0.22220852 38:0.31122726 39:-0.20871379 40:0.84494087 41:0.01169265 42:-1 43:0.14529798 44:-0.45405696 45:0.18518519 46:-1 47:-0.48025321 48:-0.46308725 49:-0.52941176 50:-0.46666667 51:0.30229358 52:0.99946098 53:-0.67407407 54:-1 55:-0.55803571 56:-0.4841169 57:-0.62763916 58:-0.69659443 59:-0.2357217 60:-1 61:-0.56302521 62:-0.51515152 63:-1 64:-0.65776012 65:-0.96402878 
-8.22413366831208 0.2770563708431001 5.033175242535203 1:0.047964966 2:0.54994586 3:-0.26410753 4:-1 5:-0.27374652 6:-0.76797386 7:-1 8:-0.2513089 9:-0.13623188 10:1 11:-1 12:1 13:-0.28805621 14:-0.30569577 15:-1 16:0.079567155 17:-0.52586207 18:0.31251712 19:0.74699689 20:0.084407633 21:0.84394251 22:-0.65791341 23:-0.98963731 24:-1 25:-1 26:-1 27:-0.68847776 28:-0.83486239 29:-0.99395106 30:-0.99392097 31:0.71436189 32:-0.96534653 33:-0.68991559 34:0.42234673 35:-0.71100164 36:-0.91099476 37:-0.95492749 38:0.60363625 39:-0.99488706 40:-0.30354796 41:1 42:-1 43:-0.76620395 44:0.99140247 45:-1 46:-1 47:0.99918924 48:0.13422819 49:-1 50:-0.85714286 51:0.49770642 52:0.99979419 53:1 54:-1 55:0.83482143 56:0.83354511 57:-0.92706334 58:-0.85139319 59:-0.11941848 60:-1 61:0.72268908 62:-0.67424242 63:-1 64:-0.98903833 65:1 
-12 0.8119593472814766 8.173669244083603 1:0.13715296 2:0.4371616 3:-0.18325707 4:-1 5:-0.30235131 6:-0.5751634 7:-1 8:-0.34729494 9:-0.049275362 10:-0.0099855165 11:-1 12:0.30976884 13:-0.36533958 14:0.89815695 15:-1 16:0.21960535 17:-0.55316092 18:-0.17458384 19:0.82214694 20:0.05719266 21:0.8275154 22:-0.47338538 23:-1 24:-1 25:-1 26:-1 27:-0.69570399 28:-0.83690112 29:-0.9857025 30:-1 31:-0.85379235 32:-0.95049505 33:-0.47401155 34:0.38854082 35:-0.77668309 36:-0.86649215 37:-0.90893873 38:0.57288164 39:-0.96393201 40:-0.27463863 41:0.90089087 42:-1 43:0.84134437 44:0.88608275 45:-1 46:-1 47:0.6753512 48:1 49:-1 50:-0.96190476 51:0.63486239 52:0.9999412 53:-0.22962963 54:-1 55:1 56:1 57:-0.98080614 58:-0.9628483 59:-0.31879543 60:-1 61:0.40336134 62:1 63:-1 64:-0.98102753 65:-0.67625899 
-0 0 12 1:-0.54355234 2:-0.3754776 3:-0.3148605 4:-1 5:-0.37307788 6:-1 7:-1 8:-0.73472949 9:-0.63478261 10:0.021965886 11:-1 12:0.33578168 13:-0.92037471 14:0.82110197 15:-0.43225806 16:-0.61171229 17:-0.86350575 18:-0.43040272 19:-0.24398792 20:-0.012408683 21:-0.31416838 22:-0.80979418 23:-1 24:-1 25:-1 26:-1 27:-0.35849271 28:-1 29:-0.87462194 30:-1 31:-0.12903119 32:-0.95544554 33:-0.7476677 34:-0.48770608 35:-1 36:0.71465969 37:-0.58151992 38:0.13155037 39:-0.68181886 40:-0.7109067 41:-0.46993318 42:-1 43:-0.67136496 44:-0.73723804 45:-1 46:-1 47:0.38611098 48:-0.34228188 49:-1 50:-1 51:0.80366972 52:0.99939237 53:-0.45679012 54:-1 55:-0.40625 56:-0.43074968 57:-1 58:-1 59:-0.68639668 60:-1 61:-0.42857143 62:-0.99242424 63:-1 64:-0.9075409 65:-1 
-1.233827973222369 0.5073467377762471 3.910588437463231 1:-0.39301875 2:-0.42731341 3:-0.098270387 4:-1 5:-0.31199926 6:-1 7:-1 8:-0.7399651 9:-0.69855072 10:-0.68684173 11:-0.98039216 12:-0.3857938 13:-0.69086651 14:0.86391136 15:0.2 16:-0.61807766 17:-0.89511494 18:-0.65128529 19:-0.22909528 20:0.047896891 21:-0.31827515 22:-0.83108588 23:-1 24:-1 25:-1 26:-1 27:-0.3176702 28:-0.95922528 29:-0.83612868 30:-0.98784195 31:-0.66313405 32:-0.81683168 33:-0.69524656 34:-0.57142587 35:-0.95730706 36:0.88743455 37:-0.50786743 38:0.56379624 39:-0.62525949 40:-0.56636005 41:-0.48385301 42:-1 43:0.18638949 44:-0.77646427 45:-1 46:-1 47:0.25601447 48:0.14765101 49:-1 50:-1 51:0.7266055 52:0.99877495 53:-0.9654321 54:-1 55:-0.39285714 56:-0.4180432 57:-1 58:-1 59:-0.65109034 60:-1 61:-0.49859944 62:-0.99242424 63:-1 64:-0.85775401 65:-1 
-0.01068638169711359 2.674384815000901 12 1:-0.49767069 2:-0.26767873 3:-0.27764308 4:-1 5:-0.33793591 6:-1 7:-1 8:-0.78708551 9:-0.63188406 10:-0.55186151 11:-1 12:-0.21443341 13:-0.95316159 14:0.85351862 15:-0.17419355 16:-0.53278167 17:-0.875 18:-0.60987981 19:-0.28232787 20:0.022605382 21:-0.24845996 22:-0.77998581 23:-1 24:-1 25:-1 26:-1 27:-0.32538827 28:-1 29:-0.86527358 30:-0.98784195 31:-0.6655353 32:-0.78217822 33:-0.78409596 34:-0.3767485 35:-1 36:0.63350785 37:-0.56266629 38:0.050564966 39:-0.6605645 40:-0.56636005 41:-0.48385301 42:-1 43:0.36797721 44:-0.74314884 45:-1 46:-1 47:0.36543649 48:-0.18791946 49:-1 50:-1 51:0.57568807 52:0.99929437 53:-0.81728395 54:-1 55:-0.44196429 56:-0.34053367 57:-0.99616123 58:-1 59:-0.73208723 60:-1 61:-0.3557423 62:-0.84090909 63:-1 64:-0.87159866 65:-1 
-10.14813181600783 2.987431064961934 12 1:-0.84816662 2:-0.53662424 3:-0.59164988 4:-0.96491228 5:-0.49846425 6:-1 7:-1 8:-0.89703316 9:-0.87246377 10:0.35749397 11:-1 12:0.58863542 13:-1 14:-0.25901784 15:0.29032258 16:-0.89306174 17:-0.90373563 18:-0.25449249 19:-0.6528954 20:-0.14536157 21:-0.72895277 22:-0.87934705 23:-1 24:-1 25:-1 26:-1 27:0.14397594 28:-0.99592253 29:-0.80313445 30:-0.93920973 31:0.52752057 32:-0.35643564 33:-0.99911151 34:-0.71293369 35:-1 36:0.052356021 37:-0.45007312 38:-0.40006057 39:-0.40157847 40:-0.81340342 41:-0.81514477 42:-1 43:-0.073746771 44:-0.97420742 45:-1 46:-1 47:0.66379781 48:-0.76510067 49:-1 50:-0.99047619 51:0.14449541 52:0.99274769 53:-0.71358025 54:-1 55:-0.609375 56:-0.6111817 57:-0.99616123 58:-0.99380805 59:-0.81931464 60:-1 61:-0.64985994 62:-0.95454545 63:-1 64:-0.80224189 65:-0.84172662 
-6.274225856550776 -0 1.048573134300386 1:0.050017918 2:0.19872096 3:0.32924549 4:-0.8245614 5:0.25416716 6:-0.094771242 7:-0.32876712 8:-0.95462478 9:-0.88695652 10:-0.075155483 11:-0.11764706 12:0.25545579 13:0.84777518 14:-0.99662204 15:-0.36774194 16:-0.72883514 17:-0.6795977 18:1 19:-0.51349157 20:0.51806989 21:-0.97946612 22:-0.87224982 23:-0.4611399 24:-0.5 25:-0.36842105 26:-0.37142857 27:-0.79456331 28:0.16615698 29:-0.85812483 30:-0.70212766 31:0.55459252 32:-0.68316832 33:-0.14704576 34:-0.9369499 35:-0.92775041 36:-0.65183246 37:-0.5486406 38:0.23713423 39:-0.58257242 40:-0.50591327 41:-0.30790646 42:-0.86666667 43:0.7950663 44:-0.45083289 45:-1 46:-1 47:-0.49204048 48:-0.26845638 49:-0.76470588 50:-0.97142857 51:-0.086697248 52:0.90748409 53:-0.99506173 54:-1 55:-0.83482143 56:-0.59339263 57:-0.9731286 58:-0.9752322 59:-0.96677051 60:-1 61:-0.69467787 62:-0.86363636 63:-1 64:-0.74526791 65:-1 
-0 -3.810120368495435 2.307338466991004 1:0.082974472 2:0.15530311 3:0.15728299 4:-0.64912281 5:0.11517379 6:-1 7:-0.49315068 8:-0.98603839 9:-0.93913043 10:-0.7018546 11:-0.39215686 12:-0.40665199 13:-1 14:0.97606735 15:-0.88387097 16:0.26798218 17:-0.63362069 18:-0.33724649 19:-0.51355402 20:0.41405667 21:-0.95893224 22:0.52732434 23:-0.49222798 24:-0.575 25:-0.47368421 26:-0.6 27:-0.83001343 28:-1 29:-0.71459995 30:-0.7325228 31:0.10786124 32:-0.73762376 33:-0.21812528 34:-0.80907043 35:-1 36:-0.66492147 37:-0.31630046 38:-0.19328933 39:-0.65214203 40:-0.69250986 41:-0.2967706 42:-0.73333333 43:0.91203547 44:-0.42772703 45:-0.7037037 46:0 47:-0.39983161 48:-0.63758389 49:-0.29411765 50:-1 51:-0.021559633 52:0.9905328 53:-0.93580247 54:-0.66666667 55:-0.82366071 56:-0.50952986 57:-0.98080614 58:-0.99380805 59:-0.98753894 60:-1 61:-0.77591036 62:-0.79545455 63:-0.71428571 64:-0.35797974 65:-0.83453237 
-5.01505432576198 -4.352131540457568 0 1:0.015202775 2:0.064176695 3:0.42429313 4:0.64912281 5:0.12255678 6:0.41503268 7:0.50684932 8:-0.85689354 9:-0.75362319 10:0.55490781 11:0.52941176 12:0.72348163 13:0.42622951 14:0.95120586 15:0.66451613 16:-0.23233609 17:-0.67816092 18:0.3787686 19:-0.41625233 20:0.41973352 21:-0.36755647 22:-0.83676366 23:0.2746114 24:0 25:0.57894737 26:0.028571429 27:-0.55023362 28:-0.67991845 29:-0.49408853 30:-0.2218845 31:0.67187856 32:-0.044554455 33:0.014660151 34:-0.72001287 35:-0.96059113 36:-0.44764398 37:-0.052420136 38:0.36144239 39:-0.10619745 40:-0.54796321 41:-0.24053452 42:-0.33333333 43:0.11809119 44:-0.58248254 45:-0.037037037 46:-0.8 47:-0.4700251 48:-0.53020134 49:0.17647059 50:-0.93333333 51:0.3293578 52:0.99977459 53:-0.76790123 54:-1 55:-0.75892857 56:-0.58703939 57:-0.87715931 58:-0.91950464 59:-0.54932503 60:-1 61:-0.7254902 62:-0.86363636 63:-0.42857143 64:-0.59684184 65:-0.77697842 
-0.1757501131205359 -0 0 1:0.53260731 2:0.57246184 3:0.47752612 4:-0.61403509 5:0.051754999 6:1 7:-0.26027397 8:-0.85863874 9:-0.25797101 10:0.27328077 11:-0.35294118 12:0.52826646 13:0.76112412 14:-1 15:-0.18709677 16:-0.18395926 17:-0.63362069 18:0.69927117 19:-0.47185776 20:0.36454354 21:-0.86036961 22:-0.54719659 23:-0.32642487 24:-0.65 25:-0.15789474 26:-0.2 27:-0.77731116 28:-0.56167176 29:-0.84822656 30:-0.45896657 31:0.46927654 32:-0.4009901 33:0.34695691 34:-0.56981696 35:-0.90804598 36:-0.35863874 37:-0.52992793 38:0.33524092 39:-0.45940617 40:-0.72141919 41:-0.072383073 42:-0.33333333 43:0.77971358 44:-0.34067706 45:-0.92592593 46:-1 47:-0.72064487 48:-0.61073826 49:-0.29411765 50:-0.93333333 51:-0.42889908 52:0.98057558 53:-0.92592593 54:-1 55:-0.77008929 56:-0.7090216 57:-0.95777351 58:-0.9752322 59:-0.95430945 60:-1 61:-0.72829132 62:-0.90151515 63:-0.71428571 64:-0.69538146 65:-0.94964029 
-3.932407421231577 -0.11329835367055 0 1:0.56702158 2:0.54494003 3:0.37899962 4:-0.54385965 5:-0.26854957 6:-0.76797386 7:-0.34246575 8:-0.84991274 9:-0.24347826 10:-0.43554858 11:-0.54901961 12:-0.084376797 13:-0.91334895 14:0.9606538 15:0.2 16:0.84595799 17:-0.73850575 18:-0.26473197 19:-0.48536104 20:0.089301066 21:-0.8110883 22:-0.13697658 23:0.16062176 24:-0.75 25:-0.36842105 26:0.31428571 27:-0.73179729 28:-0.95310907 29:-0.8097333 30:-0.24620061 31:-0.0051775746 32:-0.34158416 33:0.26876944 34:-0.58931309 35:-0.99014778 36:-0.46858639 37:-0.4615615 38:0.12533156 39:-0.49172864 40:0.70827858 41:-0.045657016 42:-0.6 43:0.8805863 44:-0.3116604 45:-0.85185185 46:-1 47:-0.57121474 48:-0.75167785 49:-0.64705882 50:-1 51:0.017889908 52:0.99971579 53:-0.84197531 54:-1 55:-0.72991071 56:-0.56543837 57:-0.99232246 58:-1 59:-0.9086189 60:-1 61:-0.66666667 62:-0.95454545 63:-0.71428571 64:-0.6923627 65:-0.88489209 
-3.329801817646381 -0 1.019333027274521 1:0.41807934 2:0.57319739 3:0.58180662 4:-0.19298246 5:-0.1664909 6:-1 7:-0.75342466 8:-0.47120419 9:-0.42028986 10:-0.056736244 11:-0.68627451 12:0.27098439 13:-0.38641686 14:0.76519634 15:0.66451613 16:-0.32908975 17:-0.86637931 18:-0.22209233 19:-0.93996113 20:0.18225291 21:-0.61396304 22:-0.9418027 23:-0.65803109 24:-0.85 25:-0.78947368 26:-0.65714286 27:-0.50241189 28:-0.75127421 29:-0.55017872 30:-0.57446809 31:0.73605033 32:-0.65346535 33:-0.35584185 34:-0.9364199 35:-0.4909688 36:-0.23560209 37:-0.11328036 38:0.234795 39:-0.44644547 40:-0.86333771 41:-0.60579065 42:-1 43:0.75747346 44:-0.73025255 45:-1 46:-1 47:-0.65586167 48:-0.97986577 49:-0.76470588 50:-1 51:0.0073394495 52:0.084719684 53:-1 54:-1 55:-0.86383929 56:-0.81829733 57:-1 58:-1 59:-0.96261682 60:-1 61:-0.85434174 62:-1 63:-1 64:-0.7449941 65:-1 
-0 -1.49177566224131 0 1:0.37969279 2:0.59305723 3:0.48075741 4:0.26315789 5:-0.18041107 6:-1 7:-0.65753425 8:-0.21989529 9:-0.61449275 10:-0.96832824 11:-0.76470588 12:-0.90311114 13:-1 14:-0.28225147 15:0.23870968 16:-0.043921069 17:-0.87356322 18:-1 19:-1 20:0.16989948 21:-0.063655031 22:-0.95031938 23:-0.38860104 24:-0.825 25:-0.68421053 26:-1 27:-0.45640618 28:-1 29:-0.46109431 30:-0.68389058 31:0.82909959 32:-0.71782178 33:-0.37450022 34:-0.93040071 35:-1 36:-0.33769634 37:-0.018307402 38:-0.16418994 39:-0.44706972 40:-0.90013141 41:-0.61804009 42:-0.86666667 43:0.075415264 44:-0.72756582 45:-0.77777778 46:-1 47:-0.6375727 48:-0.90604027 49:-0.88235294 50:-1 51:0.14449541 52:0.9928751 53:-0.98518519 54:-1 55:-0.87723214 56:-0.85514612 57:-1 58:-1 59:-0.90031153 60:-1 61:-0.82072829 62:-1 63:-1 64:-0.68719189 65:-1 
-3.834159465463288 -0 0 1:0.55273595 2:0.67784974 3:0.13442067 4:-0.92982456 5:0.3442969 6:-1 7:-0.31506849 8:-0.93891798 9:-0.56811594 10:0.026014155 11:-0.35294118 12:0.33904826 13:-0.032786885 14:-0.64972208 15:-0.70322581 16:-0.33927435 17:-0.55028736 18:0.69583992 19:-0.52960185 20:0.58258487 21:-0.78644764 22:-0.84386089 23:-0.36787565 24:-0.6 25:-0.68421053 26:-0.37142857 27:-0.72320905 28:-0.25178389 29:-0.55787737 30:-0.43465046 31:0.5795905 32:-0.29207921 33:-0.25633052 34:-0.65478602 35:-0.18555008 36:-0.66753927 37:-0.12149137 38:0.5043234 39:-0.27928419 40:-0.88173456 41:-0.32293987 42:-0.73333333 43:0.68954378 44:-0.54164428 45:-1 46:0.4 47:-0.37253068 48:-0.79865772 49:-0.88235294 50:-0.97142857 51:-0.059633028 52:0.99860834 53:-0.80246914 54:0 55:-0.81919643 56:-0.50825921 57:-0.48944338 58:-0.90092879 59:-0.91484943 60:-1 61:-0.84033613 62:-0.67424242 63:-0.71428571 64:-0.096304963 65:-0.94244604 
-0 -0.7230156750747028 0 1:0.54505864 2:0.69965061 3:0.67740063 4:0.78947368 5:-0.21565414 6:0.7124183 7:0.82191781 8:-0.7574171 9:-0.50144928 10:0.88968915 11:1 12:0.93451631 13:0.96487119 14:0.87125905 15:0.38064516 16:0.28071292 17:-0.74281609 18:0.6249366 19:-0.30788264 20:0.13818278 21:-0.47843943 22:-0.54861604 23:0.2746114 24:0.3 25:-0.15789474 26:1 27:-0.6894236 28:-0.62079511 29:-0.64586197 30:-0.088145897 31:0.70999698 32:0.41089109 33:0.49888938 34:-0.4009767 35:-0.95073892 36:-0.057591623 37:-0.22580304 38:0.57131519 39:-0.1888863 40:-0.4717477 41:0.12249443 42:-0.6 43:0.12980945 44:-0.42181623 45:-0.18518519 46:-1 47:-0.56765985 48:-0.89932886 49:-0.41176471 50:-0.96190476 51:0.10642202 52:0.9999902 53:0.41234568 54:-1 55:-0.69196429 56:-0.49301144 57:-0.98464491 58:-1 59:-0.51194185 60:-1 61:-0.71428571 62:-0.96969697 63:-0.71428571 64:-0.62274569 65:-0.74100719 
-2.500109640464788 -0 0 1:0.15621261 2:0.35371759 3:0.13950451 4:-0.40350877 5:0.5048536 6:-1 7:-0.2739726 8:-0.89354276 9:-0.62608696 10:0.23708163 11:-0.2745098 12:0.50174214 13:1 14:0.91204478 15:-0.81935484 16:-0.2068746 17:-0.24568966 18:0.71231803 19:-0.058610489 20:0.69256143 21:-0.80698152 22:-0.13555713 23:-0.48186528 24:-0.225 25:0.47368421 26:0.71428571 27:-0.9234247 28:1 29:-0.90541655 30:-0.64133739 31:0.73869796 32:-0.50990099 33:0.43225233 34:-0.57526831 35:-0.33333333 36:-0.52356021 37:-0.64911106 38:0.32322104 39:-0.60433212 40:-0.91852825 41:0.16648107 42:0.33333333 43:0.72877278 44:-0.091886083 45:-0.85185185 46:-1 47:-0.5591936 48:-1 49:1 50:-0.92380952 51:-0.16376147 52:0.99959818 53:-0.7037037 54:-1 55:-0.72098214 56:-0.40533672 57:-1 58:-0.96904025 59:-0.79231568 60:-1 61:-0.71988796 62:-1 63:0.14285714 64:-0.66733461 65:-0.97841727 
-3.086860728773584 -3.231074686769003 0 1:0.18582856 2:0.2443659 3:0.17608165 4:-0.78947368 5:0.2854968 6:-1 7:-0.35616438 8:-0.80628272 9:-0.15362319 10:-0.44838259 11:-0.17647059 12:-0.098095288 13:-0.72599532 14:0.92811905 15:-0.63870968 16:0.81285805 17:-0.33189655 18:-0.41304442 19:-0.097637316 20:0.54074806 21:-0.58521561 22:1 23:-0.29533679 24:-0.15 25:-0.052631579 26:0.42857143 27:-0.94427104 28:-0.78593272 29:-0.93896068 30:-0.4893617 31:0.010200705 32:-0.34653465 33:0.44824522 34:-0.60557249 35:-0.89162562 36:-0.56806283 37:-0.73611968 38:0.19870925 39:-0.59577093 40:-0.99474376 41:0.16759465 42:-0.33333333 43:0.77562641 44:-0.11069318 45:-0.92592593 46:-1 47:-0.56789373 48:-1 49:-0.29411765 50:-1 51:-0.098623853 52:0.99304171 53:-0.62469136 54:-1 55:-0.73660714 56:-0.43710292 57:-1 58:-1 59:-0.74662513 60:-1 61:-0.71988796 62:-1 63:-0.42857143 64:-0.66390173 65:-0.99280576 
-3.009245930805036 -0 0.1116285627806568 1:0.14848671 2:0.4084343 3:0.06130054 4:-1 5:0.44623844 6:-1 7:-0.42465753 8:0.21640489 9:1 10:0.15908277 11:-0.43137255 12:0.44327837 13:-0.16159251 14:0.82097749 15:-1 16:0.3965627 17:-0.23850575 18:-0.081886018 19:-0.012777383 20:0.6531041 21:-0.62628337 22:-1 23:-0.47150259 24:-0.225 25:-0.26315789 26:-0.028571429 27:-1 28:-1 29:-1 30:-0.52583587 31:0.92009326 32:-0.40594059 33:0.53798312 34:-0.65476709 35:1 36:-0.53926702 37:-1 38:0.023465402 39:-0.74311463 40:-1 41:0.18207127 42:-1 43:0.23332719 44:-0.073616335 45:-1 46:-1 47:-0.63194412 48:-1 49:-0.41176471 50:-1 51:-0.30183486 52:0.99822612 53:-0.83703704 54:-1 55:-0.74553571 56:-0.54383736 57:-1 58:-1 59:-0.88992731 60:-1 61:-0.67226891 62:-1 63:-1 64:-0.9557822 65:-0.58273381 
-7.951144069756459 -7.451105670247259 2.829876098201727 1:0.41907544 2:0.43769283 3:0.58219932 4:0.33333333 5:-0.2275276 6:-0.93464052 7:-0.61643836 8:-0.53403141 9:-0.25507246 10:-0.51058221 11:-0.78431373 12:-0.16672197 13:-0.45433255 14:0.81304569 15:0.98709677 16:-0.14576703 17:-0.86494253 18:-0.59215669 19:-0.91325117 20:0.12734941 21:-0.4661191 22:-0.6422995 23:-0.47150259 24:-0.925 25:-0.78947368 26:-0.82857143 27:-0.41108147 28:-0.94495413 29:-0.47704152 30:-0.57446809 31:0.078612351 32:-0.21782178 33:-0.26610395 34:-0.89303629 35:-0.96715928 36:0.46858639 37:-0.034940884 38:0.17057061 39:-0.31233991 40:-0.82654402 41:-0.55233853 42:-0.86666667 43:0.74347234 44:-0.85760344 45:-1 46:-1 47:-0.58032025 48:-0.82550336 49:-1 50:-1 51:0.34266055 52:0.99039559 53:-0.97530864 54:-1 55:-0.84598214 56:-0.83100381 57:-1 58:-1 59:-0.92938733 60:-1 61:-0.83193277 62:-1 63:-1 64:-0.74496694 65:-0.90647482 
-3.810131299975587 -2.211515001586302 1.945924892605116 1:0.049604898 2:0.20231698 3:0.2778309 4:-0.78947368 5:0.061555838 6:-0.99346405 7:-0.39726027 8:1 9:-0.91014493 10:-0.60746319 11:-0.41176471 12:-0.28187362 13:-1 14:-0.26716349 15:-0.71612903 16:0.3214513 17:-0.69971264 18:-0.85569654 19:-0.51203978 20:0.37228417 21:-0.59342916 22:-0.97019163 23:-0.48186528 24:-0.825 25:-1 26:-0.65714286 27:-0.88491005 28:-0.98980632 29:-0.90871597 30:-0.72036474 31:0.44743732 32:-0.62871287 33:-0.16303865 34:-0.88718745 35:-1 36:-0.56020942 37:-0.65785069 38:-0.16156875 39:-0.73070883 40:-0.95795007 41:-0.27616927 42:-1 43:0.70971445 44:-0.43041376 45:-0.92592593 46:-1 47:-0.43965262 48:-0.98657718 49:-1 50:-0.93333333 51:-0.087155963 52:0.99345332 53:-0.8617284 54:-1 55:-0.77901786 56:-0.54637865 57:-0.9731286 58:-0.9876161 59:-0.87954309 60:-1 61:-0.74509804 62:-0.97727273 63:-1 64:-0.71288302 65:-0.89928058 
-0 -9.117727673283863 -1.477986710187567 1:-0.84718266 2:-0.3156529 3:-0.66783909 4:-1 5:-0.66322289 6:-1 7:-1 8:-0.88481675 9:-0.86086957 10:-0.86990122 11:-1 12:-0.67953302 13:-1 14:0.83606866 15:-0.23870968 16:-0.99108848 17:-0.92672414 18:-0.76892948 19:-0.6396575 20:-0.34557725 21:-0.66324435 22:-0.90915543 23:-1 24:-1 25:-1 26:-1 27:-0.17250251 28:-1 29:-0.80478416 30:-0.98784195 31:-0.039699642 32:-0.7029703 33:-0.93158596 34:-0.83685715 35:-1 36:0.0052356021 37:-0.45320952 38:-1 39:-0.52125683 40:-0.7739816 41:-0.81848552 42:-1 43:0.98769971 44:-0.94841483 45:-1 46:-1 47:0.35346212 48:-0.4295302 49:-1 50:-1 51:0.28577982 52:0.9833491 53:-0.99506173 54:-1 55:-0.52008929 56:-0.68233799 57:-1 58:-1 59:-0.84215992 60:-1 61:-0.64145658 62:-1 63:-1 64:-0.84650721 65:-1 
-6.355622757269491 -12 -1.789493874252505 1:-0.58300788 2:-0.023374129 3:-0.39814831 4:-1 5:-0.32149309 6:-0.99673203 7:-1 8:-0.7382199 9:-0.62028986 10:0.15058473 11:-1 12:0.43679845 13:-0.88992974 14:0.81534384 15:-0.47096774 16:-0.65754297 17:-0.81465517 18:-0.25203772 19:-0.23099979 20:0.038694663 21:-0.5687885 22:-0.8012775 23:-0.98963731 24:-1 25:-1 26:-1 27:-0.27699904 28:-0.99796126 29:-0.897168 30:-0.98784195 31:0.13028881 32:-0.91089109 33:-0.85073301 34:-0.52196627 35:-0.99343186 36:0.66753927 37:-0.6307508 38:0.13900144 39:-0.68157114 40:-0.59526938 41:-0.44042316 42:-1 43:0.69421298 44:-0.7071467 45:-1 46:-1 47:0.6029437 48:-0.38926174 49:-1 50:-0.99047619 51:0.61284404 52:0.99926497 53:-0.4962963 54:-1 55:-0.37946429 56:-0.31385006 57:-0.98464491 58:-0.99380805 59:-0.70716511 60:-1 61:-0.3697479 62:-0.71969697 63:-1 64:-0.91211203 65:-0.76258993 
-0 -12 -0 1:-0.57844036 2:-0.052775678 3:-0.35416951 4:-1 5:-0.34214155 6:-1 7:-1 8:-0.73472949 9:-0.62898551 10:0.17901595 11:-1 12:0.45839247 13:-0.96721311 14:0.80235292 15:-0.40645161 16:-0.60661999 17:-0.83908046 18:-0.30168497 19:-0.26395404 20:0.018460287 21:-0.4661191 22:-0.81973031 23:-1 24:-1 25:-1 26:-1 27:-0.30363392 28:-1 29:-0.88452021 30:-1 31:0.21753903 32:-0.98514851 33:-0.80897379 34:-0.52614942 35:-0.99671593 36:0.71989529 37:-0.60280514 38:-0.10183483 39:-0.6932536 40:-0.61892247 41:-0.46269488 42:-1 43:0.26197613 44:-0.72702848 45:-1 46:-1 47:0.5215866 48:-0.28187919 49:-1 50:-1 51:0.78944954 52:0.99849074 53:-0.47160494 54:-1 55:-0.36160714 56:-0.37611182 57:-0.98848369 58:-1 59:-0.70093458 60:-1 61:-0.40616246 62:-0.92424242 63:-1 64:-0.91882391 65:-0.76258993 
-12 -12 -1.51592465001697 1:0.028431557 2:0.78865211 3:-0.25778582 4:-1 5:-0.27745281 6:-0.58169935 7:-1 8:-0.31588133 9:-0.16811594 10:0.40962534 11:-1 12:0.62510398 13:-0.38173302 14:0.83020519 15:-1 16:0.18395926 17:-0.48706897 18:0.047633256 19:0.77890522 20:0.080911488 21:0.86036961 22:-0.59829666 23:-1 24:-1 25:-1 26:-1 27:-0.69229896 28:-0.73904179 29:-0.99175144 30:-1 31:0.16429974 32:-1 33:-0.57974234 34:0.54418807 35:-0.64860427 36:-1 37:-0.94111325 38:0.42396458 39:-1 40:-0.15111695 41:0.98496659 42:-1 43:0.46158099 44:1 45:-1 46:-1 47:0.94064269 48:0.89261745 49:-1 50:-0.88571429 51:0.7266055 52:0.99935317 53:-0.041975309 54:-1 55:0.82589286 56:0.63659466 57:-0.78886756 58:-0.88235294 59:-0.22326064 60:-1 61:0.59663866 62:-0.31818182 63:-1 64:-0.99676174 65:-0.050359712 
-0 -2.094236168665475 -0 1:-0.586227 2:0.010215966 3:-0.45526567 4:-1 5:-0.33281664 6:-0.97385621 7:-1 8:-0.78359511 9:-0.73043478 10:0.45725579 11:-1 12:0.65788385 13:-0.92505855 14:0.79627879 15:-0.72903226 16:-0.65245067 17:-0.80316092 18:0.0067567018 19:-0.24444063 20:0.027633282 21:-0.35112936 22:-0.81831086 23:-1 24:-1 25:-1 26:-1 27:-0.22459944 28:-0.97961264 29:-0.88671982 30:-1 31:0.66294283 32:-0.93564356 33:-0.8365171 34:-0.43247336 35:-0.95073892 36:1 37:-0.60699875 38:0.20123645 39:-0.66725294 40:-0.6609724 41:-0.42650334 42:-1 43:0.32846366 44:-0.76840408 45:-1 46:-1 47:0.62842041 48:-0.34899329 49:-1 50:-0.95238095 51:0.70045872 52:1 53:-0.59012346 54:-1 55:-0.421875 56:-0.37484117 57:-0.95777351 58:-0.94427245 59:-0.8026999 60:-1 61:-0.31652661 62:-0.81060606 63:-1 64:-0.92233599 65:-0.44604317 
-7.938064494971396 -10.01059544971113 -4.479268947696369 1:-0.87904592 2:-0.2618352 3:-0.61056806 4:-0.92982456 5:-0.58183118 6:-1 7:-1 8:-0.87260035 9:-0.87536232 10:-0.16776059 11:-1 12:0.17508996 13:-1 14:0.80672578 15:0.12258065 16:-0.92361553 17:-0.91235632 18:-0.51320283 19:-0.62346917 20:-0.24228312 21:-0.63449692 22:-0.91057488 23:-1 24:-1 25:-1 26:-1 27:-0.097705389 28:-1 29:-0.75914215 30:-0.97568389 31:0.31611888 32:-0.38613861 33:-0.89871168 34:-0.8633946 35:-1 36:0.10732984 37:-0.38064948 38:-0.67392281 39:-0.4275395 40:-0.8107753 41:-0.80066815 42:-1 43:0.74305199 44:-0.97152069 45:-1 46:-1 47:0.23824002 48:-0.56375839 49:-1 50:-1 51:0.37752294 52:0.99921597 53:-0.78271605 54:-1 55:-0.55803571 56:-0.64040661 57:-0.99232246 58:-1 59:-0.81308411 60:-1 61:-0.63865546 62:-0.93939394 63:-1 64:-0.81634678 65:-0.99280576 
-0.8836882958171162 -0 -0 1:-0.63711348 2:0.11243692 3:-0.50382461 4:-1 5:-0.33543422 6:-0.98366013 7:-1 8:-0.76265271 9:-0.73623188 10:0.55342455 11:-1 12:0.72249291 13:-0.94847775 14:0.77983746 15:-0.58709677 16:-0.70210057 17:-0.79310345 18:-0.0040388314 19:-0.30614985 20:0.025066715 21:-0.49486653 22:-0.81121363 23:-1 24:-1 25:-1 26:-1 27:-0.23594953 28:-0.98572885 29:-0.90156723 30:-1 31:0.73238411 32:-0.97029703 33:-0.87472235 34:-0.46487858 35:-0.96059113 36:0.73298429 37:-0.64026571 38:0.15197686 39:-0.68259174 40:-0.70039422 41:-0.47605791 42:-1 43:0.3078209 44:-0.75174637 45:-1 46:-1 47:0.7025274 48:-0.51677852 49:-1 50:-0.97142857 51:0.63302752 52:0.99958838 53:-0.51111111 54:-1 55:-0.40401786 56:-0.41931385 57:-0.95393474 58:-0.9752322 59:-0.76739356 60:-1 61:-0.39215686 62:-0.8030303 63:-1 64:-0.91342227 65:-0.46043165 
