svm_type c_svc
kernel_type rbf
gamma 1
nr_class 2
total_sv 308
rho 0.049543
label 1 0
nr_sv 154 154
SV
1 1:-0.418796 
1 1:-0.418796 
1 1:-0.418796 
1 1:-0.418796 
1 1:-0.418796 
1 1:-0.418796 
1 1:-0.418796 
1 1:-0.418796 
1 1:-0.418796 
1 1:-0.410041 
1 1:-0.37779 
1 1:-0.418796 
1 1:-0.418796 
1 1:-0.418796 
1 1:-0.418796 
1 1:-0.418796 
1 1:-0.418796 
1 1:-0.418796 
1 1:-0.418796 
1 1:-0.418796 
1 1:-0.410041 
1 1:-0.37779 
1 1:-0.418796 
1 1:-0.418796 
1 1:-0.418796 
1 1:-0.418796 
1 1:-0.418796 
1 1:-0.418796 
1 1:-0.418796 
1 1:-0.418796 
1 1:-0.418796 
1 1:-0.410041 
1 1:-0.37779 
1 1:-0.418796 
1 1:-0.418796 
1 1:-0.418796 
1 1:-0.418796 
1 1:-0.418796 
1 1:-0.418796 
1 1:-0.418796 
1 1:-0.418796 
1 1:-0.418796 
1 1:-0.410041 
1 1:-0.37779 
1 1:-0.418796 
1 1:-0.418796 
1 1:-0.418796 
1 1:-0.418796 
1 1:-0.418796 
1 1:-0.418796 
1 1:-0.418796 
1 1:-0.418796 
1 1:-0.418796 
1 1:-0.410041 
1 1:-0.37779 
1 1:-0.418796 
1 1:-0.418796 
1 1:-0.418796 
1 1:-0.418796 
1 1:-0.418796 
1 1:-0.418796 
1 1:-0.418796 
1 1:-0.418796 
1 1:-0.418796 
1 1:-0.410041 
1 1:-0.37779 
1 1:-0.418796 
1 1:-0.418796 
1 1:-0.418796 
1 1:-0.418796 
1 1:-0.418796 
1 1:-0.418796 
1 1:-0.418796 
1 1:-0.418796 
1 1:-0.418796 
1 1:-0.410041 
1 1:-0.37779 
1 1:-0.418796 
1 1:-0.418796 
1 1:-0.418796 
1 1:-0.418796 
1 1:-0.418796 
1 1:-0.418796 
1 1:-0.418796 
1 1:-0.418796 
1 1:-0.418796 
1 1:-0.410041 
1 1:-0.37779 
1 1:-0.418796 
1 1:-0.418796 
1 1:-0.418796 
1 1:-0.418796 
1 1:-0.418796 
1 1:-0.418796 
1 1:-0.418796 
1 1:-0.418796 
1 1:-0.418796 
1 1:-0.410041 
1 1:-0.37779 
1 1:-0.418796 
1 1:-0.418796 
1 1:-0.418796 
1 1:-0.418796 
1 1:-0.418796 
1 1:-0.418796 
1 1:-0.418796 
1 1:-0.418796 
1 1:-0.418796 
1 1:-0.410041 
1 1:-0.37779 
1 1:-0.418796 
1 1:-0.418796 
1 1:-0.418796 
1 1:-0.418796 
1 1:-0.418796 
1 1:-0.418796 
1 1:-0.418796 
1 1:-0.418796 
1 1:-0.418796 
1 1:-0.410041 
1 1:-0.37779 
1 1:-0.418796 
1 1:-0.418796 
1 1:-0.418796 
1 1:-0.418796 
1 1:-0.418796 
1 1:-0.418796 
1 1:-0.418796 
1 1:-0.418796 
1 1:-0.418796 
1 1:-0.410041 
1 1:-0.37779 
1 1:-0.418796 
1 1:-0.418796 
1 1:-0.418796 
1 1:-0.418796 
1 1:-0.418796 
1 1:-0.418796 
1 1:-0.418796 
1 1:-0.418796 
1 1:-0.418796 
1 1:-0.410041 
1 1:-0.37779 
1 1:-0.418796 
1 1:-0.418796 
1 1:-0.418796 
1 1:-0.418796 
1 1:-0.418796 
1 1:-0.418796 
1 1:-0.418796 
1 1:-0.418796 
1 1:-0.418796 
1 1:-0.410041 
1 1:-0.37779 
-1 1:-0.49487 
-1 1:-0.503104 
-1 1:-0.505011 
-1 1:-0.478466 
-1 1:-0.438796 
-1 1:-0.438796 
-1 1:-0.438796 
-1 1:-0.438796 
-1 1:-0.448796 
-1 1:-0.458796 
-1 1:-0.468796 
-1 1:-0.49487 
-1 1:-0.503104 
-1 1:-0.505011 
-1 1:-0.478466 
-1 1:-0.438796 
-1 1:-0.438796 
-1 1:-0.438796 
-1 1:-0.438796 
-1 1:-0.448796 
-1 1:-0.458796 
-1 1:-0.468796 
-1 1:-0.49487 
-1 1:-0.503104 
-1 1:-0.505011 
-1 1:-0.478466 
-1 1:-0.438796 
-1 1:-0.438796 
-1 1:-0.438796 
-1 1:-0.438796 
-1 1:-0.448796 
-1 1:-0.458796 
-1 1:-0.468796 
-1 1:-0.49487 
-1 1:-0.503104 
-1 1:-0.505011 
-1 1:-0.478466 
-1 1:-0.438796 
-1 1:-0.438796 
-1 1:-0.438796 
-1 1:-0.438796 
-1 1:-0.448796 
-1 1:-0.458796 
-1 1:-0.468796 
-1 1:-0.49487 
-1 1:-0.503104 
-1 1:-0.505011 
-1 1:-0.478466 
-1 1:-0.438796 
-1 1:-0.438796 
-1 1:-0.438796 
-1 1:-0.438796 
-1 1:-0.448796 
-1 1:-0.458796 
-1 1:-0.468796 
-1 1:-0.49487 
-1 1:-0.503104 
-1 1:-0.505011 
-1 1:-0.478466 
-1 1:-0.438796 
-1 1:-0.438796 
-1 1:-0.438796 
-1 1:-0.438796 
-1 1:-0.448796 
-1 1:-0.458796 
-1 1:-0.468796 
-1 1:-0.49487 
-1 1:-0.503104 
-1 1:-0.505011 
-1 1:-0.478466 
-1 1:-0.438796 
-1 1:-0.438796 
-1 1:-0.438796 
-1 1:-0.438796 
-1 1:-0.448796 
-1 1:-0.458796 
-1 1:-0.468796 
-1 1:-0.49487 
-1 1:-0.503104 
-1 1:-0.505011 
-1 1:-0.478466 
-1 1:-0.438796 
-1 1:-0.438796 
-1 1:-0.438796 
-1 1:-0.438796 
-1 1:-0.448796 
-1 1:-0.458796 
-1 1:-0.468796 
-1 1:-0.49487 
-1 1:-0.503104 
-1 1:-0.505011 
-1 1:-0.478466 
-1 1:-0.438796 
-1 1:-0.438796 
-1 1:-0.438796 
-1 1:-0.438796 
-1 1:-0.448796 
-1 1:-0.458796 
-1 1:-0.468796 
-1 1:-0.49487 
-1 1:-0.503104 
-1 1:-0.505011 
-1 1:-0.478466 
-1 1:-0.438796 
-1 1:-0.438796 
-1 1:-0.438796 
-1 1:-0.438796 
-1 1:-0.448796 
-1 1:-0.458796 
-1 1:-0.468796 
-1 1:-0.49487 
-1 1:-0.503104 
-1 1:-0.505011 
-1 1:-0.478466 
-1 1:-0.438796 
-1 1:-0.438796 
-1 1:-0.438796 
-1 1:-0.438796 
-1 1:-0.448796 
-1 1:-0.458796 
-1 1:-0.468796 
-1 1:-0.49487 
-1 1:-0.503104 
-1 1:-0.505011 
-1 1:-0.478466 
-1 1:-0.438796 
-1 1:-0.438796 
-1 1:-0.438796 
-1 1:-0.438796 
-1 1:-0.448796 
-1 1:-0.458796 
-1 1:-0.468796 
-1 1:-0.49487 
-1 1:-0.503104 
-1 1:-0.505011 
-1 1:-0.478466 
-1 1:-0.438796 
-1 1:-0.438796 
-1 1:-0.438796 
-1 1:-0.438796 
-1 1:-0.448796 
-1 1:-0.458796 
-1 1:-0.468796 
-1 1:-0.49487 
-1 1:-0.503104 
-1 1:-0.505011 
-1 1:-0.478466 
-1 1:-0.438796 
-1 1:-0.438796 
-1 1:-0.438796 
-1 1:-0.438796 
-1 1:-0.448796 
-1 1:-0.458796 
-1 1:-0.468796 
