svm_type c_svc
kernel_type rbf
gamma 0.2
nr_class 2
total_sv 19
rho 2.05502
label 11 0
probA -2.76014
probB 0.0621239
nr_sv 9 10
SV
4 1:-0.073423169 2:-0.25401547 3:-0.59191274 4:-0.10849057 5:0.65250134 
4 1:0.014306044 2:-0.45508626 3:-0.62702847 4:-0.95754717 5:0.21570737 
4 1:0.96965838 2:-0.16180845 3:-0.57648311 4:-0.8254717 5:0.77622378 
3.423821519805475 1:0.89574496 2:-0.22248662 3:-0.68076616 4:-0.84433962 5:0.63851533 
4 1:-0.027311539 2:-0.22724569 3:-0.65788774 4:-0.32075472 5:0.61699839 
1.713549213052493 1:0.01604238 2:-0.36823319 3:-0.68342644 4:-0.81603774 5:0.41043572 
4 1:-0.043401584 2:-0.30696014 3:-0.59829742 4:-0.22641509 5:0.57073696 
0.01961832849222555 1:0.017220365 2:-0.62403331 3:-0.83878691 4:-0.21698113 5:-0.80849919 
4 1:0.068459291 2:-0.11064842 3:-0.53711093 4:0.094339623 5:0.67939753 
-1.178016574539394 1:-0.91026889 2:-0.69958358 3:-0.63607342 4:-0.91037736 5:-0.28456159 
-4 1:0.013053159 2:0.066627008 3:-0.38760309 4:-0.46698113 5:1 
-4 1:0.92021027 2:-0.15050565 3:-0.37164139 4:-0.98584906 5:0.66325982 
-4 1:0.87004038 2:0.066032124 3:-0.36312849 4:-0.95283019 5:0.95051103 
-4 1:0.11898326 2:0.027364664 3:-0.40622506 4:-0.80660377 5:0.9429801 
-2.909132673134839 1:-0.89464187 2:-0.48483046 3:-0.71375366 4:0.25943396 5:0.033889188 
-1.067331874661346 1:1 2:0.19631172 3:-0.19925512 4:-0.70754717 5:0.84615385 
-3.175693262938278 1:0.09399364 2:0.21534801 3:-0.090715616 4:0.15566038 5:0.8655191 
-4 1:-0.85395714 2:-0.33372992 3:-0.61532322 4:-0.28773585 5:0.35341581 
-0.8268146760763362 1:-0.86441601 2:-0.33610946 3:-0.66161213 4:-0.55188679 5:0.3006993 
