svm_type c_svc
kernel_type rbf
gamma 0.04
nr_class 2
total_sv 28
rho -2.33775
label 0 11
probA -2.44393
probB -0.362622
nr_sv 13 15
SV
4.587823190017039 1:-1 2:-0.35978777 3:-0.37857288 4:0.99933187 5:-0.19439995 6:0.24684328 7:-1 8:-0.64043972 9:0.16603254 10:1 11:-1 12:-1 13:-0.77329074 14:-0.99889315 15:0.83970131 16:-0.96103896 17:0.82438559 18:-1 19:-1 20:-0.91850829 21:0.54241588 22:-0.32393394 23:0.094017094 24:-0.5899705 25:-0.11208791 
3.428432619148575 1:-0.59259259 2:0.56812912 3:0.42428542 4:-0.88458174 5:-0.37908621 6:0.66898463 7:-0.2744186 8:-0.43788934 9:-0.0084611538 10:-1 11:-0.76237624 12:-0.525 13:0.61963131 14:-0.50735414 15:1 16:-1 17:0.095681222 18:-1 19:-1 20:-0.91712707 21:-0.59059539 22:-0.53138683 23:-0.77350427 24:-0.9380531 25:-0.74505495 
1.50128577550257 1:0.14814815 2:-0.62851733 3:-0.92222025 4:0.99450909 5:-0.65612342 6:-0.50614457 7:-0.29302326 8:-0.39135214 9:-0.32450272 10:-1 11:-0.58415842 12:-0.3875 13:0.33232898 14:-0.92589341 15:-0.9331954 16:1 17:0.240754 18:-0.99288256 19:-0.85714286 20:-0.68232044 21:-0.6420391 22:-0.45260633 23:0.27350427 24:1 25:1 
5.860935233856499 1:-0.14814815 2:-1 3:-0.95865852 4:-1 5:-0.73921257 6:-0.28991466 7:-0.57209302 8:-0.47709784 9:-0.44047415 10:-1 11:-0.96039604 12:-0.825 13:-0.8909204 14:-0.70945797 15:-0.45412374 16:-1 17:0.54235266 18:-1 19:-0.9047619 20:-0.9281768 21:-0.55426024 22:-0.52208434 23:0.76923077 24:-1 25:0.4989011 
7 1:-0.85185185 2:0.25274147 3:-0.00046878167 4:0.70434304 5:0.17716132 6:0.47083279 7:0.023255814 8:-0.31975082 9:0.46697962 10:-1 11:-0.56435644 12:-0.3625 13:0.75409539 14:-0.10627718 15:0.9565219 16:0.28571429 17:0.021713195 18:-1 19:-0.76190476 20:-0.69060773 21:-0.5370626 22:-0.65795163 23:-0.58974359 24:-0.59292035 25:-0.63516484 
1.354965036762688 1:-0.85185185 2:1 3:0.98355463 4:-0.083630086 5:-0.074520252 6:0.66253308 7:-0.14418605 8:-0.47576402 9:0.26925725 10:-1 11:-0.26732673 12:-0.325 13:0.69281397 14:-0.78445763 15:0.95822485 16:-0.064935065 17:-0.32951563 18:-0.85053381 19:-0.52380952 20:-0.65745856 21:-0.78693203 22:-0.77942913 23:-0.68803419 24:-0.4719764 25:-0.64835165 
3.159633244212048 1:-1 2:0.83586638 3:1 4:0.99523097 5:-0.092655614 6:0.63484351 7:-0.069767442 8:-0.48872114 9:0.25406791 10:-1 11:-0.40594059 12:-0.4125 13:-0.0065997235 14:-0.98844309 15:0.91902063 16:-0.012987013 17:-0.29086137 18:-1 19:-0.57142857 20:-0.6519337 21:-0.81045288 22:-0.77386944 23:-0.66239316 24:-0.66371681 25:-0.65274725 
0.737766039126669 1:0.14814815 2:-0.56043377 3:-0.98441618 4:-0.82236162 5:-0.39137839 6:-0.0039628077 7:-0.29302326 8:1 9:-0.020893652 10:-1 11:-0.52475248 12:-0.5875 13:0.69179352 14:-0.66504888 15:0.8284011 16:-1 17:1 18:-1 19:-0.38095238 20:-0.9558011 21:0.61948817 22:1 23:-0.63247863 24:-0.8879056 25:-0.69230769 
7 1:-1 2:-0.52248357 3:-0.9358656 4:0.993073 5:0.19893027 6:-0.32944542 7:-0.69302326 8:0.27281788 9:0.48308199 10:-1 11:-0.54455446 12:-0.6875 13:0.76018187 14:-0.91539593 15:-0.50221235 16:-0.87012987 17:-0.58243856 18:-0.97864769 19:-0.52380952 20:-0.80524862 21:-0.74099082 22:-0.82666836 23:-0.83760684 24:-0.96165192 25:-0.76263736 
7 1:-0.11111111 2:-0.78961331 3:-0.99446331 4:0.99406367 5:-0.0029064134 6:-0.31154767 7:-0.32093023 8:0.59995603 9:0.32789216 10:-1 11:-0.54455446 12:-0.425 13:-0.054488476 14:-0.88591371 15:-0.93073932 16:-0.90909091 17:0.19637318 18:-0.97864769 19:-0.71428571 20:-0.83701657 21:0.13168694 22:0.29112084 23:-0.71794872 24:-0.96165192 25:-0.72307692 
6.714258583468014 1:0.44444444 2:-0.53607193 3:-0.46518346 4:0.99915524 5:0.18772726 6:0.4692471 7:0.33023256 8:0.46638329 9:0.47481144 10:-1 11:0.04950495 12:0.175 13:-0.89058226 14:-0.99929846 15:0.79936509 16:-1 17:0.31663088 18:-0.97153025 19:-0.14285714 20:-0.85220994 21:-0.36937626 22:-0.27967441 23:-0.6965812 24:-0.99410029 25:-0.6967033 
1.998456264388394 1:0.85185185 2:-0.88949079 3:-0.87560815 4:0.99911685 5:0.307534 6:-0.46860595 7:1 8:-0.15922316 9:0.56137649 10:-1 11:1 12:1 13:-0.93534928 14:-0.99471994 15:-0.53216254 16:-0.57142857 17:0.0035790981 18:0.78647687 19:0.19047619 20:0.48342541 21:-0.65798702 22:-0.73753157 23:-0.076923077 24:-0.87020649 25:0.16483516 
7 1:-0.96296296 2:0.17177833 3:0.06533803 4:0.99606804 5:-0.63328485 6:0.85984627 7:-0.40465116 8:-0.42072554 9:-0.29485919 10:-1 11:-0.68316832 12:-0.6375 13:0.82553906 14:-0.90822902 15:-0.69337871 16:-0.96103896 17:-0.51324266 18:-1 19:-0.76190476 20:-0.95856354 21:-0.74166231 22:-0.86602228 23:-0.73931624 24:-0.98820059 25:-0.53846154 
-0.1115790049821859 1:-1 2:0.10035338 3:-0.4923728 4:0.99882502 5:-0.32349064 6:0.062822452 7:-0.99069767 8:-0.74729205 9:0.046361597 10:-1 11:-1 12:-1 13:0.78597091 14:-0.98816864 15:0.90343993 16:0.54545455 17:0.81245526 18:-1 19:-1 20:-0.84944751 21:0.57272626 22:-0.38872436 23:0.0042735043 24:-0.61651917 25:-0.081318681 
-2.648264948797687 1:-0.51851852 2:-0.5665698 3:-1 4:0.99236648 5:-0.43418671 6:-0.75114598 7:-0.46046512 8:-0.44621473 9:-0.065109946 10:-1 11:-0.64356436 12:-0.55 13:0.69067042 14:-0.9995396 15:-0.5595055 16:-0.88311688 17:-0.44547841 18:-0.886121 19:-0.80952381 20:-0.28176796 21:-0.68374618 22:-0.63607624 23:-0.74358974 24:-0.95280236 25:0.28351648 
-7 1:0.11111111 2:-0.83843825 3:-0.92763025 4:0.40696586 5:-0.71341528 6:-0.47935662 7:-0.77674419 8:-0.54456578 9:-0.40294544 10:-1 11:-0.74257426 12:-0.7875 13:-0.13634195 14:-0.44089675 15:-0.42566528 16:-1 17:0.20973515 18:-1 19:-0.80952381 20:-0.73618785 21:-0.66367604 22:-0.60529806 23:0.57692308 24:-0.98525074 25:0.94725275 
-6.965249108145857 1:-0.88888889 2:-0.58712447 3:-0.6199701 4:0.38301318 5:0.059226747 6:-0.16231197 7:-0.2 8:-0.48957127 9:0.37715379 10:-1 11:-0.8019802 12:-0.6625 13:-0.14796544 14:-0.7868999 15:-0.44844063 16:-0.55844156 17:0.32760678 18:-0.53024911 19:-0.95238095 20:-0.39364641 21:-0.4640006 22:-0.59490543 23:0.098290598 24:-0.87905605 25:-0.068131868 
-3.980823451248474 1:-1 2:-0.11333421 3:-0.46627306 4:-0.69893507 5:0.50333599 6:0.19338187 7:-0.55348837 8:-0.4686845 9:0.69496211 10:-1 11:-0.40594059 12:-0.575 13:0.77161817 14:1 15:0.89433771 16:-0.54545455 17:-0.064662372 18:-1 19:-0.80952381 20:-0.74171271 21:-0.42344997 22:-0.91366122 23:-0.77777778 24:-0.84365782 25:-0.7010989 
-7 1:0.40740741 2:-0.42639301 3:-0.51209964 4:0.99993088 5:0.33060708 6:0.31907543 7:-0.03255814 8:0.33179919 9:0.5775915 10:-1 11:0.6039604 12:0.3 13:-0.08729991 14:-0.99982084 15:0.79014406 16:-0.83116883 17:0.5619184 18:-0.9430605 19:-0.23809524 20:-0.75414365 21:-0.30191002 22:-0.31597594 23:-0.63675214 24:-0.91150442 25:-0.55164835 
-4.684156459906817 1:-1 2:-0.34162271 3:-0.4713283 4:0.98947127 5:0.51713293 6:0.24006829 7:-0.41395349 8:-0.43437156 9:0.70405082 10:-1 11:-0.42574257 12:-0.4 13:-0.089781599 14:-0.95409819 15:-0.32663329 16:-0.90909091 17:0.18921498 18:-0.85765125 19:-0.76190476 20:-0.76519337 21:-0.22453928 22:-0.80831774 23:-0.76923077 24:-0.96165192 25:-0.77142857 
-1.895805459703179 1:-1 2:-0.54174219 3:-0.7460597 4:-0.30505602 5:0.23083783 6:-0.4522853 7:0.46046512 8:-0.44422133 9:0.50642331 10:-1 11:0.38613861 12:0.8375 13:0.40922512 14:-0.12822426 15:0.797276 16:0.038961039 17:-0.21927941 18:-0.75800712 19:-0.71428571 20:0.5 21:-0.65155189 22:-0.93015861 23:-0.22222222 24:-0.85545723 25:0.1032967 
-0.4977121374949501 1:-1 2:-0.45757941 3:-0.8703882 4:0.95244791 5:-0.38708688 6:-1 7:-0.57209302 8:-1 9:-0.016541981 10:-1 11:-0.38613861 12:-0.375 13:0.28544257 14:-0.78732828 15:-0.7722284 16:0.077922078 17:-0.04891434 18:1 19:-0.9047619 20:1 21:-0.35943445 22:-0.99247806 23:-0.6965812 24:-0.94100295 25:-0.58241758 
-7 1:-0.96296296 2:0.26408198 3:0.084925502 4:0.99989249 5:0.4165416 6:0.40467437 7:-0.60930233 8:-0.13892268 9:0.63685486 10:-1 11:-0.36633663 12:-0.5375 13:0.21126965 14:-0.99179695 15:-0.51520232 16:-1 17:-0.11524696 18:-1 19:-0.14285714 20:-0.67679558 21:-0.42296501 22:-0.80562874 23:-0.85897436 24:-0.99410029 25:-0.80659341 
-0.8932023587483249 1:0.18518519 2:0.649072 3:0.20812639 4:0.99998464 5:0.45378945 6:0.44211281 7:-0.079069767 8:-0.18705753 9:0.6619985 10:-1 11:0.30693069 12:0.125 13:0.27278052 14:-0.9995301 15:-0.48674386 16:-0.75324675 17:0.13672155 18:-0.93594306 19:0.57142857 20:-0.37845304 21:-0.37633366 22:-0.74676139 23:-0.47008547 24:-0.92330383 25:-0.4021978 
-0.2586210022292669 1:-0.88888889 2:-0.11843744 3:-0.80779951 4:0.99594517 5:-0.58415001 6:0.002385699 7:-0.9255814 8:-0.38003664 9:-0.23375201 10:-1 11:-1 12:-1 13:0.50642764 14:-0.98972349 15:0.84686625 16:-1 17:0.50035791 18:-1 19:-1 20:-0.94751381 21:0.15313736 22:-0.24039318 23:-0.33333333 24:-0.86430678 25:-0.50769231 
-0.4081420552257529 1:-1 2:-0.074249957 3:-0.38061271 4:0.99827209 5:-0.31090402 6:0.20456474 7:-0.95348837 8:-0.59190912 9:0.058479874 10:-1 11:-0.98019802 12:-0.9625 13:-0.021616661 14:-0.9997959 15:0.84249006 16:-0.48051948 17:0.65163445 18:-1 19:-1 20:-0.92265193 21:0.68650675 22:-0.21030542 23:-0.085470085 24:-0.60176991 25:-0.16923077 
-7 1:-0.88888889 2:-0.17048228 3:-0.68936246 4:0.99522329 5:-0.47344352 6:-0.12979662 7:-0.79534884 8:0.12790033 9:-0.10704369 10:-1 11:-1 12:-0.9875 13:0.71635077 14:-0.98325574 15:0.82282029 16:-0.58441558 17:0.089954665 18:-0.99288256 19:-0.95238095 20:-0.88812155 21:0.75490562 22:0.15376369 23:-0.19230769 24:-0.83185841 25:-0.46813187 
-7 1:-0.25925926 2:0.79937425 3:0.50509325 4:0.91990176 5:-0.094641124 6:0.66646583 7:-0.64651163 8:-0.19179187 9:0.25239601 10:-1 11:-0.40594059 12:-0.3875 13:0.64220804 14:-0.57035296 15:0.8273582 16:-0.84415584 17:-0.14101646 18:-0.96441281 19:-0.23809524 20:-0.86049724 21:-0.72077147 22:-0.55002816 23:-0.80769231 24:-0.89380531 25:-0.75384615 
