svm_type c_svc
kernel_type rbf
gamma 0.0285714
nr_class 4
total_sv 83
rho -1.28299 -1.05572 -1.74026 -0.115889 0.541 1.15082
label 1 3 0 2
probA -3.73901 -3.52242 -3.70565 -3.89323 -3.53857 -3.80012
probB -0.283602 -0.176268 -0.436228 0.0820762 0.253322 0.142944
nr_sv 28 14 9 32
SV
0 0 10 1:-0.030612245 2:0 3:0.03626943 4:-0.55708391 5:-0.0055023743 6:-0.47675136 7:-0.85169492 8:-0.14831665 9:-0.83561196 10:-0.18441913 11:-0.86554622 12:-0.85977421 13:0.51764706 14:-0.51174165 15:-0.80952381 16:-0.61027964 17:-0.56613757 18:0.6842422 19:-0.10956565 20:0.48987411 21:0.72769953 22:0.47928177 23:0.59489633 24:-0.9 25:-0.84851586 26:-0.31372549 27:-0.45938034 28:0.3042337 29:-1 30:-0.34450652 31:0.070788148 32:0.2037077 33:-0.99514512 34:0.81987817 35:0.10667783 
8.258880341871782 2.042969531271844 7.202257329127893 1:-0.81632653 2:-1 3:-0.70984456 4:-0.96423659 5:-0.9162207 6:0.90373315 7:-0.79943503 8:-0.83621474 9:-0.45036948 10:-1 11:-0.94957983 12:-0.94652406 13:-0.66470588 14:-0.53334897 15:-0.93073593 16:-0.092340716 17:-0.94708995 18:-0.32472414 19:-0.41272693 20:-0.91570881 21:-0.51643192 22:-0.86740331 23:-0.87719298 24:-1 25:-0.85977482 26:-0.79831933 27:-0.35527755 28:-0.77243014 29:-1 30:-0.89571695 31:-0.64097003 32:-0.36796723 33:-0.060875848 34:0.085987774 35:-0.48347362 
0 3.272146994499902 9.296044858738529 1:-0.35714286 2:-0.64516129 3:-0.32642487 4:-0.88995873 5:-0.53709706 6:-1 7:-0.53954802 8:-0.54322111 9:-0.78626287 10:0.51189057 11:-0.44537815 12:-0.88710636 13:-0.47647059 14:-0.52688352 15:-0.25252525 16:-0.45691591 17:-0.42857143 18:0.068285531 19:0.52177558 20:-0.079912425 21:-0.43192488 22:-0.64779006 23:0.22647528 24:-0.65 25:-0.85619243 26:-0.72829132 27:-0.7239589 28:-0.47668078 29:-0.92592593 30:-0.80260708 31:0.56529758 32:-0.46324639 33:-0.98942883 34:0.41186608 35:0.40453063 
0.424219382582208 0 9.512004037157256 1:-0.051020408 2:-0.58064516 3:0.16062176 4:-0.85694635 5:-0.54796362 6:0.9606538 7:-0.13135593 8:-0.61965423 9:-0.74257857 10:0.54583965 11:-0.61344538 12:-0.88116459 13:-0.27058824 14:-0.46189407 15:-0.23809524 16:-0.48918323 17:-0.49206349 18:-0.24643525 19:0.45945975 20:-0.053639847 21:-0.37558685 22:-0.74861878 23:0.15629984 24:-0.75 25:-0.82036847 26:-0.66666667 27:-0.57630148 28:-0.49412362 29:-0.85185185 30:0.21042831 31:0.54229357 32:-0.043328304 33:-0.99843964 34:0.15712096 35:-0.2671075 
0 0 10 1:-0.62244898 2:-0.70967742 3:-0.13989637 4:-0.98349381 5:-0.10825105 6:0.99882858 7:-0.89265537 8:-0.57597816 9:-0.90936326 10:-0.50631827 11:-0.22689076 12:-0.98336304 13:-0.48235294 14:-0.66694583 15:-0.99134199 16:-0.4840988 17:-0.53439153 18:0.8445925 19:-0.2968641 20:-0.010399562 21:-0.41784038 22:0.28729282 23:0.15629984 24:-0.35 25:-0.92016377 26:-0.53781513 27:-0.56599442 28:-0.24103302 29:-1 30:-0.28119181 31:-0.11850397 32:-0.14334986 33:-0.98816965 34:0.91326686 35:0.56546676 
0 0 6.022466083944336 1:-1 2:-1 3:-0.47150259 4:-0.73314993 5:-0.1676591 6:0.82097749 7:-0.99011299 8:-0.66878981 9:-1 10:0.13296225 11:-0.51260504 12:-0.15508021 13:-0.54117647 14:-0.97373622 15:1 16:-0.74014027 17:-0.55555556 18:0.45589204 19:0.25852213 20:0.17022441 21:-0.43661972 22:-0.2679558 23:0.39792663 24:-0.225 25:-0.99744115 26:-0.67226891 27:-0.63631041 28:-0.55268417 29:-1 30:-1 31:0.42819571 32:-0.3438241 33:-0.98655069 34:0.67893749 35:-0.13971547 
2.003134291932503 1.732155688848604 8.302664447122579 1:-0.7755102 2:-0.80645161 3:-0.48186528 4:-0.71114168 5:-0.56943293 6:-0.26716349 7:-0.96045198 8:-0.6833485 9:-0.88953647 10:0.035417054 11:-0.49579832 12:0.37849079 13:-0.72941176 14:-0.64848749 15:-0.9018759 16:-0.72775563 17:-0.53439153 18:0.077915514 19:0.39547277 20:-0.28024083 21:-0.64788732 22:-0.71132597 23:-0.23125997 24:-0.825 25:-0.91248721 26:-0.74509804 27:-0.44630009 28:-0.76062659 29:-0.92592593 30:-0.97020484 31:0.25591324 32:-0.14205648 33:-0.96905144 34:0.41903027 35:-0.67884302 
0.3314914348246074 0 0 1:0.06122449 2:-0.4516129 3:-0.025906736 4:-0.86244842 5:0.14397879 6:0.97409796 7:0.56497175 8:-0.52320291 9:-0.67532727 10:-0.6120841 11:-0.34453782 12:-0.90374332 13:-0.35294118 14:-0.37881478 15:-0.64213564 16:-0.23462554 17:-0.32275132 18:0.10283668 19:0.27732324 20:-0.31581828 21:0.098591549 22:-0.71132597 23:-0.20015949 24:-0.125 25:-0.7691914 26:-0.4789916 27:-0.47853082 28:-0.75827265 29:-1 30:-0.78957169 31:-0.36415336 32:-0.089027808 33:-0.9177614 34:0.43743312 35:-0.49382788 
0 1.177027167694512 0 1:-0.071428571 2:0.70967742 3:0.75129534 4:-0.55433287 5:-0.54143112 6:0.93915654 7:-0.45621469 8:-0.44676979 9:-0.69914846 10:0.46571838 11:0.075630252 12:-0.79203803 13:0.0058823529 14:-0.27406117 15:-0.41991342 16:-0.21564302 17:-0.015873016 18:-0.39476654 19:0.58405361 20:-0.050355774 21:0.046948357 22:-0.8121547 23:0.22727273 24:0.125 25:-0.69600819 26:-0.80672269 27:-0.65530682 28:-0.41569856 29:-1 30:0.57914339 31:0.40527709 32:-0.17956456 33:-0.99479204 34:0.018853325 35:-0.40709415 
0 1.344766417789837 10 1:-0.030612245 2:-0.35483871 3:-0.20207254 4:-0.82668501 5:-0.50820331 6:0.9310428 7:0.20480226 8:-0.47042766 9:-0.64747535 10:0.015943965 11:-0.4789916 12:-0.76708259 13:-0.56470588 14:-0.17563901 15:-0.29004329 16:-0.38793982 17:-0.47089947 18:-0.12921695 19:0.53444284 20:-0.33059661 21:-0.29577465 22:-0.81906077 23:-0.16427432 24:-0.425 25:-0.61770727 26:-0.70028011 27:-0.54598117 28:-0.7415072 29:-0.25925926 30:-0.9310987 31:0.1502519 32:-0.11015305 33:-0.98330256 34:0.25718143 35:-0.48575934 
0 0 2.01252205982462 1:0.06122449 2:-0.032258065 3:0.067357513 4:-0.76616231 5:0.37874677 6:-0.26856472 7:-0.47457627 8:-0.50864422 9:-0.82631589 10:-0.16885265 11:-0.15966387 12:-0.82174688 13:-0.18235294 14:-0.39395665 15:-0.66810967 16:-0.55303532 17:-0.23809524 18:0.94009276 19:-0.16091506 20:0.57361795 21:-0.093896714 22:0.80939227 23:0.56220096 24:0.125 25:-0.77891505 26:-0.40336134 27:-0.37291818 28:0.83630821 29:-0.33333333 30:-0.33891993 31:0.15901289 32:0.18042682 33:-0.9988167 34:0.96697658 35:0.44622926 
0 0 4.59534105923277 1:-0.25510204 2:-0.67741935 3:0.21243523 4:-0.44979367 5:0.23721766 6:-0.30800668 7:0.75 8:-0.36487716 9:-0.8652432 10:-0.13239902 11:-0.4789916 12:-0.74806892 13:0.029411765 14:-0.58925999 15:-0.38816739 16:-0.60184187 17:-0.43915344 18:0.60438204 19:0.017652371 20:0.35522715 21:0.45070423 22:0.1698895 23:0.36682616 24:-0.775 25:-0.88689867 26:-0.43137255 27:-0.42218867 28:0.64015241 29:-1 30:-0.9273743 31:0.01733413 32:0.22310843 33:-0.9985628 34:0.77173097 35:-0.12881127 
0 0 10 1:0.39795918 2:-0.096774194 3:-0.55440415 4:-0.73865199 5:0.10622849 6:-0.48945182 7:-0.93361582 8:-0.7288444 9:-0.52306771 10:-0.61832747 11:-0.46218487 12:-0.91325015 13:-0.62941176 14:-0.13141938 15:-0.87878788 16:0.43846755 17:-0.56613757 18:0.55138018 19:-0.019075144 20:-0.38916256 21:-0.46948357 22:-0.39502762 23:-0.28708134 24:-0.425 25:-0.57932446 26:-0.56302521 27:-0.39478022 28:-0.78655377 29:-0.62962963 30:-0.9255121 31:-0.16804714 32:0.18128907 33:-0.99987882 34:0.73911338 35:0.36533599 
2.629092930544336 0.5178808130508007 1.010012456615801 1:-1 2:-1 3:-0.47150259 4:-0.95323246 5:-0.64093867 6:0.81515552 7:-0.9759887 8:-0.77979982 9:-0.98721789 10:0.53119589 11:-0.83193277 12:-0.83481878 13:-0.57058824 14:-0.91296774 15:0.32467532 16:-0.87602505 17:-0.80952381 18:-0.033144877 19:0.42633371 20:-0.11932129 21:-0.49295775 22:-0.66298343 23:-0.20494418 24:-0.95 25:-0.98874104 26:-0.71988796 27:-0.3165144 28:-0.73588484 29:-1 30:-1 31:0.6592776 32:0.0084069843 33:-0.95038977 34:0.33436413 35:0.37281963 
0 0 6.058918095799035 1:-0.85714286 2:-0.96774194 3:-0.19170984 4:-0.87345254 5:0.16981985 6:-0.82652273 7:-0.94632768 8:-0.61055505 9:-0.98903353 10:-0.19872736 11:-0.22689076 12:1 13:-0.52352941 14:-0.86181367 15:-0.62770563 16:-0.79740437 17:-0.36507937 18:0.79696958 19:-0.1436393 20:0.50355774 21:-0.36619718 22:0.62707182 23:0.25119617 24:-0.55 25:-0.9790174 26:-0.65826331 27:-0.22228727 28:0.67703641 29:-1 30:-0.97206704 31:-0.16608317 32:0.3847812 33:-0.99096785 34:0.88596288 35:-0.21370149 
0 0 7.119025212009401 1:-0.7244898 2:-0.58064516 3:-0.4507772 4:-0.81292985 5:-0.034609683 6:-0.67048521 7:-0.88700565 8:-0.76524113 9:-0.85663707 10:-0.58484574 11:-0.54621849 12:-0.79203803 13:-0.54705882 14:-0.55780376 15:0.73737374 16:-0.65760241 17:-0.38624339 18:0.5603693 19:-0.42333968 20:-0.22933771 21:-0.5399061 22:0.12707182 23:-0.22886762 24:-0.725 25:-0.87205732 26:-0.75070028 27:-0.36931302 28:-0.11314141 29:-0.85185185 30:-0.87709497 31:-0.52516438 32:0.07048933 33:-0.96513483 34:0.74468672 35:-0.11420305 
0 1.819830854973201 0 1:-0.20408163 2:-0.25806452 3:-0.077720207 4:-0.79367263 5:0.15165448 6:-0.46664271 7:-0.80367232 8:-0.53594177 9:-0.58654248 10:-0.62180267 11:-0.0084033613 12:-0.93345217 13:-0.28235294 14:-0.0052594553 15:-0.86147186 16:0.090124934 17:-0.31216931 18:0.21054493 19:0.22568496 20:-0.34811166 21:-0.023474178 22:-0.69198895 23:-0.15709729 24:0.2 25:-0.46110542 26:-0.3697479 27:-0.60236954 28:-0.72177815 29:-0.25925926 30:-0.89199255 31:-0.55264281 32:-0.18128907 33:-0.99998005 34:0.5147024 35:-0.30059397 
0 4.699173116465872 0 1:-0.7244898 2:-0.64516129 3:-0.48186528 4:-0.91471802 5:-0.56640537 6:0.90412894 7:0.4180791 8:-0.71792539 9:-0.87482978 10:0.49331624 11:-0.79831933 12:-0.89185977 13:-0.47647059 14:-0.57133764 15:0.54401154 16:-0.76119019 17:-0.69312169 18:-0.29218403 19:0.47517775 20:-0.063492063 21:-0.48356808 22:-0.75414365 23:0.2185008 24:-0.9 25:-0.87819857 26:-0.77591036 27:-0.71627097 28:-0.44372566 29:-0.7037037 30:-0.78957169 31:0.53071471 32:-0.47661134 33:-0.95018292 34:0.11601349 35:-0.40898302 
5.758749606949361 0.6692815236672666 1.926752921790305 1:0.31632653 2:0 3:-0.65803109 4:-0.88170564 5:-0.7876184 6:0.80389459 7:-0.9039548 8:-0.91992721 9:1 10:-0.97792651 11:-0.76470588 12:-0.94533571 13:-0.55294118 14:0.58915949 15:-0.97113997 16:0.4810521 17:-0.74603175 18:-0.41005288 19:-0.060513737 20:-1 21:-0.36619718 22:-0.9558011 23:-0.94657097 24:-0.675 25:0.29119754 26:-0.80392157 27:0.41941547 28:-0.82516511 29:0.40740741 30:-0.83612663 31:-0.62930578 32:0.90730761 33:-0.66501468 34:0.0037078972 35:-0.58107281 
0.1273057136126953 0 0 1:-0.23469388 2:-0.22580645 3:-0.52331606 4:-0.90921596 5:-0.87934977 6:-0.89745282 7:-0.88559322 8:-0.88353048 9:0.29160993 10:-0.98742937 11:-0.81512605 12:-0.93582888 13:-0.57058824 14:0.25372684 15:-0.84415584 16:0.21107297 17:-0.75661376 18:-0.048821311 19:-0.35063519 20:-0.94526546 21:-0.58685446 22:-0.83701657 23:-0.92185008 24:-0.85 25:-0.17297851 26:-0.82352941 27:0.016500532 28:-0.67408975 29:-0.25925926 30:-0.89571695 31:-0.82257706 32:0.18128907 33:-0.88587498 34:0.32203784 35:-0.46900524 
0 1.282947941812716 0 1:-0.7755102 2:-1 3:-0.68911917 4:-0.96973865 5:-0.83780558 6:-0.96443808 7:-0.88276836 8:-0.83621474 9:-0.58893912 10:-0.99061697 11:-0.89915966 12:-0.94058229 13:-0.72352941 14:-0.52289706 15:-0.59018759 16:0.026025541 17:-0.73544974 18:-0.15216221 19:-0.40435768 20:-0.92118227 21:-0.64788732 22:-0.8480663 23:-0.83014354 24:-0.875 25:-0.85414534 26:-0.83473389 27:-0.61857735 28:-0.63395428 29:-1 30:-0.99068901 31:-0.95735633 32:-0.55636991 33:-0.28343752 34:0.23814007 35:-0.57804722 
0 0 7.086316436265436 1:-0.97959184 2:-1 3:-0.64766839 4:-1 5:-0.80288184 6:0.867665 7:-0.81638418 8:-0.83985441 9:-0.9123409 10:-0.48785179 11:-0.78151261 12:-1 13:-0.71764706 14:-0.86281867 15:0.24386724 16:-0.51012434 17:-0.68253968 18:0.42192239 19:0.12562651 20:-0.67925561 21:-0.66197183 22:-0.74171271 23:-0.61961722 24:-0.9 25:-0.9790174 26:-0.80952381 27:-0.44203245 28:-0.72360711 29:-1 30:-0.84543762 31:-0.25225856 32:-0.054537616 33:1 34:0.65705535 35:-0.48085246 
0.7015030124673044 0 0 1:-0.93877551 2:-1 3:-0.50259067 4:-0.96698762 5:-0.70437929 6:-0.31319347 7:-0.92937853 8:-0.85077343 9:-0.8070701 10:-0.49263318 11:-0.81512605 12:-0.94533571 13:-0.62941176 14:-0.72627383 15:0.30735931 16:-0.48696745 17:-0.69312169 18:0.43475187 19:0.16966227 20:-0.69129721 21:-0.72769953 22:-0.76519337 23:-0.66985646 24:-0.875 25:-0.94165814 26:-0.85434174 27:-0.27773584 28:-0.536105 29:-1 30:-0.96089385 31:-0.44477841 32:0.17482216 33:-0.95405805 34:0.66535044 35:-0.40758834 
1.157560852947224 0 0 1:-0.98979592 2:-1 3:-0.48186528 4:-0.86519945 5:0.57313887 6:-0.54097182 7:-0.56779661 8:-0.72702457 9:-0.94197215 10:-0.88537841 11:-0.94957983 12:-0.94533571 13:-0.61176471 14:-0.87806104 15:-0.92784993 16:-0.77596866 17:-0.7037037 18:-0.23916642 19:-0.91113745 20:-0.2194855 21:-0.46948357 22:0.62845304 23:-0.15311005 24:-0.9 25:-0.9825998 26:-0.7254902 27:-0.45611413 28:-0.34045724 29:-1 30:-0.79143389 31:-0.50093075 32:0.0071136021 33:-0.98119918 34:0.16353842 35:0.061709824 
0 0 10 1:-0.63265306 2:-0.80645161 3:-0.47150259 4:-0.98624484 5:0.56643049 6:-0.59791481 7:-0.6440678 8:-0.77616015 9:-0.89004485 10:-0.8544132 11:-0.93277311 12:-0.97742127 13:-0.55882353 14:-0.66031289 15:-0.76911977 16:-0.76109127 17:-0.66137566 18:-0.16841652 19:-0.85212343 20:-0.18992885 21:-0.55868545 22:0.69889503 23:-0.066188198 24:-0.875 25:-0.91760491 26:-0.72268908 27:-0.54397831 28:-0.27453006 29:-1 30:-0.82867784 31:-0.67628725 32:-0.18991162 33:-0.98818359 34:0.22449891 35:0.34947104 
0 0.8294917850922812 4.293783686362647 1:-1 2:-1 3:-0.48186528 4:-0.87895461 5:0.52113012 6:-0.74414946 7:-0.94774011 8:-0.66515014 9:-0.99110336 10:-0.87007556 11:-0.94957983 12:-0.69459299 13:-0.72941176 14:-0.93457506 15:-0.73448773 16:-0.86869516 17:-0.67195767 18:-0.4060623 19:-1 20:-0.088669951 21:-0.42723005 22:1 23:-0.1076555 24:-0.95 25:-0.99232344 26:-0.73389356 27:-0.38915679 28:-0.35574936 29:-1 30:-0.96275605 31:-0.54256682 32:-0.040310412 33:-0.78729157 34:0.0076795814 35:0.083489873 
0 0 2.753788006191555 1:-0.53061224 2:-0.70967742 3:-0.8134715 4:-0.91196699 5:-0.59170624 6:-0.48958588 7:-0.90819209 8:-0.88717015 9:-0.72896127 10:0.050456269 11:-0.44537815 12:-0.92988711 13:-0.86470588 14:-0.3414291 15:-0.94227994 16:-0.19962807 17:-0.68253968 18:0.75345354 19:0.17531017 20:-0.56759715 21:-0.80751174 22:-0.5980663 23:-0.46570973 24:-0.5 25:-0.74411464 26:-0.89635854 27:-0.51353475 28:-0.71700254 29:-1 30:-0.94413408 31:0.28976176 32:-0.36753611 33:-0.99627835 34:0.86069886 35:0.68051834 
0 0 10 1:-0.78571429 2:-0.96774194 3:-0.61658031 4:-0.74415406 5:-0.4769855 6:-0.49556745 7:-0.45338983 8:-0.78343949 9:-0.80438295 10:0.03348772 11:-0.52941176 12:-0.88710636 13:-0.75294118 14:-0.65749891 15:-0.35642136 16:-0.28757679 17:-0.66137566 18:0.34121419 19:0.32492269 20:-0.52216749 21:-0.68075117 22:-0.67679558 23:-0.45773525 24:-0.55 25:-0.9160696 26:-0.8767507 27:-0.44163187 28:-0.5722608 29:-1 30:-0.99441341 31:0.066023397 32:-0.10023712 33:-0.99175604 34:0.60402201 35:-0.4012348 
-0 1.890114051733882 0 1:-0.52040816 2:-1 3:-1 4:-0.52682256 5:-0.29839703 6:0.80010584 7:-0.80367232 8:0.093721565 9:-0.36594223 10:-0.4395106 11:-1 12:-0.7849079 13:-0.99411765 14:-0.6117718 15:-0.51803752 16:-0.67547704 17:-1 18:-0.29496314 19:0.16193017 20:-0.45812808 21:-0.78403756 22:-0.88950276 23:-0.83811802 24:-1 25:-0.89713408 26:-0.55182073 27:0.47230653 28:-0.51669771 29:-1 30:-0.67039106 31:-0.41871745 32:0.37874542 33:-0.99490445 34:0.11347572 35:-0.50110554 
-0.3196473773158075 0 6.217552639784762 1:-0.19387755 2:-1 3:-1 4:-0.70013755 5:-0.68768373 6:-0.3131424 7:-0.87429379 8:-0.27206551 9:-0.19774134 10:-0.72422512 11:-1 12:-0.88948307 13:-0.98823529 14:-0.37546481 15:-0.84704185 16:-0.4635039 17:-1 18:-0.40406337 19:-0.071852723 20:-0.79036672 21:-0.4741784 22:-0.91850829 23:-0.87799043 24:-1 25:-0.76714432 26:-0.62464986 27:0.24117584 28:-0.66316681 29:-1 30:-0.93296089 31:-0.50130646 32:0.31364518 33:-0.99351163 34:0.0096654235 35:-0.2720588 
-4.051671831154687 0 0 1:0.15306122 2:-0.80645161 3:-0.89637306 4:-0.6176066 5:-0.65747092 6:0.82212976 7:-0.86440678 8:-0.59599636 9:0.081540389 10:-0.62409151 11:-1 12:-0.87284611 13:-0.85294118 14:-0.25014237 15:-0.83549784 16:-0.28467846 17:-0.94708995 18:-0.49760589 19:0.20330936 20:-0.86644773 21:-0.23943662 22:-1 23:-0.92743222 24:-1 25:-0.67758444 26:-0.81512605 27:0.4359006 28:-0.861558 29:-1 30:-0.83054004 31:-0.62618051 32:0.64259539 33:-0.43936713 34:-0.086969873 35:-0.6574655 
-2.547641184919464 0 0 1:0.18367347 2:-0.80645161 3:-0.97927461 4:-0.7826685 5:-0.72388885 6:-0.41835607 7:-0.93220339 8:-0.18471338 9:0.170652 10:-0.66169554 11:-1 12:-0.89067142 13:-0.90588235 14:-0.15972664 15:-0.86435786 16:-0.1124608 17:-0.98941799 18:-0.44700759 19:-0.12530524 20:-0.79474548 21:-0.25821596 22:-0.88812155 23:-0.95933014 24:-1 25:-0.60388946 26:-0.66666667 27:0.50655553 28:-0.6592718 29:-1 30:-0.95903166 31:-0.3790795 32:0.13817633 33:-0.98804958 34:-0.033709264 35:0.23523209 
-0.3246921240965033 0 0 1:-1 2:-1 3:-1 4:0.44704264 5:0.38725158 6:-0.29875983 7:-0.62146893 8:-0.97270246 9:-0.71113169 10:0.038137294 11:-1 12:-0.53535354 13:-1 14:-0.9295836 15:-0.0995671 16:-0.99810076 17:-1 18:-0.22493769 19:0.053910128 20:0.93212917 21:-0.99530516 22:-0.54281768 23:-0.75358852 24:-1 25:-0.9912999 26:0.8627451 27:0.95026731 28:0.51676545 29:-1 30:-0.54003724 31:0.7028264 32:0.32528562 33:-0.99978688 34:0.17601081 35:0.062229521 
-0 1.864581186238979 0 1:-1 2:-1 3:-1 4:0.22971114 5:0.480905 6:0.81915812 7:-0.49717514 8:-0.86897179 9:-0.71872106 10:0.16819356 11:-1 12:-0.44860368 13:-1 14:-0.88670396 15:0.31024531 16:-0.96961214 17:-1 18:-0.1841717 19:0.20657337 20:0.84236453 21:-0.98122066 22:-0.70718232 23:-0.4338118 24:-1 25:-0.98413511 26:0.42296919 27:0.65351965 28:0.20250635 29:-1 30:-0.44878957 31:0.45499103 32:0.81461522 33:-0.99659714 34:0.21114994 35:-0.22660889 
-0.6442211300196212 0 0 1:-1 2:-1 3:-1 4:-0.034387895 5:0.47383232 6:0.84768069 7:-0.56214689 8:-1 9:-0.71665123 10:-0.10148175 11:-1 12:-0.59714795 13:-1 14:-0.89474389 15:-0.17171717 16:-0.98948493 17:-1 18:-0.24286504 19:0.014898617 20:0.91242474 21:-1 22:-0.49723757 23:-0.46251994 24:-1 25:-0.98567042 26:0.84033613 27:0.72688616 28:0.40167655 29:-1 30:-0.42271881 31:0.84450517 32:0.78055615 33:-0.99775748 34:0.16027558 35:0.068522585 
-1.342244517773159 0.1644187900898871 4.110355249438179 1:-1 2:-1 3:-0.98963731 4:0.18844567 5:0.56532499 6:0.81260521 7:-0.49293785 8:-0.8744313 9:-0.7083356 10:0.15865474 11:-1 12:-0.45098039 13:-0.96470588 14:-0.88807745 15:0.036075036 16:-0.96219323 17:-1 18:-0.2215904 19:0.17764816 20:0.88341544 21:-0.99061033 22:-0.64226519 23:-0.44736842 24:-1 25:-0.98413511 26:0.38095238 27:0.66333369 28:0.39779848 29:-1 30:-0.34636872 31:0.36336777 32:0.67320543 33:-0.99767364 34:0.17893276 35:-0.14542269 
-1.727867554793185 0 8.187658006156427 1:0.3877551 2:-0.61290323 3:-0.98963731 4:-0.68088033 5:-0.68706816 6:0.82512373 7:-0.89830508 8:-0.54504095 9:0.059607459 10:-0.7352379 11:-1 12:-0.89067142 13:-0.77058824 14:-0.16847007 15:-0.85569986 16:-0.25593266 17:-0.98941799 18:-0.34786929 19:-0.00043331124 20:-0.83743842 21:0.17370892 22:-0.92403315 23:-0.85566188 24:-1 25:-0.61156602 26:-0.70308123 27:0.18605081 28:-0.71993226 29:-1 30:-0.82495345 31:-0.43962087 32:0.63699073 33:-0.86503265 34:0.06419221 35:-0.62782196 
-0 0 10 1:0.051020408 2:-1 3:-1 4:-0.5213205 5:-0.34114721 6:0.81445969 7:-0.80367232 8:0.18471338 9:-0.38068522 10:-0.52616284 11:-1 12:-0.82412359 13:-0.98235294 14:-0.50346722 15:-0.74891775 16:-0.62579011 17:-1 18:-0.23287404 19:0.10556461 20:-0.50465244 21:-0.7370892 22:-0.85773481 23:-0.71212121 24:-1 25:-0.84390993 26:-0.52380952 27:0.17163018 28:-0.39546147 29:-1 30:-0.66852886 31:-0.099940227 32:0.43004958 33:-0.99714008 34:0.16906848 35:-0.51550305 
-0 0.8614630478576976 0 1:-0.29591837 2:-1 3:-1 4:-0.69738652 5:-0.72050953 6:-0.34335028 7:-0.90112994 8:-0.17197452 9:-0.11705431 10:-0.74605895 11:-1 12:-0.88710636 13:-1 14:-0.53750293 15:-0.84126984 16:-0.51566379 17:-1 18:-0.45672601 19:-0.15012952 20:-0.78544061 21:-0.71361502 22:-0.89917127 23:-0.98803828 24:-1 25:-0.8618219 26:-0.64985994 27:0.55618038 28:-0.68426757 29:-1 30:-0.94785847 31:-0.38059944 32:-0.094201336 33:-0.98937364 34:-0.043752105 35:-0.1295483 
-3.035105129699678 0 0 1:-0.48979592 2:-1 3:-1 4:-0.75515818 5:-0.76055878 6:0.78941626 7:-0.86723164 8:-0.47042766 9:-0.034333751 10:-0.80546085 11:-1 12:-0.89542484 13:-0.95882353 14:-0.5649392 15:-0.80663781 16:-0.49612733 17:-0.98941799 18:-0.55910864 19:-0.12029719 20:-0.84619595 21:-0.65258216 22:-0.9640884 23:-0.99122807 24:-1 25:-0.87512794 26:-0.64145658 27:0.6857966 28:-0.77320914 29:-1 30:-0.89385475 31:-0.34277175 32:-0.029532227 33:-0.78840357 34:-0.1553218 35:-0.71085544 
-7.06352249372723 5.690240848784339 0 1:-0.25510204 2:-0.90322581 3:-1 4:-0.76891334 5:-0.68798523 6:0.82175312 7:-0.85169492 8:-0.37943585 9:-0.23953737 10:-0.81087737 11:-1 12:-0.90017825 13:-0.95294118 14:-0.33265217 15:-0.82972583 16:-0.45029824 17:-1 18:-0.58930698 19:-0.054525673 20:-0.79584018 21:-0.342723 22:-0.94751381 23:-0.81658692 24:-1 25:-0.73797339 26:-0.68627451 27:0.034218189 28:-0.75154953 29:-1 30:-0.81005587 31:-0.25656221 32:0.45591722 33:-0.98968263 34:-0.19056373 35:-0.6106417 
-0.3353242242326835 0 0 1:-1 2:-1 3:-1 4:0.3562586 5:0.4232557 6:-0.28261534 7:-0.63135593 8:-0.97452229 9:-0.7122937 10:0.17782824 11:-1 12:-0.51277481 13:-1 14:-0.93380456 15:-0.0043290043 16:-0.99915919 17:-1 18:-0.224928 19:0.079951998 20:1 21:-1 22:-0.56077348 23:-0.66108453 24:-1 25:-0.99181167 26:0.84593838 27:0.94120819 28:0.29717189 29:-1 30:-0.46182495 31:0.18994108 32:0.42487605 33:-0.99926708 34:0.17602163 35:0.070591926 
-0 -3.827035771775408 6.407261696147089 1:-1 2:-1 3:-0.98963731 4:-0.2957359 5:-0.47822919 6:0.80235611 7:-0.70762712 8:-0.31756142 9:-0.85859796 10:-0.23919543 11:-1 12:-0.7540107 13:-0.97647059 14:-0.85665472 15:-0.48629149 16:-0.74052605 17:-1 18:-0.9490024 19:1 20:-0.5320197 21:-0.89201878 22:-1 23:-0.45295056 24:-0.975 25:-0.97799386 26:-1 27:-0.56983068 28:-1 29:-1 30:-0.89571695 31:-0.2943045 32:-0.25587411 33:-0.42161251 34:-0.80013609 35:-0.63253892 
-0 -0 1.581356492399245 1:-0.3877551 2:-0.70967742 3:-0.72020725 4:-0.32874828 5:0.070651491 6:-0.55443514 7:-0.6440678 8:0.11191993 9:-0.82435499 10:-0.034554246 11:-0.8487395 12:-0.58645276 13:-0.7 14:-0.59760142 15:0.46897547 16:-0.26545854 17:-0.80952381 18:-0.62564262 19:0.71330994 20:0.03667214 21:-0.46478873 22:-0.95718232 23:0.37161085 24:-0.725 25:-0.89048106 26:-0.71988796 27:-0.72241823 28:-0.03491956 29:-1 30:-0.91061453 31:0.20049526 32:-0.55636991 33:-0.98368618 34:-0.23465808 35:-0.095654573 
-0.9622620604664823 -0.7767512574053171 5.367255717395649 1:-0.32653061 2:0.12903226 3:-0.54404145 4:-0.012379642 5:0.029006809 6:-0.51047987 7:-0.59180791 8:-0.008189263 9:-0.54975761 10:-0.072577698 11:-0.83193277 12:-0.57338087 13:-0.67647059 14:0.25597132 15:0.2987013 16:0.00023740516 17:-0.78835979 18:-0.69667238 19:0.75430848 20:-0.24794745 21:-0.46478873 22:-0.99447514 23:0.045454545 24:-0.575 25:-0.17041965 26:-0.80952381 27:-0.70263608 28:-0.1965961 29:0.48148148 30:-0.73743017 31:0.080420118 32:-0.4209959 33:-0.90919107 34:-0.32720265 35:-0.66638351 
-0 -0.6781276080464429 1.690585073090701 1:-0.6122449 2:-0.80645161 3:-0.65803109 4:-0.32324622 5:-0.094809176 6:-0.66283748 7:-0.73728814 8:-0.1810737 9:-0.76665396 10:-0.17805593 11:-0.64705882 12:-0.83244207 13:-0.68235294 14:-0.57910958 15:-0.65079365 16:0.0028290782 17:-0.68253968 18:-0.76430396 19:0.67831837 20:-0.31636563 21:-0.23004695 22:-1 23:-0.10287081 24:-0.7 25:-0.88229273 26:-0.85434174 27:-0.67408754 28:-0.18408129 29:-1 30:-0.76722533 31:0.14348903 32:-0.34080621 33:-0.98861387 34:-0.42541797 35:-0.054560676 
-0.9875945259394179 -0 0 1:-0.39795918 2:-0.12903226 3:-0.48186528 4:-0.48555708 5:-0.0008165624 6:-0.60944066 7:-0.6539548 8:-0.25568699 9:-0.53842802 10:-0.22870992 11:-0.61344538 12:-0.84076055 13:-0.45882353 14:-0.035978694 15:-0.72294372 16:0.82022494 17:-0.5978836 18:-0.75329169 19:0.75574475 20:-0.38368911 21:-0.11737089 22:-1 23:-0.082137161 24:-0.45 25:-0.4912999 26:-0.90756303 27:-0.75897823 28:-0.13021169 29:-0.18518519 30:-0.29795158 31:-0.1235932 32:-0.77753826 33:-0.95121277 34:-0.40860595 35:-0.34399816 
-10 -4.691443813907514 10 1:-0.60204082 2:-1 3:-0.56476684 4:-0.59284732 5:-0.47837994 6:0.83625698 7:-0.75706215 8:-0.07188353 9:-0.70695572 10:-0.35543479 11:-0.8487395 12:-0.57100416 13:-0.55882353 14:-0.62748317 15:-0.31024531 16:-0.14213645 17:-0.73544974 18:-0.71390313 19:0.75123615 20:-0.17898194 21:-0.27699531 22:-0.98480663 23:-0.03030303 24:-0.85 25:-0.9037871 26:-0.90756303 27:-0.5668726 28:-0.88394581 29:-1 30:-0.97392924 31:-0.040338144 32:-0.19249838 33:-0.96846467 34:-0.35115721 35:0.068295808 
-0.8605747554805248 -0 0 1:-0.85714286 2:-0.96774194 3:-0.69948187 4:-0.39752407 5:0.077359865 6:-0.66789022 7:-0.80225989 8:-0.25386715 9:-0.86473483 10:0.014961323 11:-0.76470588 12:-0.55674391 13:-0.62352941 14:-0.67927373 15:-0.33621934 16:-0.4777581 17:-0.83068783 18:-0.63499639 19:0.75425178 20:0.06622879 21:-0.56807512 22:-0.95856354 23:0.35566188 24:-0.875 25:-0.9247697 26:-0.70588235 27:-0.70487004 28:-0.085469941 29:-0.7037037 30:-0.82867784 31:-0.011817949 32:-0.45979737 33:-0.90818983 34:-0.24633505 35:0.19355235 
-4.050806868709612 -0.4974594735701013 2.885396459341586 1:-0.42857143 2:-0.80645161 3:-0.69948187 4:-0.565337 5:0.33534333 6:-0.70739793 7:-0.17090395 8:-0.41765241 9:-0.85398624 10:-0.024871627 11:-0.78151261 12:-0.87165775 13:-0.85294118 14:-0.63823657 15:0.13131313 16:-0.52428952 17:-0.77777778 18:-0.75795706 19:0.73849869 20:-0.004378763 21:-0.78403756 22:-0.97375691 23:0.18899522 24:-0.65 25:-0.90839304 26:-0.86834734 27:-0.64119432 28:-0.0085012701 29:-1 30:0.17504655 31:-0.12719665 32:-0.55636991 33:-0.79504 34:-0.41568896 35:-0.51539438 
-2.526433624570801 -0 0 1:-0.41836735 2:0.064516129 3:-0.44041451 4:-0.56258597 5:-0.11678099 6:-0.81201791 7:-0.81497175 8:-0.21201092 9:-0.5553861 10:-0.36659137 11:-0.29411765 12:-0.49970291 13:-0.67058824 14:0.17818499 15:0.16305916 16:0.18938997 17:-0.41798942 18:-0.74703565 19:0.71113124 20:-0.22714833 21:-0.42723005 22:-0.97099448 23:0.026315789 24:-0.275 25:-0.26356192 26:-0.88515406 27:-0.65586146 28:-0.083031329 29:-0.037037037 30:-0.98324022 31:-0.58013833 32:-0.38909248 33:-0.99086831 34:-0.39921243 35:-0.16136323 
-2.909612276210968 -0 -0 1:-0.85714286 2:-1 3:0.015544041 4:-0.097661623 5:-0.17324942 6:-0.5461267 7:-0.8799435 8:-0.50500455 9:-0.8541678 10:-0.18515012 11:-0.19327731 12:-0.63042187 13:-0.35882353 14:-0.73330877 15:-0.5988456 16:-0.63605789 17:-0.28042328 18:0.92228414 19:-0.09368837 20:0.24740011 21:-0.33802817 22:0.32596685 23:0.51196172 24:-0.775 25:-0.94421699 26:-0.66666667 27:-0.64037777 28:0.22419983 29:-1 30:-0.78212291 31:0.11486636 32:-0.22052166 33:-0.98289674 34:0.95705819 35:0.28963969 
-10 -0 -0 1:0.25510204 2:-0.80645161 3:-0.33678756 4:-0.46354883 5:-0.57333987 6:-0.25258302 7:-0.87429379 8:-0.45768881 9:-0.5494308 10:-0.4128834 11:-0.52941176 12:-0.82412359 13:-0.48235294 14:-0.33891662 15:-0.72294372 16:-0.36634584 17:-0.47089947 18:0.68484794 19:0.018732274 20:-0.45429666 21:-0.30046948 22:-0.45994475 23:-0.35725678 24:-0.75 25:-0.74257932 26:-0.73109244 27:-0.43875083 28:-0.32198137 29:-1 30:-0.83240223 31:-0.027854154 32:0.099374865 33:-0.99810406 34:0.82024071 35:-0.12314185 
-4.307176391144519 -0 -0 1:-0.020408163 2:0.16129032 3:-0.38860104 4:-0.3562586 5:-0.9621115 6:-0.28225147 7:-0.94067797 8:-0.52866242 9:-0.47825771 10:0.36104304 11:-0.79831933 12:-0.45216875 13:-0.69411765 14:-0.040534655 15:-0.60750361 16:-0.44460052 17:-0.73544974 18:-0.15983324 19:0.52381929 20:-0.61631089 21:-0.73239437 22:-0.87845304 23:-0.42105263 24:-0.825 25:-0.49590583 26:-0.82072829 27:-0.64187222 28:-0.79928874 29:-0.77777778 30:-0.9292365 31:0.58251217 32:0.075662858 33:-0.95956341 34:0.2317172 35:-0.77938181 
-10 -0 -3.238879750391823 1:-0.091836735 2:-0.38709677 3:-0.59585492 4:-0.86519945 5:-0.84960177 6:0.97811014 7:-0.54943503 8:-0.60145587 9:-0.5548414 10:0.3734459 11:-0.64705882 12:-0.80748663 13:-0.73529412 14:-0.16227262 15:0.2005772 16:-0.43906106 17:-0.56613757 18:-0.32435221 19:0.52519347 20:-0.56102901 21:-0.63849765 22:-0.89226519 23:-0.39314195 24:-0.725 25:-0.60644831 26:-0.82352941 27:-0.60025883 28:-0.62801016 29:-0.55555556 30:-0.86964618 31:0.3358381 32:-0.22957534 33:-0.88875804 34:0.086334079 35:-0.60249757 
-0 -2.312001031543275 -0 1:-0.1122449 2:-1 3:-0.67875648 4:-0.26272352 5:-0.56977212 6:0.87692781 7:-0.63418079 8:-0.39581438 9:-0.59877989 10:-0.020485689 11:-0.83193277 12:-0.68508616 13:-0.48823529 14:-0.49723627 15:-0.53823954 16:-0.52001622 17:-0.95767196 18:0.070723011 19:0.43694916 20:-0.34537493 21:0.42253521 22:-0.74585635 23:-0.36682616 24:-0.95 25:-0.84032753 26:-0.74509804 27:-0.29989061 28:-0.24865368 29:-1 30:-0.31843575 31:-0.086448638 32:0.20801897 33:-0.99828777 34:0.41368418 35:-0.60057469 
-0 -8.866707859410422 -0 1:-1.110223e-16 2:-1 3:-0.77202073 4:-0.43053645 5:-0.68297279 6:0.76982136 7:-0.90677966 8:-0.33212011 9:-0.57891679 10:-0.075585541 11:-0.94957983 12:-0.72667855 13:-0.67647059 14:-0.45482563 15:-0.82683983 16:-0.53199529 17:-0.89417989 18:0.32237582 19:0.22770168 20:-0.4559387 21:-0.098591549 22:-0.68922652 23:-0.36363636 24:-0.9 25:-0.81627431 26:-0.6302521 27:-0.46537353 28:-0.37022862 29:-1 30:-0.90130354 31:0.24201178 32:0.10411727 33:-0.99939478 34:0.59141434 35:-0.072400473 
-2.490568153038469 -1.194142533076578 -0.565411568874037 1:-0.89795918 2:-1 3:-0.97927461 4:-0.92022008 5:0.012223311 6:-0.99910404 7:-0.68785311 8:-0.042766151 9:-0.76015397 10:-0.65484101 11:-0.94957983 12:-0.94177065 13:-0.95882353 14:-0.74922113 15:-0.9047619 16:-0.61299991 17:-1 18:-0.20077248 19:-0.27455869 20:-0.35632184 21:-0.24882629 22:-0.55801105 23:-0.33094099 24:-0.925 25:-0.9493347 26:-0.28011204 27:-0.46563545 28:-0.30728196 29:-1 30:0.23091248 31:-0.34664845 32:-0.03556801 33:-0.85023518 34:0.19694602 35:-0.2884321 
-4.584796279258522 -2.37640507937076 -0 1:-0.94897959 2:-0.96774194 3:-0.98963731 4:-1 5:0.0087560614 6:0.98650796 7:-0.37146893 8:-0.028207461 9:-0.79279917 10:-0.65651869 11:-1 12:-0.93939394 13:-0.95294118 14:-0.77722689 15:-0.61038961 16:-0.68398405 17:-1 18:-0.25884313 19:-0.09324021 20:-0.39846743 21:-0.64319249 22:-0.76104972 23:-0.36363636 24:-1 25:-0.95752303 26:-0.21848739 27:-0.48521731 28:-0.5635055 29:-1 30:-0.12290503 31:-0.38594484 32:-0.2951067 33:0.42226534 34:0.14609332 35:-0.38484732 
-10 -0 -0 1:-0.81632653 2:-1 3:0.046632124 4:-0.089408528 5:-0.1122208 6:-0.4321673 7:-0.59745763 8:-0.41037307 9:-0.83539408 10:-0.20905708 11:-0.36134454 12:-0.62566845 13:-0.25294118 14:-0.70088104 15:-0.27561328 16:-0.58798334 17:-0.29100529 18:0.73009638 19:-0.033103089 20:0.31746032 21:-0.28638498 22:0.25276243 23:0.56220096 24:-0.325 25:-0.93295803 26:-0.62464986 27:-0.63057914 28:0.28323455 29:-1 30:-0.6461825 31:0.016975493 32:-0.1722354 33:-0.9561812 34:0.84701441 35:0.067001289 
-10 -0 -0 1:-0.89795918 2:-1 3:-0.51295337 4:-0.64236589 5:-0.22045928 6:-0.68885092 7:-0.67372881 8:-0.62693358 9:-0.92327106 10:-0.21863185 11:-0.49579832 12:-0.64587047 13:-0.72941176 14:-0.79424475 15:-0.67099567 16:-0.73633189 17:-0.64021164 18:0.94489019 19:-0.41832623 20:0.1182266 21:-0.49765258 22:0.63674033 23:0.20733652 24:-0.6 25:-0.96264074 26:-0.69187675 27:-0.49252007 28:0.24816257 29:-1 30:-0.62569832 31:0.088258902 32:0.026514335 33:-0.1376487 34:0.9696388 35:0.082658357 
-0 -0 -0.7943489168456943 1:-0.75510204 2:-1 3:0.046632124 4:0.15268226 5:-0.075337303 6:-0.2711661 7:-0.57909605 8:-0.42493176 9:-0.81676562 10:-0.17424519 11:-0.21008403 12:-0.65775401 13:-0.3 14:-0.71294094 15:-0.024531025 16:-0.51262699 17:-0.18518519 18:0.67319359 19:0.10428492 20:0.24192666 21:-0.24413146 22:0.023480663 23:0.37400319 24:-0.65 25:-0.9370522 26:-0.64705882 27:-0.51718613 28:0.28890771 29:-1 30:-0.4283054 31:-0.057877209 32:-0.069195947 33:-0.99463085 34:0.81328215 35:-0.37237269 
-8.051485964268611 -0 -9.434329901715079 1:-0.62244898 2:-1 3:-0.80310881 4:-0.99174691 5:-0.84893596 6:0.95703421 7:-0.45480226 8:-0.17015469 9:-0.77605897 10:0.38379959 11:-0.96638655 12:-0.80629828 13:-0.72941176 14:-0.58544102 15:0.038961039 16:-0.52809789 17:-0.96825397 18:-0.51436538 19:0.60387523 20:-0.53366174 21:-0.48356808 22:-0.9640884 23:-0.3476874 24:-1 25:-0.88485159 26:-0.78431373 27:-0.7320782 28:-0.84408129 29:-1 30:-0.77467412 31:0.29597814 32:-0.27182582 33:0.1025649 34:-0.10517252 35:-0.5611854 
-0 -0 -3.260144744583457 1:-0.06122449 2:-0.22580645 3:-0.58549223 4:-0.053645117 5:-0.87568152 6:-0.38687464 7:-0.99293785 8:-0.15013649 9:-0.59013744 10:0.4227937 11:-0.8487395 12:-0.56506239 13:-0.57647059 14:-0.2233426 15:-0.66810967 16:-0.417566 17:-0.87301587 18:-0.24032701 19:0.56297929 20:-0.55446086 21:-0.6056338 22:-0.88950276 23:-0.34130781 24:-0.85 25:-0.65660184 26:-0.78431373 27:-0.68721401 28:-0.82765453 29:-0.85185185 30:-1 31:0.37340961 32:-0.18215133 33:-0.99865925 34:0.16251574 35:-0.69425725 
-10 -0 -0 1:-0.95918367 2:-1 3:-0.18134715 4:-0.081155433 5:-0.13406698 6:0.84099691 7:-0.59745763 8:-0.4722475 9:-0.83466783 10:-0.2075951 11:-0.17647059 12:-0.6553773 13:-0.48235294 14:-0.73474925 15:-0.17748918 16:-0.56828861 17:-0.058201058 18:0.67894807 19:0.02694494 20:0.3136289 21:-0.35680751 22:0.13674033 23:0.44098884 24:-0.45 25:-0.94472876 26:-0.68067227 27:-0.54219114 28:0.20555461 29:-1 30:-0.67970205 31:-0.19251985 32:-0.034705756 33:-0.99629735 34:0.81672355 35:-0.22727032 
-10 -0 -0 1:-0.62244898 2:-1 3:-0.54404145 4:-0.73865199 5:-0.22774553 6:-0.57071368 7:-0.83050847 8:-0.59053685 9:-0.87341358 10:-0.18301707 11:-0.54621849 12:-0.69102793 13:-0.58823529 14:-0.68738066 15:-0.68253968 16:-0.71177035 17:-0.76719577 18:0.99285232 19:-0.29516325 20:0.069512863 21:-0.58215962 22:0.44337017 23:0.15629984 24:-0.575 25:-0.92784033 26:-0.65546218 27:-0.50011555 28:0.23271804 29:-0.92592593 30:-0.69832402 31:0.10721544 32:0.074800604 33:-0.99117837 34:0.99608784 35:0.23564785 
-0 -1.631696044901549 -0 1:0.20408163 2:-0.64516129 3:-0.75129534 4:-0.91196699 5:-0.83461471 6:0.93418361 7:-0.3700565 8:-0.50318471 9:-0.54932186 10:0.37005458 11:-0.86554622 12:-0.80510992 13:-0.61764706 14:-0.29891796 15:0.1024531 16:-0.40819839 17:-0.75661376 18:-0.34948781 19:0.5863997 20:-0.52052545 21:-0.62441315 22:-0.89088398 23:-0.43301435 24:-0.85 25:-0.71392016 26:-0.84033613 27:-0.40972468 28:-0.49784928 29:-1 30:-0.78212291 31:0.26897788 32:0.1959474 33:-0.20063889 34:0.062655482 35:-0.56558015 
-0 -3.149622743357894 -0 1:0.58163265 2:-0.96774194 3:-0.72020725 4:-0.25171939 5:-0.59438205 6:0.83351516 7:-0.68220339 8:-0.020928116 9:-0.5196543 10:-0.036411679 11:-0.91596639 12:-0.70053476 13:-0.38235294 14:-0.40189608 15:-0.46608947 16:-0.46773763 17:-0.76719577 18:0.075882666 19:0.38295669 20:-0.35851122 21:0.0093896714 22:-0.72513812 23:-0.30701754 24:-1 25:-0.78403275 26:-0.7535014 27:-0.36080854 28:-0.42638442 29:-1 30:-0.53258845 31:0.1500982 32:0.22483294 33:-0.98382804 34:0.41752059 35:-0.55072058 
-1.059236378664755 -0 -0 1:0.15306122 2:0.38709677 3:-0.41968912 4:-0.66437414 5:-0.95493832 6:0.80600123 7:-0.8700565 8:-0.36123749 9:-0.43838626 10:0.39468055 11:-0.4789916 12:-0.63279857 13:-0.7 14:0.034303708 15:-0.18037518 16:-0.32843026 17:-0.73544974 18:-0.094200591 19:0.56098147 20:-0.59058566 21:-0.70892019 22:-0.85497238 23:-0.38038278 24:-0.7 25:-0.42118731 26:-0.82913165 27:-0.62202844 28:-0.79866215 29:-0.48148148 30:-0.89944134 31:0.56102809 32:0.054968743 33:-0.83406825 34:0.28577864 35:-0.43146608 
-7.076325010488433 -0 -0 1:-0.19387755 2:0.38709677 3:-0.40932642 4:-0.89270977 5:-0.97503832 6:0.81580347 7:-0.9279661 8:-0.30300273 9:-0.59271565 10:0.9456551 11:-0.73109244 12:-0.62210339 13:-0.88235294 14:-0.077049345 15:0.2987013 16:-0.53087751 17:-0.71428571 18:-0.23565679 19:0.65367228 20:-0.48659004 21:-0.73239437 22:-0.86740331 23:-0.23365231 24:-0.775 25:-0.53019447 26:-0.8767507 27:-0.73351102 28:-0.72699407 29:-0.48148148 30:-0.91061453 31:1 32:-0.17309765 33:-0.95023647 34:0.1666227 35:-0.28305748 
-0 -0 -1.411857503304115 1:0.18367347 2:-0.80645161 3:-0.36787565 4:0.32049519 5:-0.59640461 6:0.84128099 7:-0.44915254 8:0.29572338 9:-0.78281315 10:0.93098738 11:-0.57983193 12:-0.57100416 13:-0.47647059 14:-0.51445513 15:-0.12265512 16:-0.50763159 17:-0.5978836 18:-0.13178163 19:0.56635669 20:0.1543514 21:0.27699531 22:-0.63950276 23:0.523126 24:-0.775 25:-0.84953941 26:-0.78991597 27:-0.7339116 28:-0.25642676 29:-1 30:-0.022346369 31:0.75489711 32:-0.27872386 33:-0.99823826 34:0.25506572 35:-0.555121 
-0 -0 -1.652142829169702 1:0.18367347 2:0 3:-0.73056995 4:-0.0096286107 5:-0.97399563 6:-0.25399064 7:-0.92514124 8:-0.066424022 9:-0.55745593 10:0.95042451 11:-0.78151261 12:-0.31194296 13:-0.54705882 14:-0.097551171 15:-0.25541126 16:-0.45763802 17:-0.7037037 18:-0.47708236 19:0.68086425 20:-0.43021346 21:-0.28638498 22:-0.9198895 23:-0.1738437 24:-0.925 25:-0.54912999 26:-0.82352941 27:-0.62814488 28:-0.72497883 29:-0.40740741 30:-0.96089385 31:0.69749808 32:0.011424876 33:-0.98412401 34:-0.065066089 35:-0.78526195 
-10 -0 -0.598673779245313 1:-0.31632653 2:-0.58064516 3:-0.62694301 4:-0.92022008 5:0.48028944 6:-0.53841513 7:-0.82344633 8:-0.51956324 9:-0.63494744 10:-0.99266614 11:-0.91596639 12:-0.95840761 13:-0.65882353 14:-0.34611906 15:-0.93650794 16:-0.49496009 17:-0.80952381 18:-0.4498594 19:-0.7652749 20:-0.58292282 21:-0.64319249 22:-0.28176796 23:-0.40829346 24:-0.9 25:-0.74769703 26:-0.18207283 27:-0.65703237 28:-0.82636749 29:-1 30:-0.94040968 31:-0.6344804 32:-0.39857728 33:-0.99949854 34:-0.036647444 35:1 
-4.276786579761933 -0 -0 1:0.44897959 2:0 3:-0.49222798 4:-0.84594223 5:0.477287 6:-0.89982821 7:-0.95338983 8:-0.40673339 9:-0.45160412 10:-0.9190998 11:-0.86554622 12:-0.92988711 13:-0.55294118 14:-0.029044253 15:-1 16:-0.45793477 17:-0.77777778 18:-0.65623348 19:-0.53418367 20:-0.58237548 21:-0.59624413 22:-0.68232044 23:-0.36124402 24:-0.925 25:-0.48464688 26:0.2745098 27:-0.62258308 28:-0.82509738 29:-0.77777778 30:-0.9310987 31:-0.68672189 32:0.22138392 33:-0.92585385 34:-0.27339012 35:-0.18155584 
-0 -0 -1.196297008876175 1:-0.21428571 2:-0.032258065 3:-0.8238342 4:1 5:0.44349388 6:-0.40897197 7:-0.9420904 8:-0.16105551 9:-0.6041905 10:-0.92421673 11:-0.81512605 12:-0.85977421 13:-0.85882353 14:-0.17768249 15:-0.93939394 16:-0.56133461 17:-0.86243386 18:-0.70950792 19:-0.50891663 20:-0.53968254 21:-0.74647887 22:-0.73618785 23:-0.33652313 24:-0.9 25:-0.61924258 26:0.24089636 27:-0.6404548 28:-0.76801016 29:-0.92592593 30:-0.94227188 31:-0.86375203 32:0.19336064 33:-0.44086716 34:-0.34498325 35:-0.91965099 
-0 -7.732233858253654 -2.710225549968201 1:-0.10204082 2:-0.25806452 3:-0.85492228 4:-0.6258597 5:0.47876938 6:-0.43649548 7:-0.91242938 8:-0.21565059 9:-0.52103419 10:-0.95356417 11:-0.91596639 12:-0.94177065 13:-0.72941176 14:-0.11838799 15:-0.95093795 16:-0.51580228 17:-0.97883598 18:-0.73349625 19:-0.33023041 20:-0.59496442 21:-0.44600939 22:-0.9281768 23:-0.40430622 24:-0.95 25:-0.56806551 26:-0.044817927 27:-0.55007934 28:-0.8980525 29:-0.48148148 30:-0.95530726 31:-1 32:0.49385643 33:-0.70942286 34:-0.37923496 35:-1 
-8.497206886374618 -0 -0 1:0.15306122 2:-0.5483871 3:-0.74093264 4:-0.75790922 5:0.97353082 6:-0.49328526 7:-0.64830508 8:-0.015468608 9:-0.72885233 10:-0.61748863 11:-0.83193277 12:-0.92513369 13:-0.65882353 14:-0.48815785 15:-0.71428571 16:-0.22473366 17:-0.74603175 18:-0.059685783 19:-0.30416424 20:0.12588944 21:0.26760563 22:-0.049723757 23:0.31259968 24:-0.8 25:-0.83520983 26:0.016806723 27:-0.54367017 28:-0.25752752 29:-1 30:-0.73556797 31:-0.59856545 32:0.17740892 33:-0.99964678 34:0.31343433 35:0.56972828 
-0 -0 -3.069543885400669 1:-0.97959184 2:-1 3:-0.89637306 4:-0.90646492 5:1 6:-0.47166033 7:-0.83050847 8:0.2611465 9:-0.99862011 10:-0.59633786 11:-0.89915966 12:-0.9845514 13:-0.93529412 14:-1 15:-0.80952381 16:-0.68083844 17:-0.87301587 18:-0.17597973 19:-0.41209249 20:0.26272578 21:-0.14084507 22:0.12016575 23:0.76395534 24:-0.9 25:-1 26:0.06442577 27:-0.90067327 28:-0.27051651 29:-1 30:-0.95344507 31:-0.68568013 32:-0.7624488 33:-0.99995892 34:0.2181085 35:0.44448119 
-5.276296015494596 -0 -0 1:0.16326531 2:-0.96774194 3:-0.18134715 4:-0.39477304 5:-0.52488631 6:0.8217978 7:-0.7740113 8:-0.43949045 9:-0.52557329 10:-0.43490896 11:-0.79831933 12:-0.73856209 13:-0.4 14:-0.38672071 15:-0.6017316 16:-0.32181259 17:-0.62962963 18:0.51966387 19:0.13493798 20:-0.47454844 21:-0.38497653 22:-0.57596685 23:-0.38755981 24:-0.75 25:-0.77430911 26:-0.75070028 27:-0.43163295 28:-0.33751058 29:-1 30:-0.6443203 31:-0.27575783 32:0.094201336 33:-0.98976467 34:0.71933612 35:-0.43385668 
-4.456321947349996 -0 -0 1:0.23469388 2:-0.4516129 3:-0.58549223 4:-0.91746905 5:-0.75720459 6:0.91990636 7:-0.51694915 8:-0.53958144 9:-0.54790566 10:0.36173808 11:-0.78151261 12:-0.7409388 13:-0.72941176 14:-0.20967472 15:0.03030303 16:-0.49601852 17:-0.83068783 18:-0.28527016 19:0.59596224 20:-0.55883963 21:-0.62910798 22:-0.89226519 23:-0.36283892 24:-0.825 25:-0.64585466 26:-0.82352941 27:-0.61246091 28:-0.7438442 29:-0.85185185 30:-0.80074488 31:0.35308684 32:-0.031687864 33:-0.47459029 34:0.1223065 35:-0.57602891 
-0 -1.252756745465238 -0 1:0.7755102 2:-0.4516129 3:-0.55440415 4:-0.77991747 5:-0.75314691 6:0.7727898 7:-0.83474576 8:-0.66878981 9:-0.40777457 10:0.3643984 11:-0.66386555 12:-0.49851456 13:-0.68235294 14:-0.067434927 15:0.033189033 16:-0.50232954 17:-0.74603175 18:-0.24583799 19:0.53777435 20:-0.56376574 21:-0.57746479 22:-0.88674033 23:-0.44657097 24:-0.675 25:-0.52149437 26:-0.75910364 27:-0.38505862 28:-0.62569009 29:-0.48148148 30:-0.91061453 31:0.0081632653 32:0.15154128 33:-0.97990787 34:0.15764583 35:-0.52144272 
-10 -0 -0 1:-0.84693878 2:-1 3:-0.20207254 4:-0.22420908 5:-0.18367629 6:-0.81728769 7:-0.8559322 8:-0.46132848 9:-0.84999183 10:-0.20165132 11:-0.41176471 12:-0.68508616 13:-0.34705882 14:-0.71525242 15:-0.46608947 16:-0.63183405 17:-0.34391534 18:0.79240233 19:-0.14410366 20:0.27805145 21:-0.37558685 22:0.39917127 23:0.40590112 24:-0.25 25:-0.93807574 26:-0.65266106 27:-0.53206896 28:0.21563082 29:-1 30:-0.85288641 31:-0.2832209 32:0.03556801 33:-0.99870561 34:0.88332772 35:-0.072173696 
-4.206084808126737 -0 -0 1:0.29591837 2:-1 3:-0.39896373 4:-0.35075653 5:-0.54443356 6:0.79228576 7:-0.73870056 8:-0.50136488 9:-0.55643917 10:-0.41875528 11:-0.37815126 12:-0.78609626 13:-0.57058824 14:-0.40115909 15:-0.68831169 16:-0.31824162 17:-0.52380952 18:0.5589761 19:0.099379461 20:-0.44334975 21:-0.061032864 22:-0.51381215 23:-0.36602871 24:-0.725 25:-0.78352098 26:-0.78151261 27:-0.35741908 28:-0.34441998 29:-1 30:-0.59031657 31:-0.17204338 32:0.3533089 33:-0.98971039 34:0.74382096 35:-0.37272892 
