svm_type c_svc
kernel_type rbf
gamma 0.333333
nr_class 5
total_sv 61
rho 0.0831843 -1.01571 0.418867 -0.987426 -1.05767 0.26027 -0.541884 1.10114 0.0857704 -1.03948
label 3 0 24 6 8
probA -2.15062 -28.1381 -1.97242 0.894599 -11.1195 -2.49712 -5.82293 -7.40082 2.40656 8.37002
probB 0.243966 25.364 -0.27748 -3.98488 8.71667 -0.0385186 3.21014 -5.57348 -0.133229 -10.3115
nr_sv 25 20 2 12 2
SV
0 0 1 0 1:0.919008 2:-0.446857 3:0.430516 
0 0 0.6912923659346711 0 1:0.919349 2:-0.784254 3:0.746149 
0 0.8155788052228452 1 0.6291210516314709 1:0.43284 2:-0.926638 3:0.427724 
0 0.7609360972133821 0 0 1:0.431685 2:-0.995573 3:0.682011 
0 0.2045335763273288 0 0 1:0.815428 2:-0.992792 3:0.78664 
1 0.2045704995847764 1 0 1:0.826311 2:-0.907937 3:0.407915 
0.9468778644786469 0 1 0.370878948368529 1:0.628915 2:0.651887 3:-1 
1 0 0 0 1:-0.019907 2:-0.725019 3:0.918682 
1 0 1 0 1:-0.019065 2:-0.277457 3:0.949691 
1 0 0 0 1:0.134501 2:-0.973846 3:0.917986 
1 0 1 0 1:-0.219295 2:-0.112653 3:0.959214 
1 0 1 0 1:-0.099506 2:-0.338361 3:0.99736 
1 0 0 0 1:0.07507 2:-1 3:0.926039 
0 0 0.3117332330496023 0 1:0.272859 2:-0.638621 3:0.921468 
1 0 0 0 1:-0.126606 2:-0.976863 3:0.920682 
0.3929274747428548 0 1 0 1:1 2:0.183109 3:0.99213 
1 0.01438102165166743 1 1 1:0.540075 2:-1 3:-1 
1 0 0 0 1:-0.186186 2:-0.989373 3:0.971921 
1 0 0.05752081714537732 0 1:-0.270219 2:-0.898185 3:0.997587 
1 0 0 0 1:-0.267734 2:-1 3:0.958948 
1 0 0 0 1:-0.107847 2:-0.765011 3:0.984064 
0.6601946607784983 0 0 0 1:0.139712 2:-1 3:0.925345 
1 0 0 0 1:-0.11232 2:-0.951577 3:0.966505 
1 0 0 0 1:0.152016 2:-0.748451 3:0.792427 
1 0 0 0 1:0.100028 2:-0.962167 3:0.965555 
-1 0 1 0 1:0.6041 2:-1 3:0.956237 
-1 0 0 0 1:-0.737929 2:-0.746537 3:0.843318 
-1 1 0 0 1:0.497674 2:-0.99808 3:0.860247 
-1 0 1 0.1637382408320388 1:0.939689 2:-0.656318 3:0.619922 
-1 0.05616591285729691 0 0 1:-0.244037 2:-0.851187 3:0.68345 
-1 0.1486405117216701 1 0.1740533533278972 1:0.921945 2:-0.995268 3:0.656704 
-1 0.795193575421033 1 1 1:0.561513 2:-0.805363 3:0.167983 
-1 0 1 0 1:0.579856 2:-0.648189 3:0.614774 
-0 0 0.1805353389815016 0.4958831245448392 1:-0.996729 2:-0.579043 3:0.495702 
-1 0 1 0.1663252812952248 1:-0.609093 2:0.762613 3:0.902719 
-1 0 0 0 1:-0.720207 2:-0.988035 3:0.906784 
-1 0 0 0 1:-0.552723 2:-0.984071 3:0.843837 
-1 0 0.1426827000999624 0 1:-0.459237 2:-0.629716 3:0.841617 
-0 0 0.9482070570820983 0 1:-0.76458 2:-0.425045 3:0.975531 
-1 0 0 0 1:-0.729573 2:-0.899805 3:0.993328 
-1 0 0 0 1:-0.55575 2:-0.988846 3:0.992864 
-1 0 0 0 1:-0.64189 2:-0.589942 3:0.97065 
-1 0 1 0 1:-0.670528 2:0.25296 3:0.958908 
-1 0 0 0 1:-0.685436 2:-0.98198 3:0.975766 
-1 0 0 0 1:-0.556097 2:-0.932824 3:0.92676 
-1 -1 1 1 1:0.48336 2:-1 3:0.370217 
-1 -1 1 1 1:0.546294 2:-0.995099 3:0.719578 
-1 -0.80362823290253 -0 0 1:0.440509 2:0.525494 3:0.996073 
-1 -1 -0.2447675639407589 0.1473737081251556 1:0.932459 2:-0.258109 3:0.691959 
-1 -1 -0 0 1:0.302064 2:0.311119 3:0.914329 
-0.7549974077718808 -1 -0 0 1:-0.144946 2:0.84828 3:0.916439 
-1 -1 -0.3700651111189168 0.1666317099348581 1:0.103204 2:-0.601551 3:0.987395 
-1 -1 -1 0 1:0.524814 2:-0.867069 3:1 
-1 -1 -0 0.8582986090961886 1:0.853657 2:-1 3:-1 
-0.3642068203814258 -0 -0.2154995639288932 0 1:0.316872 2:-1 3:-1 
-1 -1 -0 0.8276959728437977 1:0.140999 2:-1 3:-1 
-1 -0.112026707627796 -0.169667761011431 0 1:0.74319 2:-1 3:-1 
-0.9413421879763441 -0 -0 0 1:0.71945 2:0.747299 3:0.987644 
-0 -0.3557701556332364 -0 0 1:-0.011205 2:1 3:0.966036 
-1 -1 -1 -1 1:0.052688 2:-0.9487 3:-0.426677 
-1 -1 -1 -1 1:0.929133 2:-0.641604 3:-1 
