svm_type c_svc
kernel_type rbf
gamma 0.333333
nr_class 4
total_sv 44
rho -0.107666 -0.823062 -0.869071 -0.120292 -0.432446 -0.736723
label 2 0 6 24
probA -2.16501 -3.87841 -2.04252 -1.42165 -2.38346 -3.7048
probB 0.242387 1.84178 -0.286239 -0.474178 -0.275153 2.35112
nr_sv 20 12 9 3
SV
0 1 0 1:-0.092568 2:-0.14538 3:0.41675 
0 1 0 1:-0.306489 2:-0.441557 3:0.847465 
0 0.7592115464118664 0 1:-0.638403 2:-0.864076 3:0.865978 
0 1 0.4025990052221792 1:0.615855 2:0.103416 3:0.437527 
0 0.1458731900603053 0 1:-0.096018 2:-0.073835 3:0.883318 
0 1 0 1:0.060665 2:-0.045565 3:0.783417 
0 1 1 1:0.233112 2:0.384923 3:0.616106 
0.5675994352930578 0 0 1:-1 2:-1 3:0.368891 
1 0 0 1:-0.373078 2:-0.378561 3:-0.126606 
0 1 1 1:0.916896 2:0.988692 3:0.540075 
1 0 0 1:-0.399882 2:-0.401754 3:-0.186186 
1 0.05674575902358454 0 1:0.897721 2:0.935481 3:-0.270219 
1 1 0.5974009947778208 1:0.948899 2:0.961018 3:-0.267734 
1 0.5960885187533759 0 1:-0.467154 2:-0.63604 3:0.201891 
1 0 0 1:-0.397244 2:-0.388358 3:-0.107847 
0.4987183851546704 0 0 1:-0.521938 2:-0.513444 3:0.216913 
1 0 0 1:-0.452341 2:-0.443448 3:0.139712 
1 0.4420809857508677 0 1:-0.916348 2:-0.93347 3:-0.11232 
1 0 0 1:-0.123166 2:-0.119218 3:0.152016 
1 0 0 1:-0.704056 2:-0.703277 3:0.100028 
-1 1 0.8368548872856233 1:-0.174695 2:-0.187045 3:0.574226 
-1 1 1 1:0.102692 2:-0.193516 3:0.286284 
-1 1 0 1:-0.452306 2:-0.717958 3:-0.304823 
-1 1 0 1:-0.788566 2:-0.951376 3:0.766416 
-1 1 0 1:-0.347972 2:-0.372827 3:-0.55575 
-1 1 1 1:1 2:1 3:-0.86159 
-0.2727344812438425 0 0 1:-0.46253 2:-0.500158 3:-0.81611 
-1 0 0 1:-0.387787 2:-0.423093 3:-0.64189 
-1 0 0 1:-0.546679 2:-0.60567 3:-0.670528 
-0.7935833392038857 0 0 1:-0.194383 2:-0.213745 3:-0.916626 
-1 0.1005304156584264 0 1:-0.914467 2:-0.996678 3:-0.685436 
-1 0.103284122109528 0 1:-0.653504 2:-0.697552 3:-0.556097 
-1 -1 0 1:-0.261415 2:-0.524441 3:0.689164 
-1 -1 0 1:-0.029147 2:-0.630877 3:0.837496 
-1 -0.2038145377679544 0 1:0.840322 2:-0.008557 3:0.516278 
-1 -0 1 1:0.891033 2:0.408287 3:0.853657 
-1 -1 1 1:0.877578 2:0.439637 3:0.316872 
-1 -1 0 1:0.908275 2:0.257256 3:0.140999 
-1 -0 0.9162366162418419 1:0.937979 2:0.307042 3:0.74319 
-1 -1 0.08376338375815806 1:-0.657841 2:-0.635298 3:0.71945 
-1 -1 0 1:-0.580955 2:-0.588096 3:-0.011205 
-1 -1 -1 1:0.856539 2:1 3:0.430115 
-1 -0.8368548872856233 -1 1:1 2:0.984703 3:0.695383 
-1 -1 -1 1:0.603641 2:0.531251 3:1 
