svm_type c_svc
kernel_type rbf
gamma 0.25
nr_class 4
total_sv 56
rho -1.0051 0.127832 -0.931091 0.26907 -0.835745 -0.540156
label 4 6 0 24
probA -0.0299641 -3.4276 -2.22087 -2.95314 -13.3147 -0.621423
probB -1.15575 0.386237 -0.715346 -0.0610895 11.406 -1.55398
nr_sv 27 14 13 2
SV
0 0.1770487869237603 0 1:0.40079 2:-0.689287 3:-0.742323 4:0.937306 
1 0 0 1:0.576494 2:-0.709346 3:-0.561637 4:-1 
0.6008554033913731 0 0 1:0.597508 2:-0.917525 3:-0.324254 4:-0.905328 
0 0.4566795121192471 0 1:0.239415 2:-0.90069 3:-0.873663 4:0.446131 
0.09434536012372009 0 0 1:0.462014 2:-0.427446 3:-0.211983 4:-0.088759 
1 0 0.6230198512854523 1:0.822937 2:-0.030053 3:0.473553 4:-0.827463 
1 0 0 1:0.697112 2:-0.19333 3:0.827685 4:-0.881393 
1 0 0 1:0.474776 2:-0.366876 3:-0.372641 4:-0.556651 
0.7687376198529365 0 0 1:0.242559 2:-1 3:-1 4:-0.322741 
1 0 0 1:0.593054 2:-0.621004 3:0.325851 4:-0.828375 
0 1 0 1:-0.041484 2:-0.47831 3:-0.48649 4:-0.541063 
0 0.07051312271338049 0 1:-0.04066 2:-0.37573 3:-0.343711 4:-0.422872 
0 1 0 1:0.216379 2:-0.422594 3:-0.446644 4:1 
1 0 0 1:0.109525 2:-0.260222 3:-0.265583 4:-0.815746 
1 0 0 1:0.955969 2:-0.281186 3:-0.302764 4:-0.958003 
0 1 0 1:-0.236482 2:-0.477624 3:-0.483056 4:-0.383005 
0.4211057761456301 1 0 1:-0.119331 2:-0.429901 3:-0.420046 4:-0.938391 
1 0 0 1:0.280015 2:-0.400292 3:-0.426068 4:-0.807842 
0 1 0 1:-0.115519 2:-0.346944 3:-0.34676 4:-0.255669 
0.1149558404863402 0 0 1:1 2:-0.419351 3:-0.450026 4:-0.566456 
1 0 1 1:0.544601 2:0.988951 3:0.918489 4:-0.452657 
0 1 0 1:-0.174512 2:-0.369605 3:-0.373051 4:-0.084788 
1 1 0.3769801487145475 1:-0.257718 2:0.936961 3:0.899681 4:-0.736588 
1 1 0 1:-0.255258 2:0.961912 3:0.949879 4:-0.257339 
0 1 0 1:-0.096945 2:-0.356516 3:-0.370463 4:-0.274505 
0 1 0 1:0.148178 2:-0.410343 3:-0.424504 4:0.547092 
1 1 0 1:-0.101373 2:-0.889127 3:-0.879617 4:-1 
-1 0 0 1:0.769822 2:-0.75137 3:-0.645419 4:-0.879422 
-1 0 0 1:0.811244 2:-0.696058 3:-0.618257 4:-0.826048 
-1 0 0 1:0.641737 2:-0.928011 3:-0.219054 4:-0.910868 
-1 1 0 1:0.137264 2:-0.534857 3:-0.531742 4:-0.712003 
-1 1 0 1:0.273399 2:-0.560025 3:-0.544708 4:-0.742474 
-1 1 0 1:-0.16377 2:-0.675157 3:-0.667576 4:-0.897249 
-1 1 0 1:0.078916 2:0.32938 3:0.940372 4:-0.75607 
-1 0 1 1:0.491245 2:0.543592 3:0.874954 4:-0.680576 
-1 0 1 1:0.855097 2:0.421858 3:0.893121 4:-0.69848 
-1 0.3504534481011434 0 1:0.323595 2:0.452489 3:0.879925 4:-0.707489 
-1 1 0 1:0.149453 2:0.274291 3:0.910033 4:-0.709502 
-1 0 0 1:0.745717 2:0.322935 3:0.939168 4:-0.698379 
-1 0 0 1:0.722211 2:-0.597793 3:-0.626065 4:-0.815568 
-1 1 0 1:-0.001254 2:-0.551673 3:-0.550653 4:-0.755489 
-1 -1 0 1:-0.617699 2:-0.542005 3:-0.506553 4:-0.85269 
-0.07548658151949904 -0 0 1:-0.726367 2:-0.986837 3:-0.935401 4:0.350094 
-1 -0.1683846633192473 0.2674217737162877 1:-0.56257 2:-0.947878 3:-0.85858 4:0.982165 
-1 -0.5977472389189554 0 1:-0.471142 2:-0.037977 3:6.4e-05 4:0.514433 
-1 -0 0 1:-0.769763 2:-0.515173 3:-0.469757 4:-0.31541 
-1 -1 1 1:-0.735526 2:0.421157 3:0.923281 4:-0.836166 
-1 -0 0 1:-0.540439 2:-0.341342 3:-0.322136 4:0.752666 
-1 -0.5843215458629407 0.4875576987939848 1:-0.84327 2:1 3:1 4:0.781063 
-1 -0 0 1:-0.798237 2:-0.465753 3:-0.434498 4:-0.433582 
-1 -1 0 1:-0.625732 2:-0.390455 3:-0.361187 4:-0.365117 
-1 -1 0 1:-0.654088 2:-0.568845 3:-0.517034 4:-0.742729 
-0.6287548402368891 -0 0 1:-0.668849 2:-0.950885 3:-0.877772 4:0.842257 
-1 -1 0.2450205274897276 1:-0.540783 2:-0.65862 3:-0.621811 4:-0.785247 
-1 -1 -1 1:0.603897 2:0.954631 3:0.746614 4:-0.790514 
-1 -1 -1 1:1 2:1 3:1 4:-0.600637 
