svm_type c_svc
kernel_type rbf
gamma 0.333333
nr_class 3
total_sv 14
rho -0.653717 0.0547579 0.298159
label 5 6 0
probA -0.159522 -1.99939 -1.76571
probB -0.547375 0.306619 0.445912
nr_sv 6 4 4
SV
0.4838600731093929 1 1:0.454425 2:-0.630769 3:-0.242009 
0 1 1:0.499251 2:-0.876923 3:1 
1 0 1:0.917246 2:-0.723077 3:-0.835616 
1 0.7852917507062371 1:0.978046 2:-0.661538 3:-0.73516 
1 0 1:1 2:-1 3:-0.616438 
0.5161399268906071 0 1:0.882046 2:-0.692308 3:-0.47032 
-1 0 1:0.689752 2:-1 3:-1 
-1 1 1:0.540143 2:-0.876923 3:-1 
-1 0 1:0.793895 2:-1 3:-0.990868 
-1 0.9256199953619658 1:0.796463 2:-1 3:-0.990868 
-1 -1 1:0.794686 2:0.107692 3:-0.159817 
-0.5338742529911015 -0.3506830110636306 1:-0.970611 2:1 3:0.39726 
-1 -0.5749369842983354 1:-0.936733 2:-0.569231 3:0.96347 
-0.2514174977151357 -0 1:-1 2:-0.2 3:0.853881 
