svm_type c_svc
kernel_type rbf
gamma 0.5
nr_class 2
total_sv 16
rho 0.0617904
label 18 0
probA -1.813
probB -0.0055545
nr_sv 7 9
SV
1 1:-0.077141 2:0.261204 
1 1:-0.054355 2:-0.200877 
1 1:0.190153 2:-0.062296 
1 1:0.211884 2:0.381033 
1 1:0.46679 2:0.209312 
0.4892368651074211 1:0.476782 2:0.597409 
1 1:0.542108 2:0.176864 
-1 1:-0.200877 2:-0.22136 
-1 1:-0.115201 2:0.162982 
-0.04908475567185629 1:-0.641657 2:0.215985 
-0.4076092998078024 1:-0.408173 2:-0.482537 
-1 1:-0.453564 2:0.494058 
-1 1:-0.115932 2:-0.224045 
-1 1:0.172458 2:0.368576 
-1 1:0.148223 2:-0.109592 
-0.03254280962776233 1:-1 2:-1 
