svm_type c_svc
kernel_type rbf
gamma 0.25
nr_class 2
total_sv 19
rho -1.19576
label 0 18
probA -2.48043
probB -0.398217
nr_sv 9 10
SV
1 1:-1 2:-0.691228 3:1 4:-0.842105 
1 1:-0.539235 2:-0.101754 3:0 4:1 
0.8476020310385927 1:0.747489 2:-1 3:-1 4:-1 
0.2083418266203461 1:0.764843 2:-0.431579 3:0.611111 4:-0.554017 
1 1:0.258592 2:-0.649123 3:-1 4:0.174515 
1 1:-0.673853 2:1 3:-0.111111 4:-0.030471 
1 1:-0.5551 2:0.97193 3:-0.722222 4:-0.509695 
1 1:0.448342 2:-1 3:-1 4:-1 
0.5659433562845232 1:0.513877 2:0.97193 3:-1 4:-0.049861 
-1 1:-0.47815 2:-0.508772 3:-0.555556 4:-0.457064 
-0.8883594283756824 1:-0.604085 2:-1 3:-0.611111 4:-0.642659 
-0.4251479885780927 1:-0.562131 2:-0.045614 3:-1 4:-0.603878 
-1 1:-0.799124 2:0.326316 3:-0.222222 4:-0.542936 
-1 1:-0.517267 2:-0.452632 3:-0.611111 4:-0.33795 
-0.1953227200182705 1:-0.546886 2:0.031579 3:-0.833333 4:-0.637119 
-1 1:-0.539697 2:-1 3:-1 4:-1 
-0.1130570769714163 1:-0.498648 2:-0.810526 3:-1 4:-0.889197 
-1 1:-0.223261 2:0.985965 3:-0.444444 4:-0.34349 
-1 1:-0.274231 2:0.2 3:-0.333333 4:-0.238227 
