Language model created by QuickLM on Mon Dec 26 14:18:05 EST 2011
Copyright (c) 1996-2010 Carnegie Mellon University and Alexander I. Rudnicky

The model is in standard ARPA format, designed by Doug Paul while he was at MITRE.

The code that was used to produce this language model is available in Open Source.
Please visit http://www.speech.cs.cmu.edu/tools/ for more information

The (fixed) discount mass is 0.5. The backoffs are computed using the ratio method.
This model based on a corpus of 50 sentences and 52 words

\data\
ngram 1=52
ngram 2=104
ngram 3=95

\1-grams:
-0.9542 </s> -0.3010
-0.9542 <s> -0.2378
-2.6532 ACQUIRED -0.2499
-2.1761 BACKWARD -0.2499
-2.6532 CANCEL -0.2499
-2.6532 CARE -0.2499
-2.6532 CHANGE -0.2499
-2.6532 DISAPPEARED -0.2499
-2.6532 DON'T -0.3001
-2.3522 DOWN -0.2499
-1.3745 EFFECT -0.2782
-2.6532 EIGHT -0.2499
-2.6532 FIVE -0.2499
-2.1761 FORWARD -0.2499
-2.6532 FOUR -0.2499
-2.6532 GIVE -0.2499
-2.6532 GIVEN -0.2499
-2.6532 GRASP -0.2499
-2.6532 GRASPED -0.2499
-2.1761 HELLO -0.2942
-2.6532 HOME -0.2499
-2.3522 ICUB -0.2455
-1.2915 IS -0.2752
-2.1761 KADIR -0.2499
-2.6532 KNOCKED -0.2991
-2.1761 LEFT -0.2499
-2.6532 LIFT -0.2499
-2.6532 LIFTED -0.2499
-2.0512 MY -0.2972
-2.0512 NAME -0.2782
-2.6532 NINE -0.2499
-2.6532 NO -0.3001
-1.6990 OBJECT -0.2923
-2.6532 ONE -0.2499
-2.6532 POINT -0.2499
-2.3522 PR2 -0.2455
-2.6532 PUSH -0.2499
-2.0512 PUSHED -0.2893
-2.6532 REACHED -0.2499
-2.6532 RELEASE -0.2499
-2.6532 RELEASED -0.2499
-2.1761 RIGHT -0.2499
-2.6532 ROLL -0.2499
-2.0512 ROLLED -0.2893
-2.6532 SEVEN -0.2499
-2.6532 SHOW -0.2499
-2.6532 SIX -0.2499
-2.6532 STOP -0.2499
-2.6532 TAKE -0.2499
-2.6532 TAKEN -0.2499
-2.6532 THREE -0.2499
-2.6532 TWO -0.2499

\2-grams:
-2.0000 <s> BACKWARD 0.0000
-2.0000 <s> CANCEL 0.0000
-2.0000 <s> DOWN 0.0000
-0.7212 <s> EFFECT 0.0000
-2.0000 <s> FORWARD 0.0000
-2.0000 <s> GIVE 0.0000
-2.0000 <s> GRASP 0.0000
-1.5229 <s> HELLO 0.0000
-2.0000 <s> HOME 0.0000
-2.0000 <s> LEFT 0.0000
-2.0000 <s> LIFT 0.0000
-1.6990 <s> MY 0.0000
-1.0458 <s> OBJECT 0.0000
-2.0000 <s> POINT 0.0000
-2.0000 <s> PUSH 0.0000
-2.0000 <s> RELEASE 0.0000
-2.0000 <s> RIGHT 0.0000
-2.0000 <s> ROLL 0.0000
-2.0000 <s> SHOW 0.0000
-2.0000 <s> STOP 0.0000
-2.0000 <s> TAKE 0.0000
-0.3010 ACQUIRED </s> -0.3010
-0.3010 BACKWARD </s> -0.3010
-0.3010 CANCEL </s> -0.3010
-0.3010 CARE </s> -0.3010
-0.3010 CHANGE </s> -0.3010
-0.3010 DISAPPEARED </s> -0.3010
-0.3010 DON'T CARE 0.0000
-0.3010 DOWN </s> -0.3010
-0.3010 EFFECT IS -0.0696
-0.3010 EIGHT </s> -0.3010
-0.3010 FIVE </s> -0.3010
-0.3010 FORWARD </s> -0.3010
-0.3010 FOUR </s> -0.3010
-0.3010 GIVE </s> -0.3010
-0.3010 GIVEN </s> -0.3010
-0.3010 GRASP </s> -0.3010
-0.3010 GRASPED </s> -0.3010
-0.7782 HELLO ICUB -0.1761
-0.7782 HELLO KADIR 0.0000
-0.7782 HELLO PR2 -0.1761
-0.3010 HOME </s> -0.3010
-0.6021 ICUB </s> -0.3010
-0.6021 ICUB MY 0.0000
-1.6628 IS ACQUIRED 0.0000
-1.6628 IS DISAPPEARED 0.0000
-1.6628 IS DON'T 0.0000
-1.6628 IS GIVEN 0.0000
-1.6628 IS GRASPED 0.0000
-1.6628 IS ICUB -0.1761
-1.3617 IS KADIR 0.0000
-1.6628 IS KNOCKED 0.0000
-1.6628 IS LIFTED 0.0000
-1.6628 IS NO 0.0000
-1.6628 IS PR2 -0.1761
-1.0607 IS PUSHED 0.0000
-1.6628 IS REACHED 0.0000
-1.6628 IS RELEASED 0.0000
-1.0607 IS ROLLED 0.0000
-1.6628 IS TAKEN 0.0000
-0.3010 KADIR </s> -0.3010
-0.3010 KNOCKED DOWN 0.0000
-0.3010 LEFT </s> -0.3010
-0.3010 LIFT </s> -0.3010
-0.3010 LIFTED </s> -0.3010
-0.3010 MY NAME 0.0000
-0.3010 NAME IS -0.2615
-0.3010 NINE </s> -0.3010
-0.3010 NO CHANGE 0.0000
-1.2553 OBJECT EIGHT 0.0000
-1.2553 OBJECT FIVE 0.0000
-1.2553 OBJECT FOUR 0.0000
-1.2553 OBJECT NINE 0.0000
-1.2553 OBJECT ONE 0.0000
-1.2553 OBJECT SEVEN 0.0000
-1.2553 OBJECT SIX 0.0000
-1.2553 OBJECT THREE 0.0000
-1.2553 OBJECT TWO 0.0000
-0.3010 ONE </s> -0.3010
-0.3010 POINT </s> -0.3010
-0.6021 PR2 </s> -0.3010
-0.6021 PR2 MY 0.0000
-0.3010 PUSH </s> -0.3010
-0.9031 PUSHED BACKWARD 0.0000
-0.9031 PUSHED FORWARD 0.0000
-0.9031 PUSHED LEFT 0.0000
-0.9031 PUSHED RIGHT 0.0000
-0.3010 REACHED </s> -0.3010
-0.3010 RELEASE </s> -0.3010
-0.3010 RELEASED </s> -0.3010
-0.3010 RIGHT </s> -0.3010
-0.3010 ROLL </s> -0.3010
-0.9031 ROLLED BACKWARD 0.0000
-0.9031 ROLLED FORWARD 0.0000
-0.9031 ROLLED LEFT 0.0000
-0.9031 ROLLED RIGHT 0.0000
-0.3010 SEVEN </s> -0.3010
-0.3010 SHOW </s> -0.3010
-0.3010 SIX </s> -0.3010
-0.3010 STOP </s> -0.3010
-0.3010 TAKE </s> -0.3010
-0.3010 TAKEN </s> -0.3010
-0.3010 THREE </s> -0.3010
-0.3010 TWO </s> -0.3010

\3-grams:
-0.3010 <s> BACKWARD </s>
-0.3010 <s> CANCEL </s>
-0.3010 <s> DOWN </s>
-0.3010 <s> EFFECT IS
-0.3010 <s> FORWARD </s>
-0.3010 <s> GIVE </s>
-0.3010 <s> GRASP </s>
-0.7782 <s> HELLO ICUB
-0.7782 <s> HELLO KADIR
-0.7782 <s> HELLO PR2
-0.3010 <s> HOME </s>
-0.3010 <s> LEFT </s>
-0.3010 <s> LIFT </s>
-0.3010 <s> MY NAME
-1.2553 <s> OBJECT EIGHT
-1.2553 <s> OBJECT FIVE
-1.2553 <s> OBJECT FOUR
-1.2553 <s> OBJECT NINE
-1.2553 <s> OBJECT ONE
-1.2553 <s> OBJECT SEVEN
-1.2553 <s> OBJECT SIX
-1.2553 <s> OBJECT THREE
-1.2553 <s> OBJECT TWO
-0.3010 <s> POINT </s>
-0.3010 <s> PUSH </s>
-0.3010 <s> RELEASE </s>
-0.3010 <s> RIGHT </s>
-0.3010 <s> ROLL </s>
-0.3010 <s> SHOW </s>
-0.3010 <s> STOP </s>
-0.3010 <s> TAKE </s>
-0.3010 DON'T CARE </s>
-1.5798 EFFECT IS ACQUIRED
-1.5798 EFFECT IS DISAPPEARED
-1.5798 EFFECT IS DON'T
-1.5798 EFFECT IS GIVEN
-1.5798 EFFECT IS GRASPED
-1.5798 EFFECT IS KNOCKED
-1.5798 EFFECT IS LIFTED
-1.5798 EFFECT IS NO
-0.9777 EFFECT IS PUSHED
-1.5798 EFFECT IS REACHED
-1.5798 EFFECT IS RELEASED
-0.9777 EFFECT IS ROLLED
-1.5798 EFFECT IS TAKEN
-0.3010 HELLO ICUB MY
-0.3010 HELLO KADIR </s>
-0.3010 HELLO PR2 MY
-0.3010 ICUB MY NAME
-0.3010 IS ACQUIRED </s>
-0.3010 IS DISAPPEARED </s>
-0.3010 IS DON'T CARE
-0.3010 IS GIVEN </s>
-0.3010 IS GRASPED </s>
-0.3010 IS ICUB </s>
-0.3010 IS KADIR </s>
-0.3010 IS KNOCKED DOWN
-0.3010 IS LIFTED </s>
-0.3010 IS NO CHANGE
-0.3010 IS PR2 </s>
-0.9031 IS PUSHED BACKWARD
-0.9031 IS PUSHED FORWARD
-0.9031 IS PUSHED LEFT
-0.9031 IS PUSHED RIGHT
-0.3010 IS REACHED </s>
-0.3010 IS RELEASED </s>
-0.9031 IS ROLLED BACKWARD
-0.9031 IS ROLLED FORWARD
-0.9031 IS ROLLED LEFT
-0.9031 IS ROLLED RIGHT
-0.3010 IS TAKEN </s>
-0.3010 KNOCKED DOWN </s>
-0.3010 MY NAME IS
-0.9031 NAME IS ICUB
-0.6021 NAME IS KADIR
-0.9031 NAME IS PR2
-0.3010 NO CHANGE </s>
-0.3010 OBJECT EIGHT </s>
-0.3010 OBJECT FIVE </s>
-0.3010 OBJECT FOUR </s>
-0.3010 OBJECT NINE </s>
-0.3010 OBJECT ONE </s>
-0.3010 OBJECT SEVEN </s>
-0.3010 OBJECT SIX </s>
-0.3010 OBJECT THREE </s>
-0.3010 OBJECT TWO </s>
-0.3010 PR2 MY NAME
-0.3010 PUSHED BACKWARD </s>
-0.3010 PUSHED FORWARD </s>
-0.3010 PUSHED LEFT </s>
-0.3010 PUSHED RIGHT </s>
-0.3010 ROLLED BACKWARD </s>
-0.3010 ROLLED FORWARD </s>
-0.3010 ROLLED LEFT </s>
-0.3010 ROLLED RIGHT </s>

\end\
