Language model created by QuickLM on Tue Jan 31 14:17:54 EST 2012
Copyright (c) 1996-2010 Carnegie Mellon University and Alexander I. Rudnicky

The model is in standard ARPA format, designed by Doug Paul while he was at MITRE.

The code that was used to produce this language model is available in Open Source.
Please visit http://www.speech.cs.cmu.edu/tools/ for more information

The (fixed) discount mass is 0.5. The backoffs are computed using the ratio method.
This model based on a corpus of 45 sentences and 47 words

\data\
ngram 1=47
ngram 2=94
ngram 3=89

\1-grams:
-0.9617 </s> -0.3010
-0.9617 <s> -0.2484
-2.1378 BACKWARD -0.2508
-2.6149 CANCEL -0.2508
-2.6149 CHANGE -0.2508
-2.6149 DISAPPEARED -0.2508
-2.6149 DOWN -0.2508
-2.6149 DROP -0.2508
-1.4108 EFFECT -0.2794
-2.6149 EIGHT -0.2508
-2.6149 FIVE -0.2508
-2.1378 FORWARD -0.2508
-2.6149 FOUR -0.2508
-2.6149 GIVE -0.2508
-2.6149 GIVEN -0.2508
-2.6149 GRASP -0.2508
-2.6149 GRASPED -0.2508
-2.1378 HELLO -0.2936
-2.6149 HOME -0.2508
-2.3139 ICUB -0.2460
-1.3139 IS -0.2761
-2.1378 KADIR -0.2508
-2.1378 LEFT -0.2508
-2.6149 LIFT -0.2508
-2.6149 LIFTED -0.2508
-2.0128 MOVED -0.2882
-2.0128 MY -0.2968
-2.0128 NAME -0.2794
-2.6149 NINE -0.2508
-2.6149 NO -0.3000
-1.6607 OBJECT -0.2914
-2.6149 ONE -0.2508
-2.6149 POINT -0.2508
-2.3139 PR2 -0.2460
-2.0128 PUSH -0.2882
-2.6149 REACHED -0.2508
-2.1378 RIGHT -0.2508
-2.0128 ROLLED -0.2882
-2.6149 SEVEN -0.2508
-2.6149 SHOW -0.2508
-2.6149 SIX -0.2508
-2.6149 STOP -0.2508
-2.6149 TAKE -0.2508
-2.6149 TAKEN -0.2508
-2.6149 THREE -0.2508
-2.6149 TOPPLED -0.2508
-2.6149 TWO -0.2508

\2-grams:
-1.9542 <s> CANCEL 0.0000
-1.9542 <s> DOWN 0.0000
-1.9542 <s> DROP 0.0000
-0.7501 <s> EFFECT 0.0000
-1.9542 <s> GIVE 0.0000
-1.9542 <s> GRASP 0.0000
-1.4771 <s> HELLO 0.0000
-1.9542 <s> HOME 0.0000
-1.9542 <s> LIFT 0.0000
-1.6532 <s> MY 0.0000
-1.0000 <s> OBJECT 0.0000
-1.9542 <s> POINT 0.0000
-1.3522 <s> PUSH 0.0000
-1.9542 <s> SHOW 0.0000
-1.9542 <s> STOP 0.0000
-1.9542 <s> TAKE 0.0000
-0.3010 BACKWARD </s> -0.3010
-0.3010 CANCEL </s> -0.3010
-0.3010 CHANGE </s> -0.3010
-0.3010 DISAPPEARED </s> -0.3010
-0.3010 DOWN </s> -0.3010
-0.3010 DROP </s> -0.3010
-0.3010 EFFECT IS -0.0792
-0.3010 EIGHT </s> -0.3010
-0.3010 FIVE </s> -0.3010
-0.3010 FORWARD </s> -0.3010
-0.3010 FOUR </s> -0.3010
-0.3010 GIVE </s> -0.3010
-0.3010 GIVEN </s> -0.3010
-0.3010 GRASP </s> -0.3010
-0.3010 GRASPED </s> -0.3010
-0.7782 HELLO ICUB -0.1761
-0.7782 HELLO KADIR 0.0000
-0.7782 HELLO PR2 -0.1761
-0.3010 HOME </s> -0.3010
-0.6021 ICUB </s> -0.3010
-0.6021 ICUB MY 0.0000
-1.6021 IS DISAPPEARED 0.0000
-1.6021 IS GIVEN 0.0000
-1.6021 IS GRASPED 0.0000
-1.6021 IS ICUB -0.1761
-1.3010 IS KADIR 0.0000
-1.6021 IS LIFTED 0.0000
-1.0000 IS MOVED 0.0000
-1.6021 IS NO 0.0000
-1.6021 IS PR2 -0.1761
-1.6021 IS REACHED 0.0000
-1.0000 IS ROLLED 0.0000
-1.6021 IS TAKEN 0.0000
-1.6021 IS TOPPLED 0.0000
-0.3010 KADIR </s> -0.3010
-0.3010 LEFT </s> -0.3010
-0.3010 LIFT </s> -0.3010
-0.3010 LIFTED </s> -0.3010
-0.9031 MOVED BACKWARD 0.0000
-0.9031 MOVED FORWARD 0.0000
-0.9031 MOVED LEFT 0.0000
-0.9031 MOVED RIGHT 0.0000
-0.3010 MY NAME 0.0000
-0.3010 NAME IS -0.2553
-0.3010 NINE </s> -0.3010
-0.3010 NO CHANGE 0.0000
-1.2553 OBJECT EIGHT 0.0000
-1.2553 OBJECT FIVE 0.0000
-1.2553 OBJECT FOUR 0.0000
-1.2553 OBJECT NINE 0.0000
-1.2553 OBJECT ONE 0.0000
-1.2553 OBJECT SEVEN 0.0000
-1.2553 OBJECT SIX 0.0000
-1.2553 OBJECT THREE 0.0000
-1.2553 OBJECT TWO 0.0000
-0.3010 ONE </s> -0.3010
-0.3010 POINT </s> -0.3010
-0.6021 PR2 </s> -0.3010
-0.6021 PR2 MY 0.0000
-0.9031 PUSH BACKWARD 0.0000
-0.9031 PUSH FORWARD 0.0000
-0.9031 PUSH LEFT 0.0000
-0.9031 PUSH RIGHT 0.0000
-0.3010 REACHED </s> -0.3010
-0.3010 RIGHT </s> -0.3010
-0.9031 ROLLED BACKWARD 0.0000
-0.9031 ROLLED FORWARD 0.0000
-0.9031 ROLLED LEFT 0.0000
-0.9031 ROLLED RIGHT 0.0000
-0.3010 SEVEN </s> -0.3010
-0.3010 SHOW </s> -0.3010
-0.3010 SIX </s> -0.3010
-0.3010 STOP </s> -0.3010
-0.3010 TAKE </s> -0.3010
-0.3010 TAKEN </s> -0.3010
-0.3010 THREE </s> -0.3010
-0.3010 TOPPLED </s> -0.3010
-0.3010 TWO </s> -0.3010

\3-grams:
-0.3010 <s> CANCEL </s>
-0.3010 <s> DOWN </s>
-0.3010 <s> DROP </s>
-0.3010 <s> EFFECT IS
-0.3010 <s> GIVE </s>
-0.3010 <s> GRASP </s>
-0.7782 <s> HELLO ICUB
-0.7782 <s> HELLO KADIR
-0.7782 <s> HELLO PR2
-0.3010 <s> HOME </s>
-0.3010 <s> LIFT </s>
-0.3010 <s> MY NAME
-1.2553 <s> OBJECT EIGHT
-1.2553 <s> OBJECT FIVE
-1.2553 <s> OBJECT FOUR
-1.2553 <s> OBJECT NINE
-1.2553 <s> OBJECT ONE
-1.2553 <s> OBJECT SEVEN
-1.2553 <s> OBJECT SIX
-1.2553 <s> OBJECT THREE
-1.2553 <s> OBJECT TWO
-0.3010 <s> POINT </s>
-0.9031 <s> PUSH BACKWARD
-0.9031 <s> PUSH FORWARD
-0.9031 <s> PUSH LEFT
-0.9031 <s> PUSH RIGHT
-0.3010 <s> SHOW </s>
-0.3010 <s> STOP </s>
-0.3010 <s> TAKE </s>
-1.5051 EFFECT IS DISAPPEARED
-1.5051 EFFECT IS GIVEN
-1.5051 EFFECT IS GRASPED
-1.5051 EFFECT IS LIFTED
-0.9031 EFFECT IS MOVED
-1.5051 EFFECT IS NO
-1.5051 EFFECT IS REACHED
-0.9031 EFFECT IS ROLLED
-1.5051 EFFECT IS TAKEN
-1.5051 EFFECT IS TOPPLED
-0.3010 HELLO ICUB MY
-0.3010 HELLO KADIR </s>
-0.3010 HELLO PR2 MY
-0.3010 ICUB MY NAME
-0.3010 IS DISAPPEARED </s>
-0.3010 IS GIVEN </s>
-0.3010 IS GRASPED </s>
-0.3010 IS ICUB </s>
-0.3010 IS KADIR </s>
-0.3010 IS LIFTED </s>
-0.9031 IS MOVED BACKWARD
-0.9031 IS MOVED FORWARD
-0.9031 IS MOVED LEFT
-0.9031 IS MOVED RIGHT
-0.3010 IS NO CHANGE
-0.3010 IS PR2 </s>
-0.3010 IS REACHED </s>
-0.9031 IS ROLLED BACKWARD
-0.9031 IS ROLLED FORWARD
-0.9031 IS ROLLED LEFT
-0.9031 IS ROLLED RIGHT
-0.3010 IS TAKEN </s>
-0.3010 IS TOPPLED </s>
-0.3010 MOVED BACKWARD </s>
-0.3010 MOVED FORWARD </s>
-0.3010 MOVED LEFT </s>
-0.3010 MOVED RIGHT </s>
-0.3010 MY NAME IS
-0.9031 NAME IS ICUB
-0.6021 NAME IS KADIR
-0.9031 NAME IS PR2
-0.3010 NO CHANGE </s>
-0.3010 OBJECT EIGHT </s>
-0.3010 OBJECT FIVE </s>
-0.3010 OBJECT FOUR </s>
-0.3010 OBJECT NINE </s>
-0.3010 OBJECT ONE </s>
-0.3010 OBJECT SEVEN </s>
-0.3010 OBJECT SIX </s>
-0.3010 OBJECT THREE </s>
-0.3010 OBJECT TWO </s>
-0.3010 PR2 MY NAME
-0.3010 PUSH BACKWARD </s>
-0.3010 PUSH FORWARD </s>
-0.3010 PUSH LEFT </s>
-0.3010 PUSH RIGHT </s>
-0.3010 ROLLED BACKWARD </s>
-0.3010 ROLLED FORWARD </s>
-0.3010 ROLLED LEFT </s>
-0.3010 ROLLED RIGHT </s>

\end\
