Language model created by QuickLM on Wed Feb  1 14:42:10 EST 2012
Copyright (c) 1996-2010 Carnegie Mellon University and Alexander I. Rudnicky

The model is in standard ARPA format, designed by Doug Paul while he was at MITRE.

The code that was used to produce this language model is available in Open Source.
Please visit http://www.speech.cs.cmu.edu/tools/ for more information

The (fixed) discount mass is 0.5. The backoffs are computed using the ratio method.
This model based on a corpus of 51 sentences and 44 words

\data\
ngram 1=44
ngram 2=83
ngram 3=76

\1-grams:
-0.9398 </s> -0.3010
-0.9398 <s> -0.2480
-2.1703 BACKWARD -0.2480
-1.5682 BALL -0.2218
-2.6474 BOX -0.2480
-2.6474 CANCEL -0.2480
-2.3464 CHANGE -0.2480
-2.6474 CUP -0.2480
-2.6474 CYLINDER -0.2480
-2.1703 DISAPPEARED -0.2480
-1.6060 EFFECT -0.2779
-2.6474 EIGHT -0.2480
-2.6474 FIVE -0.2480
-2.1703 FORWARD -0.2480
-2.6474 FOUR -0.2480
-2.6474 GIVE -0.2480
-2.3464 GIVEN -0.2480
-2.6474 GRASP -0.2480
-2.3464 GRASPED -0.2480
-2.6474 HELLO -0.2480
-2.6474 HEY -0.2480
-2.6474 ICUB -0.2480
-1.2857 IS -0.2779
-2.1703 LEFT -0.2480
-1.7443 MOVED -0.2891
-2.6474 NINE -0.2480
-2.3464 NO -0.2991
-1.6931 OBJECT -0.2921
-2.6474 ONE -0.2480
-2.0453 PUSH -0.2891
-2.3464 REACHED -0.2480
-2.1703 RIGHT -0.2480
-2.6474 SEVEN -0.2480
-2.6474 SIX -0.2480
-2.6474 STOP -0.2480
-2.6474 TAKE -0.2480
-2.3464 TAKEN -0.2480
-2.6474 THAT -0.2480
-2.6474 THE -0.2480
-2.6474 THERE -0.2779
-2.6474 THIS -0.2480
-2.6474 THREE -0.2480
-2.3464 TOPPLED -0.2480
-2.6474 TWO -0.2480

\2-grams:
-0.9294 <s> BALL 0.0000
-2.0086 <s> BOX 0.0000
-2.0086 <s> CANCEL 0.0000
-2.0086 <s> CUP 0.0000
-2.0086 <s> CYLINDER 0.0000
-0.9672 <s> EFFECT 0.0000
-2.0086 <s> GIVE 0.0000
-2.0086 <s> GRASP 0.0000
-2.0086 <s> HELLO 0.0000
-2.0086 <s> HEY 0.0000
-2.0086 <s> ICUB 0.0000
-1.0544 <s> OBJECT 0.0000
-1.4065 <s> PUSH 0.0000
-2.0086 <s> STOP 0.0000
-2.0086 <s> TAKE 0.0000
-2.0086 <s> THAT 0.0000
-2.0086 <s> THE 0.0000
-2.0086 <s> THERE 0.0000
-2.0086 <s> THIS 0.0000
-0.3010 BACKWARD </s> -0.3010
-1.3802 BALL </s> -0.3010
-0.3388 BALL IS -0.0362
-0.3010 BOX </s> -0.3010
-0.3010 CANCEL </s> -0.3010
-0.3010 CHANGE </s> -0.3010
-0.3010 CUP </s> -0.3010
-0.3010 CYLINDER </s> -0.3010
-0.3010 DISAPPEARED </s> -0.3010
-0.3010 EFFECT IS 0.0000
-0.3010 EIGHT </s> -0.3010
-0.3010 FIVE </s> -0.3010
-0.3010 FORWARD </s> -0.3010
-0.3010 FOUR </s> -0.3010
-0.3010 GIVE </s> -0.3010
-0.3010 GIVEN </s> -0.3010
-0.3010 GRASP </s> -0.3010
-0.3010 GRASPED </s> -0.3010
-0.3010 HELLO </s> -0.3010
-0.3010 HEY </s> -0.3010
-0.3010 ICUB </s> -0.3010
-1.1856 IS DISAPPEARED 0.0000
-1.3617 IS GIVEN 0.0000
-1.3617 IS GRASPED 0.0000
-0.7597 IS MOVED 0.0000
-1.3617 IS NO 0.0000
-1.3617 IS REACHED 0.0000
-1.3617 IS TAKEN 0.0000
-1.3617 IS TOPPLED 0.0000
-0.3010 LEFT </s> -0.3010
-0.9031 MOVED BACKWARD 0.0000
-0.9031 MOVED FORWARD 0.0000
-0.9031 MOVED LEFT 0.0000
-0.9031 MOVED RIGHT 0.0000
-0.3010 NINE </s> -0.3010
-0.3010 NO CHANGE 0.0000
-1.2553 OBJECT EIGHT 0.0000
-1.2553 OBJECT FIVE 0.0000
-1.2553 OBJECT FOUR 0.0000
-1.2553 OBJECT NINE 0.0000
-1.2553 OBJECT ONE 0.0000
-1.2553 OBJECT SEVEN 0.0000
-1.2553 OBJECT SIX 0.0000
-1.2553 OBJECT THREE 0.0000
-1.2553 OBJECT TWO 0.0000
-0.3010 ONE </s> -0.3010
-0.9031 PUSH BACKWARD 0.0000
-0.9031 PUSH FORWARD 0.0000
-0.9031 PUSH LEFT 0.0000
-0.9031 PUSH RIGHT 0.0000
-0.3010 REACHED </s> -0.3010
-0.3010 RIGHT </s> -0.3010
-0.3010 SEVEN </s> -0.3010
-0.3010 SIX </s> -0.3010
-0.3010 STOP </s> -0.3010
-0.3010 TAKE </s> -0.3010
-0.3010 TAKEN </s> -0.3010
-0.3010 THAT </s> -0.3010
-0.3010 THE </s> -0.3010
-0.3010 THERE IS -0.2817
-0.3010 THIS </s> -0.3010
-0.3010 THREE </s> -0.3010
-0.3010 TOPPLED </s> -0.3010
-0.3010 TWO </s> -0.3010

\3-grams:
-1.3802 <s> BALL </s>
-0.3388 <s> BALL IS
-0.3010 <s> BOX </s>
-0.3010 <s> CANCEL </s>
-0.3010 <s> CUP </s>
-0.3010 <s> CYLINDER </s>
-0.3010 <s> EFFECT IS
-0.3010 <s> GIVE </s>
-0.3010 <s> GRASP </s>
-0.3010 <s> HELLO </s>
-0.3010 <s> HEY </s>
-0.3010 <s> ICUB </s>
-1.2553 <s> OBJECT EIGHT
-1.2553 <s> OBJECT FIVE
-1.2553 <s> OBJECT FOUR
-1.2553 <s> OBJECT NINE
-1.2553 <s> OBJECT ONE
-1.2553 <s> OBJECT SEVEN
-1.2553 <s> OBJECT SIX
-1.2553 <s> OBJECT THREE
-1.2553 <s> OBJECT TWO
-0.9031 <s> PUSH BACKWARD
-0.9031 <s> PUSH FORWARD
-0.9031 <s> PUSH LEFT
-0.9031 <s> PUSH RIGHT
-0.3010 <s> STOP </s>
-0.3010 <s> TAKE </s>
-0.3010 <s> THAT </s>
-0.3010 <s> THE </s>
-0.3010 <s> THERE IS
-0.3010 <s> THIS </s>
-1.0414 BALL IS DISAPPEARED
-1.3424 BALL IS GIVEN
-1.3424 BALL IS GRASPED
-0.7404 BALL IS MOVED
-1.3424 BALL IS REACHED
-1.3424 BALL IS TAKEN
-1.3424 BALL IS TOPPLED
-1.3424 EFFECT IS DISAPPEARED
-1.3424 EFFECT IS GIVEN
-1.3424 EFFECT IS GRASPED
-0.7404 EFFECT IS MOVED
-1.3424 EFFECT IS NO
-1.3424 EFFECT IS REACHED
-1.3424 EFFECT IS TAKEN
-1.3424 EFFECT IS TOPPLED
-0.3010 IS DISAPPEARED </s>
-0.3010 IS GIVEN </s>
-0.3010 IS GRASPED </s>
-0.9031 IS MOVED BACKWARD
-0.9031 IS MOVED FORWARD
-0.9031 IS MOVED LEFT
-0.9031 IS MOVED RIGHT
-0.3010 IS NO CHANGE
-0.3010 IS REACHED </s>
-0.3010 IS TAKEN </s>
-0.3010 IS TOPPLED </s>
-0.3010 MOVED BACKWARD </s>
-0.3010 MOVED FORWARD </s>
-0.3010 MOVED LEFT </s>
-0.3010 MOVED RIGHT </s>
-0.3010 NO CHANGE </s>
-0.3010 OBJECT EIGHT </s>
-0.3010 OBJECT FIVE </s>
-0.3010 OBJECT FOUR </s>
-0.3010 OBJECT NINE </s>
-0.3010 OBJECT ONE </s>
-0.3010 OBJECT SEVEN </s>
-0.3010 OBJECT SIX </s>
-0.3010 OBJECT THREE </s>
-0.3010 OBJECT TWO </s>
-0.3010 PUSH BACKWARD </s>
-0.3010 PUSH FORWARD </s>
-0.3010 PUSH LEFT </s>
-0.3010 PUSH RIGHT </s>
-0.3010 THERE IS NO

\end\
