Language model created by QuickLM on Mon Dec 26 10:08:53 EST 2011
Copyright (c) 1996-2010 Carnegie Mellon University and Alexander I. Rudnicky

The model is in standard ARPA format, designed by Doug Paul while he was at MITRE.

The code that was used to produce this language model is available in Open Source.
Please visit http://www.speech.cs.cmu.edu/tools/ for more information

The (fixed) discount mass is 0.5. The backoffs are computed using the ratio method.
This model based on a corpus of 43 sentences and 46 words

\data\
ngram 1=46
ngram 2=90
ngram 3=77

\1-grams:
-0.9347 </s> -0.3010
-0.9347 <s> -0.2380
-2.2672 BACKWARD -0.2474
-2.5682 CANCEL -0.2474
-2.5682 CARE -0.2474
-2.5682 DISAPPEARED -0.2474
-2.5682 DISCARDED -0.2474
-2.5682 DON'T -0.2999
-2.2672 DOWN -0.2474
-1.4890 EFFECT -0.2818
-2.5682 EIGHT -0.2474
-2.5682 FIVE -0.2474
-2.2672 FORWARD -0.2474
-2.5682 FOUR -0.2474
-2.5682 GIVE -0.2474
-2.5682 GRASP -0.2474
-2.5682 GRASPED -0.2474
-2.0911 HELLO -0.2927
-2.5682 HOME -0.2474
-2.2672 ICUB -0.2420
-1.3641 IS -0.2781
-2.0911 KADIR -0.2474
-2.5682 KNOCKED -0.2987
-2.2672 LEFT -0.2474
-2.5682 LIFT -0.2474
-2.5682 LIFTED -0.2474
-1.9661 MY -0.2963
-1.9661 NAME -0.2818
-2.5682 NINE -0.2474
-1.6140 OBJECT -0.2903
-2.5682 ONE -0.2474
-2.5682 POINT -0.2474
-2.2672 PR2 -0.2420
-2.5682 PUSH -0.2474
-1.9661 PUSHED -0.2915
-2.5682 RELEASE -0.2474
-2.2672 RIGHT -0.2474
-2.5682 ROLL -0.2474
-2.2672 ROLLED -0.2474
-2.5682 SEVEN -0.2474
-2.5682 SHOW -0.2474
-2.5682 SIX -0.2474
-2.5682 STOP -0.2474
-2.5682 TAKE -0.2474
-2.5682 THREE -0.2474
-2.5682 TWO -0.2474

\2-grams:
-1.9345 <s> BACKWARD 0.0000
-1.9345 <s> CANCEL 0.0000
-1.9345 <s> DOWN 0.0000
-0.8553 <s> EFFECT 0.0000
-1.9345 <s> FORWARD 0.0000
-1.9345 <s> GIVE 0.0000
-1.9345 <s> GRASP 0.0000
-1.4574 <s> HELLO 0.0000
-1.9345 <s> HOME 0.0000
-1.9345 <s> LEFT 0.0000
-1.9345 <s> LIFT 0.0000
-1.6335 <s> MY 0.0000
-0.9803 <s> OBJECT 0.0000
-1.9345 <s> POINT 0.0000
-1.9345 <s> PUSH 0.0000
-1.9345 <s> RELEASE 0.0000
-1.9345 <s> RIGHT 0.0000
-1.9345 <s> ROLL 0.0000
-1.9345 <s> SHOW 0.0000
-1.9345 <s> STOP 0.0000
-1.9345 <s> TAKE 0.0000
-0.3010 BACKWARD </s> -0.3010
-0.3010 CANCEL </s> -0.3010
-0.3010 CARE </s> -0.3010
-0.3010 DISAPPEARED </s> -0.3010
-0.3010 DISCARDED </s> -0.3010
-0.3010 DON'T CARE 0.0000
-0.3010 DOWN </s> -0.3010
-0.3010 EFFECT IS -0.0969
-0.3010 EIGHT </s> -0.3010
-0.3010 FIVE </s> -0.3010
-0.3010 FORWARD </s> -0.3010
-0.3010 FOUR </s> -0.3010
-0.3010 GIVE </s> -0.3010
-0.3010 GRASP </s> -0.3010
-0.3010 GRASPED </s> -0.3010
-0.7782 HELLO ICUB -0.1761
-0.7782 HELLO KADIR 0.0000
-0.7782 HELLO PR2 -0.1761
-0.3010 HOME </s> -0.3010
-0.6021 ICUB </s> -0.3010
-0.6021 ICUB MY 0.0000
-1.5051 IS DISAPPEARED 0.0000
-1.5051 IS DISCARDED 0.0000
-1.5051 IS DON'T 0.0000
-1.5051 IS GRASPED 0.0000
-1.5051 IS ICUB -0.1761
-1.2041 IS KADIR 0.0000
-1.5051 IS KNOCKED 0.0000
-1.5051 IS LIFTED 0.0000
-1.5051 IS PR2 -0.1761
-0.9031 IS PUSHED 0.0000
-1.2041 IS ROLLED 0.0000
-0.3010 KADIR </s> -0.3010
-0.3010 KNOCKED DOWN 0.0000
-0.3010 LEFT </s> -0.3010
-0.3010 LIFT </s> -0.3010
-0.3010 LIFTED </s> -0.3010
-0.3010 MY NAME 0.0000
-0.3010 NAME IS -0.2430
-0.3010 NINE </s> -0.3010
-1.2553 OBJECT EIGHT 0.0000
-1.2553 OBJECT FIVE 0.0000
-1.2553 OBJECT FOUR 0.0000
-1.2553 OBJECT NINE 0.0000
-1.2553 OBJECT ONE 0.0000
-1.2553 OBJECT SEVEN 0.0000
-1.2553 OBJECT SIX 0.0000
-1.2553 OBJECT THREE 0.0000
-1.2553 OBJECT TWO 0.0000
-0.3010 ONE </s> -0.3010
-0.3010 POINT </s> -0.3010
-0.6021 PR2 </s> -0.3010
-0.6021 PR2 MY 0.0000
-0.3010 PUSH </s> -0.3010
-0.9031 PUSHED BACKWARD 0.0000
-0.9031 PUSHED FORWARD 0.0000
-0.9031 PUSHED LEFT 0.0000
-0.9031 PUSHED RIGHT 0.0000
-0.3010 RELEASE </s> -0.3010
-0.3010 RIGHT </s> -0.3010
-0.3010 ROLL </s> -0.3010
-0.3010 ROLLED </s> -0.3010
-0.3010 SEVEN </s> -0.3010
-0.3010 SHOW </s> -0.3010
-0.3010 SIX </s> -0.3010
-0.3010 STOP </s> -0.3010
-0.3010 TAKE </s> -0.3010
-0.3010 THREE </s> -0.3010
-0.3010 TWO </s> -0.3010

\3-grams:
-0.3010 <s> BACKWARD </s>
-0.3010 <s> CANCEL </s>
-0.3010 <s> DOWN </s>
-0.3010 <s> EFFECT IS
-0.3010 <s> FORWARD </s>
-0.3010 <s> GIVE </s>
-0.3010 <s> GRASP </s>
-0.7782 <s> HELLO ICUB
-0.7782 <s> HELLO KADIR
-0.7782 <s> HELLO PR2
-0.3010 <s> HOME </s>
-0.3010 <s> LEFT </s>
-0.3010 <s> LIFT </s>
-0.3010 <s> MY NAME
-1.2553 <s> OBJECT EIGHT
-1.2553 <s> OBJECT FIVE
-1.2553 <s> OBJECT FOUR
-1.2553 <s> OBJECT NINE
-1.2553 <s> OBJECT ONE
-1.2553 <s> OBJECT SEVEN
-1.2553 <s> OBJECT SIX
-1.2553 <s> OBJECT THREE
-1.2553 <s> OBJECT TWO
-0.3010 <s> POINT </s>
-0.3010 <s> PUSH </s>
-0.3010 <s> RELEASE </s>
-0.3010 <s> RIGHT </s>
-0.3010 <s> ROLL </s>
-0.3010 <s> SHOW </s>
-0.3010 <s> STOP </s>
-0.3010 <s> TAKE </s>
-0.3010 DON'T CARE </s>
-1.3802 EFFECT IS DISAPPEARED
-1.3802 EFFECT IS DISCARDED
-1.3802 EFFECT IS DON'T
-1.3802 EFFECT IS GRASPED
-1.3802 EFFECT IS KNOCKED
-1.3802 EFFECT IS LIFTED
-0.7782 EFFECT IS PUSHED
-1.0792 EFFECT IS ROLLED
-0.3010 HELLO ICUB MY
-0.3010 HELLO KADIR </s>
-0.3010 HELLO PR2 MY
-0.3010 ICUB MY NAME
-0.3010 IS DISAPPEARED </s>
-0.3010 IS DISCARDED </s>
-0.3010 IS DON'T CARE
-0.3010 IS GRASPED </s>
-0.3010 IS ICUB </s>
-0.3010 IS KADIR </s>
-0.3010 IS KNOCKED DOWN
-0.3010 IS LIFTED </s>
-0.3010 IS PR2 </s>
-0.9031 IS PUSHED BACKWARD
-0.9031 IS PUSHED FORWARD
-0.9031 IS PUSHED LEFT
-0.9031 IS PUSHED RIGHT
-0.3010 IS ROLLED </s>
-0.3010 KNOCKED DOWN </s>
-0.3010 MY NAME IS
-0.9031 NAME IS ICUB
-0.6021 NAME IS KADIR
-0.9031 NAME IS PR2
-0.3010 OBJECT EIGHT </s>
-0.3010 OBJECT FIVE </s>
-0.3010 OBJECT FOUR </s>
-0.3010 OBJECT NINE </s>
-0.3010 OBJECT ONE </s>
-0.3010 OBJECT SEVEN </s>
-0.3010 OBJECT SIX </s>
-0.3010 OBJECT THREE </s>
-0.3010 OBJECT TWO </s>
-0.3010 PR2 MY NAME
-0.3010 PUSHED BACKWARD </s>
-0.3010 PUSHED FORWARD </s>
-0.3010 PUSHED LEFT </s>
-0.3010 PUSHED RIGHT </s>

\end\
